0.00670103 0.00639175 0.000309278 0.00886598 0.00309278 0.00917526 0.00814433 0.00731959 0.00989691 0.00123711 0.00298969 0.00309278 0.00447179 0.00439531 0.00340206 0.000515464 0.00505155 0.00659794 0.00752577 0.00608247 0.00865979 0.0028866 0.00804124 0.00134021 0.00865979 0.000721649 0.00762887 0 0.00989691 0.00525773 0.000721649 0.0014433 0.00670103 0.00649485 0.00530051 0.00976721 0.000261676 0.00863539 0.00690574 -2.55802e-05 0.00951081 0.00948908 0.00839834 0.00399841 0.0093386 0.00143849 0.010075 0.00960021 0.00818456 0.00722314 0.00537149 0.0017404 0.00525773 0.0085567 0.00309278 0.00360825 0.00927835 0.0057732 0.00896907 0.00401545 0.00608069 0.00484536 0.000477814 0.00238588 0.00585595 0.00523343 0.00141038 0.00531695 0.00118259 4.32063e-05 -0.00187785 0.00756397 0.00233908 -0.00141133 0.00749958 0.00777011 0.0065866 0.00764677 0.0074055 0.00515847 0.00524728 0.00844423 0.00206186 0.00556701 0.00670103 0.000206186 0.00917526 0.000812468 0.00106154 0.00301702 0.0101543 0.00695678 0.00646633 -0.00139432 0.00868685 -4.05682e-06 -0.00631042 -0.00287787 -0.00279976 0.00306101 -0.0036208 0.00462676 0.00899904 0.0101153 0.0148542 0.00551607 0.00940829 0.00568039 0.00588375 0.00617465 0.00558315 0.00628866 0.00938144 0.00762887 0.00154639 0.000828474 0.00278943 0.00473896 0.000201251 0.00177761 0.00496397 0.00176864 -0.00166023 0.00900742 0.004365 -0.00119893 0.00548912 0.0152758 0.00920968 0.00776324 0.0171537 0.002644 -0.000717245 0.00899718 0.0113623 0.0127553 0.01291 0.0085808 0.00180477 0.00253579 0.00742268 0.00742268 0.00896907 0.00644156 0.00950605 0.00353655 0.00539113 -0.000896913 -0.00756228 -0.00730939 0.00312514 0.0133435 0.000946645 0.0208036 0.016029 0.015568 0.0114639 0.0114357 -0.0145213 -0.0103167 -0.00280733 -0.00775389 0.00388456 -0.000372835 0.00632866 0.0101601 0.000482336 0.00685183 0.0042268 0.00340206 0.00951154 -0.000227644 0.00427943 0.00232988 0.00499664 -0.0040188 -0.00493061 -0.00761773 0.00368965 0.00230478 -0.00425525 -0.00247896 0.0148968 0.00520065 0.0114119 0.000492609 0.00589641 -0.00462548 -0.0128331 -0.00575907 -0.0109985 -0.00702773 -0.00168862 0.00146887 0.00236889 0.00468429 0.00608247 0.00474673 0.00201252 -0.00227735 0.00207735 0.00535933 -0.00743023 -0.0118402 -0.0137598 -0.0181262 -0.0125448 -0.00983714 -0.0127403 -0.00619514 0.00066627 -0.0127196 -0.00407906 -0.00467641 -0.00768261 -0.000762986 -0.00253235 -0.00982977 -0.00259038 -0.00161065 0.00563926 0.00735512 0.00448809 -7.37988e-06 0.00605323 0.00695624 0.00049292 0.00120996 0.00623205 0.00816432 -0.007204 -0.00688874 -0.0148949 -0.00652164 -0.015399 -0.0177084 -0.0136781 0.00125896 -0.008878 -0.012704 -0.011377 -0.0165436 -0.0073292 0.0106194 -0.00131592 0.00699956 -0.00497748 -0.00323801 0.0095053 0.0120131 0.0102299 0.0028855 0.00449044 0.00224008 0.00840177 0.000603159 0.0042662 0.00977193 -0.00113143 -0.00838775 -0.0102014 0.00852975 -0.014558 -0.0093463 -0.0026981 -0.0133575 -0.0261544 -0.0113828 -0.010512 -0.00519525 -0.00761407 0.013479 0.0246059 0.00310568 0.00655351 0.00155849 0.0141111 0.00497963 0.0103885 0.000712143 0.00974073 0.00704002 0.00206902 0.00356831 0.00804884 0.00409039 0.00678284 0.00578831 -0.00505702 0.00514316 -0.00573556 -0.00969421 -0.00759739 -0.0285098 -0.0339114 -0.0139763 -0.0144462 -0.0121351 -0.00626418 0.0220265 0.017831 0.0142993 0.0162266 0.0153105 0.0112405 0.00923392 0.00865587 0.00332401 0.00772625 0.000303088 0.00726761 -0.00111274 0.0030866 0.00297206 0.000996099 -3.19477e-05 -0.000574616 0.00451157 -0.00512554 -0.0110403 -0.017514 -0.0335465 -0.0252168 -0.0157463 -0.00254647 -0.00399684 0.0130624 0.0156387 0.014701 0.0145801 0.0123127 0.015877 0.0111602 0.00412444 0.00246544 0.00933188 0.00515464 0.00246857 0.00716485 0.00364445 0.0030071 0.00442587 0.00206951 -0.00331411 0.00670121 0.00974033 0.0113261 -0.0088507 -0.0230208 -0.0278071 -0.0120728 -0.00956575 -0.00576573 -0.00340701 0.00381485 0.00169922 0.0178753 0.00949234 0.012969 0.0106536 0.00608763 0.00711861 0.00328626 0.00819867 0.00628866 0.00327599 0.00189491 -0.0038284 0.00261241 0.00624535 -0.00901249 -0.00151982 0.0108174 0.0292306 0.0397228 0.0112203 -0.00242943 -0.00663926 0.00556147 0.022724 0.0045276 0.000341447 -0.00386293 -0.00156731 -0.000428565 -0.00352687 0.00216972 0.00105756 0.00475472 0.00569572 0.00869209 0.00111065 0.00329897 0.00176076 0.00899185 0.0064805 -0.00448593 -0.00615828 -0.0141671 -0.0155613 0.014595 0.0317637 0.0454325 0.0337783 0.013041 0.00986292 0.0238294 0.0223271 0.00997241 0.00228059 -0.0208599 -0.0133794 -0.0074026 -0.00183308 -0.000583366 -0.00106572 0.000463129 0.000515198 0.000576118 0.00711107 0.00123711 0.00560169 0.00823909 0.00936319 -0.00155182 -0.00460616 -0.00933063 -0.0221752 -0.0110885 0.00993447 0.0481889 0.0361218 0.0437612 0.0268423 0.0197106 0.00957713 -0.00506494 -0.00925423 -0.0286536 -0.018346 -0.00915426 -0.00475298 0.00420792 -0.00133355 -0.00369052 0.00670861 0.00409664 0.0035071 0.00360825 0.00537378 0.00100342 0.00422343 -0.00413693 -0.0160912 -0.0132686 -0.0266533 -0.0379431 -0.00609314 0.00538816 0.019138 0.0508973 0.0450451 0.0212467 0.0123696 -0.00455727 -0.00882469 -0.0250835 -0.0190263 -0.00238983 -0.00698032 -0.00128944 -0.00623088 -0.00529141 0.00716687 -0.000364187 0.00901326 0.00865979 0.00509123 0.00874256 0.00166934 -0.0021453 -0.0117117 -0.0226683 -0.0305853 -0.0416319 -0.0386188 -0.0271397 0.00648088 0.0167029 0.0275968 0.00909322 -0.00310007 -0.00121438 -0.012743 -0.0164766 -0.024665 -0.00842304 0.000590599 -0.000548211 -0.000771515 0.00466534 -0.000700905 0.000933865 0.00353418 0.00505428 0.00226804 0.00262971 -0.000213319 -0.0121679 -0.013099 -0.011555 -0.0265387 -0.0325751 -0.0282753 -0.0168405 -0.0209952 -0.0230138 -0.00794567 -0.0123626 0.00586 0.0109253 -0.0079113 -0.0114403 -0.0108727 -0.0108103 -0.009327 -0.00292876 -3.14671e-05 -0.00072753 0.00644986 0.00688554 0.00417237 0.00443299 0.00815218 0.00727783 0.00640551 -0.00252636 0.000250025 -0.00632033 -0.00979603 -0.00743794 -0.0138825 -0.0203564 -0.0304473 -0.0223136 -0.0255431 0.00266133 0.0240937 0.0198633 0.0142872 -0.000182486 0.00317884 -0.0101254 -0.00356064 -0.00499787 -0.00753073 0.00527571 0.0080357 0.00632023 0.00965522 0.00752577 0.00308356 0.0084183 0.00129052 0.00723703 -0.00327936 -0.00430114 -0.00266697 0.00967607 0.00290193 -0.012862 -0.0101382 -0.00974936 -0.00209278 0.0207714 0.0252046 0.0156094 0.00813523 -0.000855944 -0.00418519 -0.0125273 -0.00835818 -0.0116532 0.00194767 0.00241259 0.00930528 0.00857261 0.00257732 0.00391753 0.0101031 0.00624962 0.000999685 0.00378219 0.00307363 0.00504388 0.0112058 0.0055913 0.00511128 -0.00775434 -0.000298614 0.0103926 0.00846493 0.0196698 0.0268783 0.00182978 -0.00482351 -0.0130125 -0.0138943 -0.0133711 -0.00920629 -0.00593557 0.000710328 0.00373246 0.00499898 0.00317881 0.0102062 0.000103093 0.00164948 0.00106344 0.00209752 0.000727442 0.00930938 0.0115677 0.0150432 0.00295799 0.00474165 0.00103644 0.012529 0.0117753 0.0144647 0.0273846 0.0209174 -0.00235001 -0.00655965 -0.0153954 -0.0108146 -0.00818091 -0.00322732 -0.00224687 3.5375e-05 0.00368741 0.00878259 0.0022447 0.00969072 0.00958763 0.00546392 0.00455893 0.00995196 0.00284371 0.00235912 0.00409041 0.0174944 0.0225598 0.0211171 0.0189953 0.0237775 0.00156524 0.0242591 0.0077498 0.00389977 -0.00966337 -0.0150691 -0.00740054 -0.0114102 0.00230043 0.000252711 -0.00373775 0.000741252 0.0052657 0.000701334 0.00870693 0.00381443 0.00927835 0.000515464 0.00333545 0.00606628 0.0038026 0.00470982 0.00573833 0.00720215 0.00913992 0.0139567 0.0138627 0.00297338 0.0172585 0.00633165 -0.00597483 -0.009564 -0.00848827 -0.0134534 -0.00318557 0.00512692 0.00136766 0.00760451 0.0083713 0.000994267 0.00144031 0.00559054 0.00729617 0.00123711 0.00618557 0.000721649 0.00507048 0.000304164 0.00502566 0.00189249 0.00148395 -0.00276944 -0.00124239 0.000618743 -0.0070638 -0.0037147 0.00992243 0.013706 0.0012135 0.00330408 0.0123255 0.00988667 0.00722391 0.00627611 0.00107806 0.00138241 0.00903242 0.00292609 0.00415783 0.00276442 0.00832771 0.000309278 0.00845361 0.000412371 0.00154639 0.00444701 0.00708586 0.00282435 0.0114619 0.00365779 0.000296724 0.00102752 -0.00163505 0.00507322 0.0120571 0.00460264 0.0133414 0.010061 -0.000870139 0.00154835 0.00183005 0.00401764 0.00483513 0.00760703 0.00375686 0.000209524 0.00278351 0.00206186 0.00268041 0.00680412 0.00484536 0.00618557 0.0071134 0.00298969 0.00164948 0.00370531 0.00246098 0.00821879 0.0052675 0.00734904 0.00562257 0.0061459 0.00149648 0.00651373 0.00709886 0.00193268 0.00749843 -0.000489186 0.000811381 0.00372224 0.00697089 0.00873576 0.0085371 0.00152732 0.00103093 0.00762887 0.00175258 0.00391753 0.00969072 0.00979381 0.000412371 0.0042268 0.000721649 0.00268041 0.00237113 0.00247423 0.00639175 0.0102062 0.0057732 0.00154639 0.00761829 0.00152322 0.00226804 0.00381443 0.00340206 0.00443299 0.0057732 0.00690722 0.00443299 0.00690722 0.000309278 0.000927835 0.00536082 0.00412371 0.00783505 0.00154639 0.0014433 0.00958763 0.00546392 0.00628866 0.00907216 0.00587629 0.00535744 0.00457658 0.00371558 0.00791664 0.00746264 0.0102426 0.00300408 0.00281829 0.00647244 0.00503142 0.00894394 0.00873752 0.00951372 0.0029238 0.00857982 0.00496065 0.00985307 0.0026345 0.00690722 0.00525773 0.00896907 0.00742268 0.00443299 0.00649485 0.00896907 0.00101895 0.00576906 0.00412371 0.00755791 0.0104249 0.00515533 0.00732312 0.00382046 0.00846765 0.00663428 0.00775178 0.00282541 0.000990182 0.00670892 -0.00274216 0.00719995 0.00223872 0.00197329 0.00786942 0.00775833 0.00249677 0.00842595 0.00208477 0.00505155 0.000309278 0.00247423 0.00381443 0.00773196 0.00697668 0.00536665 0.00632454 0.00375098 0.00276417 0.00680792 0.0050808 0.00354054 0.00158077 -0.00365034 -0.00146186 -0.00281967 -0.00323877 -0.00693932 -0.00644643 -0.00428131 -0.00197153 0.000359768 0.00417262 0.00616899 0.00986825 0.00575464 0.00471033 0.0094999 0.00360825 0.00649485 0.00948454 0.00391753 0.00907397 0.00832159 0.00586168 0.000858942 0.0033723 0.00325952 0.00197197 0.00358763 -0.00189966 -0.00678697 -0.017201 -0.0143552 -0.0143036 -0.00939804 -0.000474442 -0.00779477 -0.00978971 -0.00496154 0.00934958 0.0132608 0.0192964 0.0103421 0.00979313 0.00588729 0.00587177 0.00175258 0.0102062 0.00443299 0.00310309 0.00840934 0.00617542 -0.000199684 0.00244487 -0.00117158 -0.00405079 -0.00605743 0.010002 0.012228 -0.00196075 -0.0152212 -0.0241849 -0.0243959 -0.0175425 -0.016618 -0.0206808 -0.0018296 0.00521426 0.0138613 0.0124095 0.0127613 0.00702378 0.00468808 0.0049959 0.0085567 0.00917526 0.00581207 -0.00191395 0.00676084 0.00700007 -0.00271869 -0.00190604 -0.00136301 -0.0057472 -0.00704022 0.0125044 0.0069748 0.000830415 -0.0116878 -0.0175058 0.000255146 2.68583e-05 0.01224 0.0157002 0.0228532 0.0133797 0.0182722 0.0202857 0.00947616 0.00630299 0.011045 0.00132989 0.000309278 0.00327823 0.00130261 0.00626705 0.00286329 -0.00302022 -0.00743439 -0.017058 -0.0129253 -0.00894839 -0.00814933 -0.0161469 -0.0123006 -0.00168116 -0.00712425 -0.00817582 0.0037242 -0.00644526 0.00853183 0.0342015 0.0224151 0.0326039 0.0217494 0.0263834 0.00614727 -0.00549422 0.00496784 0.00389936 0.000906117 0.00906822 -0.000630757 0.0036683 -0.00153107 -0.00762436 -0.00168753 -0.0109029 -0.00303156 0.0092 -0.0167175 -0.0130346 -0.00990108 0.000766683 -0.00582976 -0.0036798 -0.00452497 -0.0122002 -0.00759428 0.0039084 -0.0103628 0.0170437 -0.00281871 0.00109009 0.00582544 0.00336647 0.00491032 0.000424722 0.00193038 0.00237015 0.00243452 0.00433698 -0.0101523 0.00341472 -0.00369307 0.00355533 0.0035182 0.0198048 -0.0125318 -0.022184 -0.0137917 -0.00779223 -0.0119467 0.00155537 -0.00271601 -0.0177419 -0.0288087 -0.0153181 -0.0123751 -0.0107694 -0.0187373 -0.0161301 0.0110424 0.00462033 0.00215026 0.00938733 0.00604947 0.00983613 0.00766952 -0.00110019 -0.00496409 0.00746167 0.00737411 0.00493969 0.0107351 0.0460418 -0.00199379 -0.0256209 -0.0240123 -0.0261939 -0.0184552 -0.00977717 -0.0222465 -0.0320551 -0.0282415 -0.0179845 -0.0198223 -0.0227236 -0.0148803 0.00360685 0.0160873 0.0101138 0.00691189 0.00767274 0.00401707 0.00266212 0.000199964 0.000918712 -0.00687106 0.00346002 0.0142957 0.0055313 0.0180612 0.0411259 0.00578423 -0.0245675 -0.0250562 -0.0327904 -0.0273832 -0.0201479 -0.0226443 -0.0396905 -0.0171989 -0.0187369 -0.0181134 0.00699531 0.00967955 0.0119209 0.0226773 0.0129196 0.00909335 0.00573663 0.00762887 0.00380645 0.0077111 0.00196416 -0.00543053 -0.00228442 0.00409766 0.00941897 0.0251898 0.0496452 0.0142254 -0.0130021 -0.0225393 -0.0346623 -0.0434305 -0.019902 -0.0161575 -0.0287846 -0.00703795 -0.0105633 0.00456589 0.00628672 0.00388694 0.018497 0.0129671 0.000550035 0.00603685 0.00819143 0.000721649 0.00901889 0.00341325 -0.00244436 -0.0150347 -0.00758573 -0.0132296 -0.000613028 0.0269118 0.0604232 0.0724358 0.00929452 -0.00965905 -0.0125092 -0.0170729 -0.00531772 -0.0057236 -0.00684871 -0.00420083 0.00735394 -0.00124145 0.014095 0.0173022 0.0046708 -0.000614335 -0.00185606 0.00672941 0.00658397 0 0.00898603 0.00445981 0.00295576 -0.00739175 -0.00712723 -0.00686635 -0.00621374 0.0135378 0.0372927 0.063961 0.0450875 -0.0016291 -0.0162613 0.00539859 0.00136384 -0.00198089 -0.00704068 0.00200703 -0.00426853 -0.0120686 0.00452763 0.00053436 -0.00148726 -0.00423932 0.00322248 0.00232523 0.00668818 0.0057732 0.00623159 0.00725919 0.0042433 -0.00854003 -0.00774746 -0.0147427 -0.0085965 -0.00999833 0.0223407 0.0509165 0.0445488 0.0122992 0.00767005 0.00425364 -0.00340979 0.0121525 0.0105602 -0.0060302 -0.0163543 -0.0191036 -0.0159747 0.00228859 0.000878796 -0.00257993 0.00192062 0.00817624 0.00252429 0.00298969 0.00223918 0.00310748 0.00540582 -0.000699261 -0.020223 -0.00367291 -0.0107161 -0.0174126 -0.00650731 0.0172153 0.0138996 0.0204678 0.0127265 -0.00686008 -0.0065184 0.0208898 0.0166302 -0.0152952 -0.00481968 -0.0169208 -0.0111126 -0.00304668 -0.00544633 -0.00475087 0.00730767 0.00365659 0.00105766 0.00876289 0.00566065 0.00849181 -0.00296002 -0.00365632 -0.0119781 -0.00806575 -0.0140984 -0.0132316 -0.0134018 0.00717348 0.0148173 0.0102839 0.0162536 0.0120621 0.0187168 0.0318165 0.0126067 -0.0115379 -0.0310112 -0.00697345 -0.0071148 0.00111007 0.000663114 0.00259969 0.00848679 0.00756059 0.00312823 0.00608525 0.00494845 0.00402272 -0.000896865 -0.0167223 -0.00590748 -0.0123235 -0.010448 -0.00400913 -0.00240522 0.000406725 0.00772146 0.0354054 0.0380895 0.0239547 0.022711 0.0157385 0.00814343 -0.00131189 -0.00810968 -0.0096192 -0.0129956 -0.00280983 -0.011452 0.00660056 0.00637589 0.00758319 0.008726 0.00494845 0.0052772 0.0012922 0.00104123 -0.016075 -0.0233256 -0.0170536 -0.0187016 -0.00768498 0.0106796 0.011999 0.00431843 0.0269405 0.0314444 0.0289068 0.0071023 -0.00292993 0.0116809 0.00524775 0.00196751 -0.018898 -0.0146286 -0.0155381 -0.0124251 0.00365962 0.00617868 -0.000354646 0.00458214 0.0043299 0.00761433 0.00838053 0.000466616 -0.0101338 -0.0209908 -0.0198932 -0.0266121 -0.0105365 -0.00702879 0.00980629 0.00855343 0.00896596 0.0232991 0.00489315 0.0016379 -0.0077029 -0.00765432 0.00791237 -0.00674288 -0.0168497 -0.018785 -0.0161242 -0.00448387 0.00533407 0.00511443 0.000971423 0.000309278 0.00845361 0.00123711 -0.000187294 0.000320603 -0.00530807 -0.0116243 -0.0226646 -0.0170056 -0.0151697 -0.0020168 0.00219868 0.0134654 0.0131142 0.0192634 0.00826748 -0.00628781 -0.0301649 -0.00898718 0.00269849 -0.0163881 -0.0172411 -0.0215137 -0.00110409 -0.00226107 0.00625373 0.00793484 0.00953229 0.00608247 0.00896907 0.00608247 0.00632419 0.0056275 0.00376818 -0.00784579 -0.0141056 -0.0150668 -0.00211718 0.000999454 0.00819661 0.0141459 0.008728 0.0151909 0.00491785 0.00720662 0.00581303 -0.0118986 0.000780178 -0.0037144 0.0033693 -0.00687809 0.00157613 0.00322348 0.00467842 0.00594215 0.00722467 0.0043299 0.00360825 0.00659794 6.57912e-05 0.00546351 0.00231361 -0.00275265 -0.00352706 -0.0070167 0.0148742 0.0246919 0.0194909 0.0157253 -0.00131522 0.00355574 -0.00212046 0.00157126 0.00905307 0.00173307 0.0168259 0.010313 0.00963222 0.00895773 0.00668391 0.00645269 0.00551689 0.00335292 0.00125929 0.00701031 0.00835052 0.00824742 0.00639735 0.00373058 0.00454801 -0.00682463 -0.00373182 -0.000943264 0.00112462 0.0115865 0.0129318 0.0263205 0.0138416 0.0140717 0.0116376 0.00851402 0.00911238 -0.0114595 0.00423786 0.00416481 0.00732547 0.00845996 0.00988529 0.00213015 0.00129624 0.00636038 0.00984251 0.00536082 0.00938144 0.00618557 0.0074204 0.00742311 0.00337787 0.00541462 0.000991795 -0.00772527 -0.00750272 0.000856017 0.0133072 0.0103635 0.00583859 0.0122537 0.00699626 0.00159422 0.00846293 0.0131577 0.0116286 0.0062225 -0.000886554 0.00772623 0.0096249 0.00816928 0.00473176 0.000160715 0.00262606 0.00103093 0.00670103 0.00762887 0.00639175 0.000830983 0.00425872 0.00904705 0.0021946 0.00595612 0.00884256 0.00330136 0.00395151 0.00824014 0.00897539 0.0142138 0.0139594 0.0075843 0.00117653 0.00487769 0.00616104 0.00348647 0.00110431 0.00150091 0.00438289 0.0102041 0.00298969 0.00814433 0.00742268 0.00783505 0.00835052 0.00515464 0.00896907 0.0101031 0.00257732 9.91371e-05 0.000710469 0.0060471 0.00375308 0.0036628 0.00877853 0.00188339 0.00681325 -0.000829241 0.00553553 0.00938089 0.00725013 0.00144384 0.00826986 0.00836379 0.00950582 0.00330093 0.00980759 0.00690773 0.000412371 0.0043299 0.00680412 0.00886598 0.00216495 0.00927835 0.00639175 0.00556701 0.0042268 0.000103093 0.00546392 0.00185567 0.0056701 0.00618557 0.00793814 0.00979381 0.00539627 0.00657245 0.00639175 0.00185567 0.00164948 0.000927835 0.00546392 0.0043299 0.00257732 0.00845361 0.00226804 0.00701031 0.0071134 0.00195876 0.00360825 0.00752577 0.00134021 0.000103093 0.00608247 0.00896907 0.00443299 0.00762887 0.00460748 0.00932286 0.00827391 0.00478294 0.000242339 0.00863705 0.000810492 0.00352722 0.00826373 0.00636373 0.00491184 0.0042641 0.00304319 0.00667818 0.0051589 0.00846916 0.00591748 0.00269064 0.00164948 0.00814433 0.00969072 0.00876289 0.00515464 0.00298969 0.00597938 0.00162904 0.00844656 0.00721649 0.00632908 0.00444408 0.00660461 0.0117027 0.00996247 0.0123116 0.00830303 0.00601553 0.00390066 0.00114481 0.00583785 0.0105936 0.00240535 0.00488328 0.00213771 0.00444232 0.00730331 0.00283574 0.00803456 0.0023916 0.00525773 0.00938144 0.00546392 0.0101031 0.00783505 0.005605 0.00270961 0.00901751 0.00932731 0.0080872 0.00791683 0.00627806 0.0128378 0.0114937 0.0162235 0.00887174 0.0149628 0.00732356 0.00205595 0.00708756 0.00657383 0.00155868 0.00413466 0.00707871 0.00704032 0.0049502 0.00816824 0.0088395 0.00686312 0.00525773 0.000618557 0.00721649 0.00969072 0.00112384 0.00731037 0.00959187 0.0102731 0.00738804 0.0044103 0.0122148 0.00502554 0.00309047 0.0102034 0.0115532 0.00727391 -0.00339602 -0.00153221 0.00508255 0.00224344 -0.00206183 -0.0018062 0.000863256 0.00190977 0.00244267 0.00543585 0.00623143 0.00944615 0.00506945 0.00515464 0.00113402 0.00546392 0.000860739 0.0103304 0.008725 0.0104603 0.00162467 0.00344628 0.00530214 0.00796657 0.00698703 0.00736565 -0.00386854 -6.06129e-05 -0.00849015 -0.0118621 -0.00468342 -0.00334274 -0.00522599 -0.00220817 -0.00288703 -0.000496693 0.00129922 -0.00185568 0.00465772 0.00517393 0.00775715 0.000412371 0.0043299 0.00257237 0.000675698 0.00300553 0.0119366 0.00664606 0.000820475 0.00264526 0.00161264 -0.00446026 0.00856856 -0.00187719 -0.00516427 -0.00871064 -0.0195049 -0.0210984 -0.0174156 -0.0145162 -0.00458038 0.0036863 -0.00114953 0.000621713 0.00213312 0.0027829 0.009397 0.00591806 0.00322719 0.00793814 0.000930763 0.00606397 0.00800681 0.0028171 0.0072271 0.000138415 -0.00579871 -0.000859888 -0.00545555 -0.00042625 0.00557021 0.00355357 -0.0063245 -0.00755554 -0.0119839 -0.0179766 -0.0160234 -0.0118806 -0.00791622 -0.00460136 -0.00530198 -0.00288439 0.00148147 0.00767582 0.00118002 0.00419888 0.00671083 0.010016 0.0101147 0.00460634 0.00724076 0.00345198 0.00179258 -0.00534482 -0.00764402 -0.00433541 -0.00594024 0.00514872 -0.00216928 -0.00228671 -0.0136185 -0.0208318 -0.0125166 -0.0147922 -0.00662886 -0.0168343 -0.00477601 0.00228759 0.00464703 -0.00318443 -0.00198372 0.00323068 0.0056792 0.00360453 0.000918124 0.00773295 0.00288777 0.00261402 0.00684486 0.00426931 0.00623864 0.00170252 0.000166343 -0.00109481 -0.00414353 0.00353184 0.00311605 -0.00658933 -0.0146045 -0.0133855 -0.00577037 -0.00165821 -0.00456243 -0.00585285 0.00127942 0.0170909 0.00841825 -0.0020065 -0.00499595 0.00251315 -0.000707623 0.000985313 0.00229179 0.00690837 1.22575e-05 0.00885418 0.00375332 0.00077314 -0.00134261 -0.00293271 -0.00442643 -0.00411846 0.00092547 0.00506303 -0.00244534 -0.0118997 -0.00828683 -0.00916979 -0.00513631 -0.00494228 0.000613488 0.00544639 0.00661181 0.0133166 0.00824764 0.000315963 0.000678914 0.00905498 0.00081044 0.00347709 0.00383441 0.00247435 0.005485 0.00144643 0.00348394 0.00239776 0.00480046 -0.000479453 -0.00451121 0.00153727 0.00320115 0.00202812 -0.013461 -0.0126294 -0.00365311 -0.00439585 -0.00253859 0.00299706 0.00855647 0.00838729 0.000404555 -0.000592837 0.00936065 0.00679687 0.00607018 0.00407831 0.00451255 0.00865606 0.00379973 0.00845361 0.00915389 0.00340902 0.00424469 0.00420828 -0.00542505 -0.00964771 0.00609229 0.00871846 0.00514817 -0.000195273 -0.00197344 9.7678e-05 -0.00394138 -0.00507443 0.000676512 0.00711714 0.00714306 0.000819179 -0.00712029 -0.00239301 0.0113823 0.00207519 0.00216294 0.00691615 0.00535686 0.0047288 0.00970777 0.00319588 0.0100816 0.00903306 0.0053369 0.00324295 -0.00590468 -0.000982823 0.00332305 0.00386942 0.00942241 0.00234146 -0.00572091 -0.00614619 -0.00438159 -0.0046041 0.00211986 0.00768368 -0.000764113 0.000944707 0.00309516 0.00593344 0.0157273 0.0086822 0.00812328 0.0118145 -2.0075e-05 0.00732098 0.00889049 0.00278351 0.002062 0.00842736 0.00550195 0.00277953 0.000932817 0.00532907 0.00410403 0.0143135 0.00303658 0.00205638 -0.00482845 0.00483714 0.00239365 0.00346502 0.00696659 0.00259787 0.01026 -0.0054528 0.00389396 0.0118841 0.0185147 0.0110779 0.00387647 0.00533288 0.00654688 0.00917614 0.00526004 0.00134021 0.00609573 0.00928574 0.00983504 -0.000542111 0.00742223 0.00629823 0.00287004 0.00730124 0.00268757 -0.0051957 -0.000115667 -0.000807439 -0.00458151 0.00358633 0.00326553 0.000108335 0.00183263 0.00300861 0.0110093 0.00925464 0.00433511 0.00182411 0.0050823 0.00712915 0.0094601 0.00949634 0.00434623 0.00762887 0.00815154 0.004657 0.00452462 0.00288843 0.00343622 0.00486046 0.00581085 0.0104712 0.010771 -0.000649701 0.00485162 -0.00338452 -0.00179631 0.00579998 0.0109221 0.0121281 0.000155249 0.0106051 0.0121479 0.00489872 0.00694156 -0.00549905 0.001359 0.00390705 0.0064246 0.00803478 0.00815618 0.00391753 0.00711566 0.00752476 0.00186857 -0.000509317 0.00318872 0.0059303 0.00320815 -0.000264177 0.00660733 -0.00427984 -0.00146816 -0.0077165 0.000425968 -0.00080047 0.00710933 0.0106221 0.0035983 0.00654351 0.00036848 0.000118589 0.00163995 0.00276143 0.00886757 0.0100947 0.0099484 0.00917137 0.00778127 0.00875902 0.00185567 0.000702273 0.00288389 0.00958622 0.00658966 0.00620862 0.00594799 0.00223861 0.0042415 0.000928187 0.000832067 0.00727143 0.00622499 0.0109117 0.00782256 0.0110126 0.00764846 0.00837198 -0.00759425 0.00197072 -0.000434722 -0.00223575 0.010789 0.00420278 0.00272372 0.00994479 0.0102158 0.00783505 0.00392995 0.00282848 0.00180974 0.00589818 0.00206508 0.00685243 0.0108037 -0.000179799 -0.000724822 -0.00522252 0.00495435 -0.00197289 0.00845623 0.0121177 0.0111699 0.00646519 0.0110742 -0.000220647 -0.00755745 -0.000830929 0.00268399 -0.00284649 0.00503884 0.000949088 0.00326569 0.00667954 0.00876015 0.00948454 0.00638759 0.00880226 0.00291667 0.00517258 0.000247296 1.21216e-06 0.000970868 0.00492402 -0.000927851 -0.00940986 -0.0066053 -0.00413681 0.00411379 0.00458311 0.00366585 0.00615425 0.00692212 -0.0019052 -0.00856588 0.00587075 0.0056771 -0.00395523 0.00427344 0.00380585 -0.00045555 0.00631881 0.00670103 0.00896907 0.00268041 0.000376326 0.00400107 0.00364167 0.00262197 0.0015906 0.00495972 -0.00358986 -0.00415097 -0.00138081 -0.00863577 -0.00280169 -0.000971991 -0.00527292 0.00458277 0.00478781 -0.00296347 -0.003582 -0.00211382 0.00733137 -0.000132257 -0.00255934 -0.00120321 -0.00408568 0.00617966 0.00803163 0.00587629 0.0028866 0.00391753 0.0077623 0.00190811 0.00152316 0.00736806 0.00262295 -0.00451834 -0.00620417 -0.00223826 -0.00203292 -0.010776 -0.00220131 -0.0107213 -0.012926 -0.0039706 -0.00820201 -0.00216855 -0.00466631 -0.00185959 -0.00360094 -0.000375554 0.00238453 -0.00317229 0.00340852 0.00153502 0.00494852 0.00793814 0.000103093 0.00309278 0.00353367 0.00301807 0.00189127 7.0665e-05 0.00920135 0.0070678 0.00171795 -0.000599169 -0.0060006 -0.00641317 -0.00624085 -0.010645 -0.0043449 -0.000383226 -0.00507678 -0.00244271 -0.0119113 -0.00664039 -0.00217206 0.00614718 0.00102992 0.00146897 0.00301072 5.46501e-05 0.00685785 0.00360825 0.00989691 0.00752577 0.00661638 0.0100994 0.00564968 0.0100351 0.00773023 0.00630594 0.00197677 0.0025118 0.000436987 0.00341379 -0.00368563 -0.00551803 -0.000848192 0.00593005 0.00553416 0.00498114 -0.00190606 -0.00187423 0.00120551 0.00396149 -0.00118994 0.00686754 0.00140426 0.00683603 0.00773818 0.00268041 0.00319588 0.00989691 0.00628861 0.00279758 0.00710689 0.00249973 0.00734115 0.001882 0.00658136 0.00353839 0.00301154 0.00714488 0.00763195 0.000352901 0.00747913 0.00264122 0.00900173 0.00511124 -0.00172999 -0.00712662 0.000672333 0.00328466 0.0032567 0.00993479 0.00909375 0.00670632 0.0075321 0.000309278 0.0085567 0.00494845 0.00298969 0.00680298 0.00449803 0.00414415 0.00876832 0.00593966 0.000685261 0.00585382 0.00857954 0.00413531 0.0071312 0.00367639 0.000865792 -0.00143038 -0.00133656 0.00432534 0.00384546 0.000968001 0.00341589 -0.000595426 0.000338534 0.00256291 0.00670103 0.00587629 0.00773196 0.00546392 0.00762887 0.00505155 0.0057732 0.000927835 0.00505155 0.00381279 0.0076923 0.00453144 0.00796382 0.00700091 0.0012142 0.00508904 0.00903768 0.00547029 0.00962245 0.00123207 0.0101089 0.00336117 0.00328622 0.00637989 0.00512664 0.0102456 0.00742935 0.00109485 0.000309278 0.00814433 0.00907216 0.00206186 0.00907216 0.00659794 0.00752577 0.00649485 0.00670103 0.00835052 0.00742268 0.00680412 0.00185567 0.00494845 0.00123711 0.00505155 0.00704766 0.002556 0.00525773 0.00103093 0.00319588 0.00484536 0.00278351 0.00309278 0.00298969 0.000618557 0.00484536 0.00835052 0.0056701 0.00154639 0.00453608 0.00103093 0.00474227 0.00865979 0.00309278 0.00360825 0.00494845 0.000309278 0.0105967 0.00766469 0.00452116 0.00233351 0.00334726 0.000904012 0.00249852 0.00491726 0.000951497 0.00979411 0.00243425 0.00623116 0.0055098 0.005436 0.000569278 0.00340585 0.00381896 0.00909247 0.00391753 0.00350515 0.00206186 0.00958763 0.00515464 0.00164948 0.000309278 0.00495767 0.00010627 0.00876289 0.00934434 0.00226083 0.0120324 0.00640363 0.0126108 0.00968849 0.00926458 0.00803511 0.0104819 0.00807235 0.00578408 0.0114378 0.00362751 0.00634892 0.00471809 0.00794404 0.00818473 0.000688456 0.000752496 0.00629874 0.00938144 0.00989691 0.00969072 0.00659794 0.00917526 0.0099234 0.00828934 0.00457706 0.00667583 0.00963328 0.00667106 0.0148387 0.0136204 0.0138179 0.00964953 0.00761338 0.0131753 0.010495 0.00621423 -0.00117222 -0.0038219 -0.00384925 -0.00142835 0.00152584 0.00234041 0.00692206 0.00507732 0.00975986 0.00699198 0.000721649 0.00556701 0.00113402 0.000309278 0.00494813 0.00786437 0.0111406 0.0118892 0.00232645 0.0140999 0.00863174 0.0181156 0.00762603 0.00782839 0.009315 0.0131289 0.00820635 0.000707101 0.00261494 -0.00131591 0.00187349 -0.00442702 -0.00278292 -0.0014597 0.00474499 0.00637542 0.00501119 0.00472036 0.0034754 0.0102062 0.00670103 0.00412371 0.00531109 0.00390927 0.0102272 0.00262846 0.00519963 0.00992822 0.000806349 0.0121148 0.00469732 0.00872651 0.00083187 -0.00438527 -0.00986263 -0.00445238 -0.00680144 -0.0125601 -0.00581534 -0.00614301 -0.00553903 0.00156095 0.00130933 -0.00174274 0.00705079 0.00814351 0.00691578 0.00257732 0.00752577 0.0101542 0.00819254 0.00987302 0.0096299 0.0043362 -0.00506493 0.00532247 -0.00158103 -0.00167051 0.001936 0.00306847 -0.00701714 -0.0163961 -0.0176121 -0.01147 -0.017114 -0.0175536 -0.0118558 -0.00829206 -0.0118123 -0.00137274 -0.00311959 0.00707855 0.00224364 0.00837212 0.00126492 0.00525773 0.000822075 0.00778285 0.00660039 0.00851674 0.00383384 -0.00474278 0.00350673 0.00522644 -0.000841383 0.00667229 -0.000742132 -0.00364555 -0.0169475 -0.0115109 -0.0150779 -0.012933 -0.0174107 -0.00754136 -0.0113786 -0.00770684 -0.00712374 -0.00469671 -0.000324305 0.00510355 0.00312391 0.00117738 0.00513767 0.000336894 0.00465612 0.000529498 0.00411858 0.00575261 0.00525171 0.00479271 0.000823028 0.00136725 0.00718388 0.00576373 0.00289682 -0.00551429 -0.0178375 -0.020087 -0.0153498 -0.0098444 -0.0105274 -0.0132963 -0.0104233 -2.66327e-05 -0.00228908 -0.00747886 -0.000298016 -0.00221637 0.00212643 0.00647507 0.00333664 0.000517541 0.00295218 0.00803461 0.00509668 0.00575348 0.00258919 -0.00361198 0.00116156 0.00443553 0.0133389 0.00498332 0.00571448 -0.00161877 -0.00928452 -0.00993137 -0.00878328 -0.00282991 0.0039814 -0.00383104 0.0083876 0.00264333 -0.00171989 -0.00224477 0.00578529 0.00309932 0.00628605 0.00335041 0.0045425 0.00474468 0.000323829 0.00828115 -0.000483843 0.00642333 -0.00350515 0.00229761 0.00463427 0.00602608 0.0102124 0.00586552 0.00121773 -9.82554e-05 -0.000557233 0.00198834 0.00712462 0.00352986 0.00777654 0.00285427 0.00883465 0.00740667 0.00800482 0.00618621 0.00565736 0.00381718 0.00125409 0.00947529 0.0055454 0.00391779 0.00327923 -0.00014154 0.002842 0.000771966 -0.00342477 -0.00133813 0.00547275 0.0073941 0.010043 -0.00349557 -0.00729983 -0.00493932 -0.00328759 0.00753466 0.00240438 0.00778134 0.000931368 -0.0004345 0.00961838 0.0110837 0.00744105 0.00586079 0.0140285 0.00812805 0.00641093 0.00289976 0.00348417 0.0014433 0.00173673 0.00394063 -0.00137602 0.000726178 -0.0053205 -0.00189856 0.003314 0.00892613 0.00937851 -0.00344019 -0.0048653 2.87142e-05 0.00177826 -0.00210828 0.00564776 0.00687714 0.00337656 -0.000295752 -0.00177529 0.00968947 0.0127818 0.00947995 0.0100919 0.0190992 0.00572297 0.00882702 0.00101884 0.00752577 0.000816206 0.0099125 0.0025059 0.00299715 -0.00564854 0.000912309 -0.00255703 0.00756529 0.0121804 -0.00762163 -0.00246757 -0.00578389 0.0021018 0.00209468 0.00332241 0.00108772 -0.00381779 -0.00575816 0.00109616 0.00267167 0.0120993 -7.17198e-05 0.00779844 0.00836177 0.0116559 0.00018937 0.000305871 0.00247423 0.00906316 0.00678479 0.00402405 0.000541558 -0.00075351 0.00787807 -0.00195856 0.00847391 0.00476631 -0.00439831 0.0051741 -0.00396856 0.00240568 -0.00195172 0.00299935 -0.00780749 -0.0075852 -0.00762592 -0.00197001 0.00373592 0.0120169 0.00367698 0.00600059 0.00310614 0.00801999 0.00319764 0.00546385 0.00546392 0.00895424 0.000836951 0.00241963 -0.00184371 -0.000416655 -0.00143849 -0.00123651 0.010653 0.00796219 0.00468466 0.00511619 0.00917823 -0.000272426 0.00609619 -0.00149147 -0.00731535 -0.0119955 -0.00731364 0.00180139 0.00786406 0.00362675 -0.00497237 0.00370683 0.00603351 0.0071759 0.00296361 0.00653103 0.00690722 0.00164317 0.00154078 0.00137278 0.00141114 0.00180465 -0.00443522 -0.00405235 0.00606632 0.0140196 0.00918185 0.0120298 0.00636666 0.00699056 0.00607042 -0.00420882 -0.00518814 -0.00749326 -0.00132447 0.00257687 0.00100506 -0.000343617 -0.00507361 0.00777573 0.00215729 0.00470044 0.00132175 0.00274983 0.00298969 0.000100731 0.00913077 0.00931919 0.00294682 0.00195991 -0.00115309 -0.00397549 -0.000408155 0.00893093 0.00300167 0.00601211 0.0083188 0.0139201 0.00561735 0.00035005 0.00254924 -0.000976698 0.00200732 -0.00186816 -0.00184975 -0.00670774 -0.00464473 0.0082443 0.0098502 0.00254309 0.00933318 0.00625766 0.00958665 0.00701031 0.00889631 0.00143481 6.58517e-05 -0.00290647 -0.00649389 -0.00326375 0.00358504 0.00250454 0.00662359 0.00843047 0.00624442 0.0133395 0.00230755 -0.00348198 -0.00831923 -0.000164236 0.00500722 -0.00741909 0.00245688 -0.00398097 0.00156108 0.00862702 0.00566254 0.000918832 0.000357443 0.00181036 0.00783505 0.000728901 0.00322622 0.00638597 0.00156019 -0.0033315 -0.00268596 -0.00491802 -0.00966572 0.00529799 0.0126359 0.0173487 0.00799828 0.00603899 0.00686728 0.000491211 -0.00137587 -0.000537226 -0.00400267 0.000587337 0.00878787 -0.00273278 0.00494914 0.00252979 0.00558623 0.00915236 0.0100201 0.00863532 0.00350515 0.00072153 0.00577806 0.00616656 0.00567026 0.00566495 0.000803543 0.0016009 -0.00433975 -0.00309345 0.00908639 0.00823077 0.0082149 0.0145662 0.01319 0.0132602 0.00621982 0.00912215 -0.00203467 0.00291277 0.00546281 0.00699465 -0.000783635 0.00381645 0.00193759 0.00755778 0.00151879 0.00618557 0.0042268 0.00670103 0.00475876 0.00268605 0.0017564 -0.00314233 0.00389771 0.000317986 -0.000800651 -0.000501078 -0.000892761 -0.00406017 -0.00494608 0.00716922 0.0156059 0.0123332 0.0106507 0.00618729 0.012472 0.0124364 0.0158543 -0.00122218 0.00089744 0.00354054 0.000491189 0.00387656 0.00697644 0.00783505 0.00989691 0.00350515 0.00922345 0.00917889 0.00471277 0.00208746 -0.00214887 0.00363042 0.00383681 -0.00606972 -0.00814161 -0.0103261 -0.00750524 -0.00476857 0.000357059 0.00472681 0.00514291 0.00184077 0.00514554 0.0091952 -0.00180855 0.000614769 -0.00275478 -0.000364254 0.00108901 0.000921624 0.00180549 0.00731959 0.00453608 0.00381443 1.24873e-05 0.00407779 0.00248754 0.00832144 -0.000122104 0.00254474 0.00470457 0.00442148 -0.0094911 -0.0108051 -0.00920395 -0.00168099 -0.0109868 -0.00363695 -0.00132607 -0.00300293 0.000198309 0.0012438 -0.00420261 0.00147334 0.00887835 0.00581051 0.00574595 0.00624446 0.00569474 0.0014433 0.00742268 0.00742268 0.00386025 0.00155003 0.00596761 0.00835798 0.00375051 0.00524663 0.000402395 0.00170794 -0.00242612 -0.00352512 0.00112875 -0.00356606 0.0024678 0.00100027 0.00130126 7.88758e-05 0.00193824 -0.00515619 0.00196085 -0.00413793 0.00375013 0.00842441 0.00146407 0.00508072 0.00959173 0.00896907 0.00103093 0.00494845 0.00010367 0.00844799 0.00732539 0.00879793 0.00475377 0.00846168 0.00709716 0.0053195 0.00755129 0.00687409 -0.000412733 0.00316463 0.00151728 0.00930472 0.00438107 -0.00111777 0.005895 0.00522038 0.0047737 -0.000378706 0.00101303 0.00637362 0.00298167 0.00588026 0.00845835 0.00350515 0.00597938 0.0028866 0.00216495 0.00206024 0.00784874 0.00771427 0.00521577 -0.000514168 0.000991216 -0.000398489 0.00851592 0.00518297 0.00643026 6.4898e-06 -0.000394645 0.000704305 0.0029817 0.00269006 -0.000986015 0.00286823 0.00312018 0.00749415 0.00239974 0.00730455 0.000721649 0.00391753 0.00226804 0.00845361 0.00484536 0.00587629 0.00175258 0.000515464 0.00876289 0.00927905 0.0025757 0.00132545 0.00174711 0.00331212 0.00153896 0.00369481 0.003861 0.00553247 0.00890158 0.000406334 0.00174035 0.000171349 0.00181126 0.00132429 0.00436008 0.00768127 0.000436637 0.0036878 0.00762887 0.0043299 0.000721649 0.00340206 0.00340206 0.00845361 0.00164948 0.00329897 0.00938144 0.00876289 0.00391753 0.00783505 0.00773196 0.00154639 0.00917526 0.00958763 0.00486784 0.00582242 0.00835052 0.00381443 0.00649485 0.0071134 0.00969072 0.00340206 0.00257732 0.00721649 0.00494845 0.00226804 0.00556701 0.00123711 0.00597938 0.00298969 0.000618557 0.00185567 0.0014433 0.00402062 0.00536082 0.00309278 0.00254762 0.00462519 0.0017106 0.0064146 0.00195773 0.00443357 0.00307493 0.00645898 0.00916698 0.00316674 0.00216068 0.00732269 0.00186953 0.00334401 0.00930877 0.00135996 0.0068799 0.00162624 0.0085567 0.00680412 0.00381443 0.00927835 0.00804124 0.00494845 0.00731959 0.00876749 0.00185726 0.00876289 0.00784232 0.00250226 0.00280262 0.00171341 0.00759714 0.00929111 0.00237857 0.00469666 0.00844509 0.00784979 0.00701092 0.0045651 0.00664503 0.00515222 0.00897383 0.0100606 0.00524857 0.00308836 0.00107387 0.0018108 0.00463918 0.00453608 0.00350515 0.00350515 0.00886598 0.00135286 0.00349999 0.00531113 0.00472201 -0.000382429 0.00275245 0.00952147 0.00519411 0.00628941 0.00866832 0.0204342 0.0151697 0.0046384 -0.00301132 -0.000445327 0.00626798 0.00507389 0.00102627 0.00528263 0.00913974 0.00282023 0.00699855 0.00451925 0.00617224 0.00268041 0.00113402 0.00587629 0.00226804 0.00474139 0.00445298 0.00174995 0.00359221 0.00499354 -0.000391299 -0.00137471 0.00227209 0.00589167 0.0105292 0.0113178 0.00994664 0.00291612 0.00334956 -0.00341478 0.00106487 0.001988 0.00709403 -0.00147283 0.00487687 0.00266682 0.00752388 0.000304024 0.001826 0.000208059 0.000103093 0.00309278 0.00824742 0.00123641 0.00667131 -0.00884409 -0.0111211 0.00906056 -0.00221019 0.00592852 0.0213315 0.0223403 0.0117797 -0.0132885 -0.0264976 -0.00806716 -0.0122594 -0.00903235 -0.00446554 0.00423219 0.0021159 0.00544279 0.0034746 0.000991874 0.00208626 0.00546769 0.0066399 0.00762946 0.00639175 0.0085567 0.00102664 0.00390129 -0.000669708 -0.00310551 -0.00498346 0.0125285 0.0202922 0.0141964 0.013949 0.0041917 0.00607228 0.0111516 0.0264363 -0.00329795 -0.0259674 -0.0196663 -0.00518946 0.00115482 0.00189282 -0.00825916 0.00514716 -0.00303182 0.00417846 0.00674959 0.00434624 0.00980609 0.0028866 0.00638734 0.000838142 0.00165514 0.00602334 0.017356 0.00757602 0.0269231 0.03948 0.0230881 0.00845785 -0.000180578 0.00849979 0.0269255 0.0377128 0.0277032 0.000904236 -0.0133317 -0.0134317 -0.00139425 0.000764164 0.00108272 0.00593804 0.00110603 -0.00115491 -0.000684386 0.00360828 0.00639811 0.00744096 0.00866817 0.00291559 0.00347971 0.0187544 0.00889609 0.00927359 0.00830655 0.0200424 0.00884151 0.00232597 -0.023976 -0.0283401 -0.0187025 0.00123903 0.00715938 0.0154364 -0.0019364 -0.0251304 -0.00561811 -0.0128345 -0.0111086 0.00866279 0.00834656 0.00497652 0.00334257 0.00105718 0.00318584 0.00969802 0.00525364 0.0105094 0.00530315 0.00769124 0.00913993 0.00553619 0.0180112 0.0122555 0.00147002 0.0126715 -0.00721676 -0.0131004 -0.0248021 -0.0235126 -0.00904754 0.00914097 -0.0145866 0.00406805 -0.011832 -0.0245278 -0.0106649 0.00115342 0.00993129 0.00297834 0.00443772 0.00322905 0.00751914 0.00392601 0.00475312 0.000604607 0.00419969 0.000538873 0.0067088 0.018417 0.0230927 0.000591114 -0.0151586 -0.0169357 -0.0138953 -0.00876114 -0.00889004 -0.00735477 -0.0050982 0.0188645 0.00453381 0.0014637 -0.0140088 -0.025675 -0.00743774 -0.00531703 0.00136201 0.0102319 0.00903869 0.00497514 0.00461594 0.00278442 0.00846227 0.00676055 0.00533344 -0.00234278 -0.00290011 0.00494063 0.00487932 -0.0125018 -0.0302156 -0.0279286 -0.0172056 -0.0306113 -0.0389149 -0.00897808 0.00380264 0.0348475 0.0112115 -0.00430272 -0.0238039 -0.0121213 -0.000422236 0.000825807 0.000698637 0.00773673 0.0042391 0.00934133 0.00880656 0.00268041 0.00474262 0.00829304 0.00359122 0.00247231 -0.00575162 -0.00171291 -0.0065532 -0.00819177 -0.0167561 -0.0147344 -0.0196424 -0.0302419 -0.0414959 -0.004276 -0.000487343 0.0166636 0.0239761 -0.0310096 -0.014197 -0.0120504 -0.00201223 -0.00578828 0.00540478 0.00532069 0.00835538 0.00192578 0.00885057 0.00206186 0.00710734 0.00716355 0.00866362 -0.00364848 -0.00876605 -0.00588239 -0.00678058 -0.0190433 -0.0165931 -0.00942031 -0.0119523 -0.0259762 -0.0246692 0.00200148 -0.00382774 0.00503737 0.00480276 -0.0265166 -0.00295191 0.00305911 0.000167628 0.00321926 0.00533676 0.0137424 0.00873022 0.000579609 0.00806448 0 0.00798009 0.0064502 0.00633916 -0.000473581 -0.00147452 -0.00449649 -0.0132343 -0.0101944 -0.0122523 -0.011698 -0.0107407 -0.0202429 -0.00767918 0.00435455 -0.00877307 0.0107966 -0.00342226 -0.0224261 -0.0113914 -0.00188828 0.00989159 0.00651787 -0.000340403 0.0026024 0.00528034 0.00284105 0.00907348 0.000824742 0.00285855 0.00686809 0.00509707 -0.00388405 -0.00443593 -0.00669274 -0.0149319 -0.00994464 -0.0113036 -0.0121719 -0.0152718 -0.0117725 0.00894495 -0.0126535 -0.00189518 -0.0028348 -0.0214349 -0.0246619 -0.0151178 -0.0176742 -0.0101515 -0.00622502 -0.00536696 0.00209803 0.00550537 0.001394 0.00145566 0.00793814 0.00828614 -0.000148057 0.00284692 0.00258858 -0.00221248 -0.00372295 -0.00438876 -0.0154422 -0.0107385 -0.00643954 -0.0039852 0.00812758 0.00341012 0.000184977 -0.00652148 -0.0204958 -0.0307947 -0.0291019 -0.0136575 -0.015667 -0.00905259 -0.010837 0.00432868 0.00792067 0.0122303 0.00179303 0.00300054 0.00876289 0.00688567 0.00350407 0.00072416 0.00240496 0.00361221 -0.0113701 -0.0130041 -0.00907712 -0.012271 -0.015058 -0.0117904 0.017297 0.00693845 0.013475 -0.0197109 -0.0217539 -0.0389545 -0.0271354 -0.0141451 -0.0146411 -0.0109134 -0.0103545 0.00543041 0.00883988 0.0145025 0.0011568 0.00010291 0.0091776 0.00103093 0.00219711 0.00595677 -0.00051117 -0.0102348 -0.0115533 -0.00470617 -0.00932585 -0.0173516 -0.0222756 -0.00670139 0.0160096 0.00766234 0.000901281 -0.0297269 -0.0300055 -0.0320792 -0.0247531 -0.0381119 -0.0236194 -0.00898781 -0.00277641 0.008677 0.00349634 0.00699522 0.00307325 0.00380636 0.00350515 0.00289286 0.00322983 0.00560137 0.00553379 -0.00720753 -0.0123979 -0.0127026 -0.017095 -0.0201657 -0.0198353 0.0123439 0.0258081 0.025785 -0.0108167 -0.0362143 -0.0244332 -0.0347478 -0.0264589 -0.0332299 -0.0164121 -0.00161428 0.00119225 0.00318582 0.00248468 0.0105614 0.0104321 0.00282948 0.00113402 0.00731396 0.00607235 0.0112011 0.00515008 0.000854974 -0.000608526 -0.00953898 -0.0169916 -0.0205809 -0.0120463 0.0152444 0.0305738 0.0167935 0.0209496 0.00381433 -0.000915399 -0.0116582 -0.00836578 -0.00996675 -0.00458101 0.0078207 -0.00655424 0.008798 0.00413471 0.00475253 0.00450593 0.00329897 0.00546392 0.00865979 0.00151822 0.00293908 0.00181775 0.00155023 -0.00248563 -0.00619009 -0.01157 -0.0152719 -0.0136652 0.00594419 0.00112407 0.00387238 0.0360979 0.0244779 0.018978 0.0192914 0.031199 0.0262116 0.0116987 0.00731074 0.00420209 0.0166928 0.0180191 0.010327 0.00613265 0.00628866 0.00793814 0.00525773 0.00518843 0.00393226 0.00951596 0.00103584 0.00586488 0.012615 0.00445543 -0.00754828 -0.00312191 0.00511911 0.00800445 0.0293687 0.0347298 0.0310029 0.0203047 0.00950512 0.0244807 0.0256505 0.0217473 0.0189609 0.0126549 0.00975993 0.0122779 0.00213334 0.000384895 0.00309278 0.00587629 0.0014433 0.0094242 0.00881889 0.000738712 0.00689542 0.000158113 0.00696159 0.0240379 0.000492549 -0.00932614 0.0199846 0.0300109 0.0190166 0.0269031 0.0387275 0.0304209 0.0364086 0.043433 0.0263277 0.0230729 0.0261952 0.0221377 0.00981972 0.00588703 0.00377259 0.00483007 0.00773196 0.00927835 0.000309278 0.000238105 0.00960989 0.00564758 0.00164192 0.00601919 0.00597903 0.0027443 0.0022581 -0.000443623 0.0176277 0.0423713 0.0268954 0.0413694 0.036044 0.0422809 0.047523 0.0466662 0.032632 0.031192 0.0242092 0.0161577 0.00722343 0.00971009 0.00394637 0.00654181 0.00762887 0.0014433 0.00649485 0.00505182 0.000483943 0.00635914 -0.00026707 0.00568742 0.0110832 -0.0012043 0.000797372 0.0018401 0.00539719 0.00105017 -0.00901142 0.0174936 0.0155797 0.01885 0.0323979 0.0163248 0.00415558 -0.000168166 0.0067678 0.00339983 0.000529171 0.00280256 0.00630322 0.0102236 0.00587629 0.00463918 0.00154639 0.0085567 0.00618322 0.00804604 0.00348453 0.00186847 0.00963048 0.00867991 0.00696127 0.00887881 0.00907327 -0.00107045 -0.00153752 0.0073021 0.00503973 0.00179231 0.000134212 0.00771894 0.00528361 0.000428279 0.00479357 0.00158802 0.00195435 0.000618557 0.00154639 0.00804124 0.00340206 0.00793814 0.00804124 0.0043299 0.00226804 0.00958763 0.00257679 0.00350273 0.00236486 0.000934193 0.00528528 0.00737095 0.0102332 0.00787916 0.00569807 0.00965523 0.0046859 0.00723911 0.00390263 0.000969035 0.00566072 0.00598891 0.00973105 0.000393907 0.0069914 0.00525773 0.00814433 0.00402062 0.000927835 0.00979381 0.00185567 0.00443299 0.00247423 0.00989691 0.00381443 0.00474227 0.0042268 0.00649485 0.00340206 0.00164948 0.00742268 0.00371788 0.0089834 0.00247423 0.00134021 0.00989691 0.00195876 0.00103093 0.00175258 0.000927835 0.00216495 0.00742268 0.00701031 0.0071134 0.00309278 0.00907216 0.00742268 0.00103093 0.0028866 0.00845361 0.000515464 0.00474227 0.00793814 0.00838655 0.00975612 0.00683513 0.00278763 0.00897056 0.00299263 0.00126758 0.000364384 0.00563863 0.00539998 0.00958857 0.00804409 0.00144152 0.0089263 0.00509816 0.00268685 0.000556098 0.00612715 0.0101031 0.0028866 0.00278351 0.00195876 0.00608247 0.00164948 0.00938144 0.00711731 0.00453743 0.00257732 0.00270843 0.00445453 0.00584422 0.00103618 0.00409352 0.00254653 0.00904573 0.00201177 -0.000481454 0.00974021 0.00820639 0.00604126 0.000740087 0.00700843 0.00379986 0.00174359 0.000913492 0.00877414 0.00934373 0.00647321 0.00979381 0.00917526 0.00938144 0.00762887 0.000824742 0.00516601 0.00928505 0.00509239 0.00721433 0.0082866 0.00267359 0.00492187 0.00891484 0.00327137 0.00662332 0.00379183 0.0081542 0.010346 0.00926757 0.00372274 0.00808175 0.00530051 0.00426143 0.00476077 0.00867138 0.00466468 -0.000115916 0.00419161 0.00904217 0.000412371 0.00123711 0.00876289 0.00463918 0.0056703 0.00612702 0.00530493 0.00483423 -0.00437031 0.00145132 -0.00112012 -0.000945736 -0.000366759 0.00410286 -0.00175894 0.00621759 0.00188466 0.0186597 0.0106627 0.00303323 0.0152021 0.0198225 0.00650009 -0.00547492 0.00341729 0.00321273 0.00441739 0.00768548 0.0094217 0.00969072 0.00628866 0.00484536 0.00590348 0.0042938 0.00634594 -0.00702739 -0.0025463 0.000344017 0.00516225 -0.00511205 -0.0048567 -0.00590389 -0.0085412 0.010642 0.0244438 0.0220898 0.0286297 0.00382072 0.00703895 0.016758 0.0111053 0.00844138 -0.00619827 0.000350955 0.00133336 0.00729411 0.00222195 0.0102062 0.00391753 0.00648349 0.00850495 0.00307711 -0.00831262 -0.0181037 -0.00483207 -0.00978866 -0.0137487 -0.0168796 -0.00417173 -0.00390182 0.00309469 0.01077 0.0256456 0.0104295 0.00665193 0.00565458 0.0134947 -0.00461973 -0.00258999 0.011571 0.00417239 0.00628328 0.00334648 0.00501828 0.000834973 0.00175258 0.00638631 0.00810261 0.00384637 -0.00382837 -0.00380429 -0.0182824 -0.0145784 -0.0101729 -0.00544992 -0.00794875 -0.0046971 -0.0104415 0.00693243 0.00570209 0.00736241 0.00328778 0.00544033 0.00582613 -0.0178163 -0.0179379 -0.00430183 0.0106931 0.0106704 0.00514947 0.00478826 0.000216652 0.00761285 0.00932208 0.0046364 0.00306913 0.00449807 -0.00360016 -0.014605 -0.0171665 -0.00656509 -0.00809371 -0.0116877 0.00709844 0.0166903 0.0253606 0.0223816 0.00149432 -0.0160899 -0.00818181 0.000805909 -0.0156056 -0.0265574 -0.00935824 -0.0157178 -0.00104715 0.015833 0.0108341 -0.0014497 0.00344594 0.0102163 0.00627743 0.00982345 0.00707346 -0.000503102 0.00254815 -0.0110482 -0.0153833 -0.0221345 -0.018184 -0.0130502 0.0121437 0.0284088 0.0284781 0.0122926 0.0033099 -0.00878656 -0.0184455 -0.0239942 -0.0246188 -0.0177235 -0.00421025 -0.0152785 -0.00148928 0.00475976 0.00953661 0.00740786 0.00848338 0.0030327 0.000708594 0.0084362 0.00876296 0.000494962 0.00420443 -0.0106897 -0.0213377 -0.0114076 -0.00816001 0.00586388 0.004732 0.0339221 0.0342646 0.0161207 0.0124333 -0.000255185 -0.020067 -0.0219645 -0.0129089 -0.00921322 -0.00497668 -0.00336752 -0.00900984 0.00619986 0.01075 0.00729703 0.00217659 0.00389228 0.007112 0.00572391 0.0020063 0.00146049 -0.00108609 -0.00944814 -0.00959451 0.000578582 -0.00535498 -0.00144721 -0.0038509 0.0143087 0.021461 0.0230822 0.0219853 0.0126397 0.00842925 -0.00293832 -0.00771709 -0.00357183 -0.0169194 -0.0145929 -0.0123751 0.00910135 0.0129413 0.00926611 0.0122961 0.00600409 0.0101031 0.00548103 0.00365267 0.00105196 -0.000422921 -0.00474876 -0.00280552 -0.00299652 -0.0167119 0.000224424 0.000537932 0.00287261 0.00736934 0.0158787 0.0108097 0.00268487 0.00778073 0.0136991 -0.00383531 -0.0119811 -0.010991 0.00311849 0.00271219 0.00265095 0.0113083 0.0120269 0.00343181 0.00976888 0.00783505 0.00430492 0.000174477 0.00674527 0.00116564 -0.00648115 -0.00322051 -0.00643142 -0.0123317 0.000881895 -0.00386375 0.00757686 0.00801767 -0.000500032 -0.00238426 0.000834725 -7.0084e-05 -0.0144085 -0.00994527 0.00219654 0.0067703 -0.0030621 -0.0021078 0.00243162 0.00948717 0.0020317 0.00568568 0.00046488 0.00319588 0.00311922 0.00518102 0.00494122 1.34316e-05 -0.00557285 0.000867573 -0.00426812 -0.0170503 -0.000595185 0.0257074 0.0152564 0.00352973 -0.00180348 -0.0209065 -0.020009 -0.0109946 -0.0106547 0.00131452 0.00763337 0.010204 -0.00222535 -0.0159637 -0.0165117 -0.00439474 0.0054042 0.00269967 0.00959037 0.000309278 0.00443434 0.00446337 0.00682157 0.000816552 0.00243768 -7.0694e-06 0.00275659 -0.000931554 0.0177909 0.0288405 0.00781413 -0.00729942 -0.0229848 -0.0225423 -0.0150951 -0.00401779 -0.0102778 -0.0120189 0.0069813 0.000191673 0.00175941 -0.0225983 -0.0199601 -0.00561558 0.00628551 0.0033442 0.00800122 0.00525773 0.00516998 0.000797822 -0.00134413 -0.00411843 0.00034126 0.00784935 -0.0034661 0.0255023 0.043801 0.0317127 0.00608822 -0.0334391 -0.0352922 -0.0187972 0.00424591 -0.000436496 -0.00674675 -0.030804 -0.00781556 0.00602884 0.00917563 -0.00477223 -0.0137417 -0.00272668 0.0115278 0.00400071 0.00433085 0.000103093 0.00659992 4.32541e-05 -0.00133682 0.0073846 0.0044058 -0.00176739 0.00258481 0.0253279 0.0378195 0.0116322 -0.00733626 -0.0273522 -0.0208308 -0.01411 -0.00365306 0.00029873 -0.0120513 -0.0239059 -0.013326 -0.00667136 0.0141369 -0.00580127 -0.00969865 -0.00384644 -0.00201069 0.000193642 0.00918223 0.00670283 0.00886598 0.00187787 0.00418711 0.00787729 0.00998726 0.00913394 0.0107637 0.0297601 0.026694 -0.00791995 -0.0365742 -0.0400606 -0.0299322 -0.0189265 -0.0148419 -0.0145721 -0.0112462 -0.00639195 -0.0203672 0.00383222 0.0102432 -0.00236672 -0.000380452 -0.000824664 0.000190986 0.00393798 0.0057706 0.000721649 0.00980869 0.0038263 0.00449188 0.0143859 0.0143127 0.0204446 0.00732458 0.0363328 0.0156145 -0.012671 -0.0406588 -0.0403184 -0.0248431 -0.0283281 -0.00940409 -0.0140814 -0.0169396 -0.0101641 0.000393883 -0.000923944 0.015075 0.00037168 0.00320411 -0.00435348 0.00271274 0.00856871 0.00375973 0.00597938 0.00253147 0.00911869 0.00421552 0.0133811 0.0141733 0.0147939 -0.000968861 0.00437387 0.00287048 0.00701524 -0.0216472 -0.0340274 -0.033127 -0.0275964 -0.0116038 -0.0202933 -0.00952862 -0.00941312 0.000180241 0.0137884 0.0105145 0.00437354 0.0027615 -0.00197234 -0.000908352 0.00890986 0.00505155 0.00865979 0.00752577 0.00861808 0.00240041 0.00766002 -0.00178248 0.0175563 0.000413386 -0.00999561 0.017944 0.00764203 0.000382733 -0.0305446 -0.0428717 -0.030476 -0.0278049 -0.0155667 0.0148772 0.00610605 -0.000259531 -0.000702542 -0.01407 0.00750771 0.00640049 -0.0035533 0.00798047 0.00459519 0.0102062 0.000721649 0.00876289 0.0004145 0.010004 0.0074237 0.00217377 0.00961573 0.0115575 -0.0105564 0.0172325 0.0331465 0.023864 0.00426758 -0.00727423 -0.0181863 -0.00534733 0.0101638 0.0136152 0.00858525 -0.00343757 -0.0133205 -0.0167347 -0.000673052 0.00452245 0.00238914 0.00324237 0.00809636 0.00917526 0.00958763 0.00783505 0.00438337 0.000893495 0.00652938 -0.00217503 -0.012711 -0.00730168 0.0114667 0.00289208 0.0126018 0.025281 0.014546 0.00739227 0.0014729 0.00907734 0.0159449 -0.00171968 -0.00555568 -0.00506705 -0.0128538 -0.00562555 0.00413648 0.00876815 0.00324505 0.0052195 0.00697593 0.00628866 0.00134021 0.000309278 0.000259438 0.00511492 0.00485422 0.000794531 -0.0091373 -0.0104927 -0.00965498 -0.0113047 0.00864301 0.0295323 0.0346892 0.0235743 0.0103618 0.00204429 -0.00303511 -0.00298792 -0.00358033 -0.00627848 -0.000592055 -0.00637547 0.00458451 0.00232444 0.00824317 0.0044021 0.00731242 0.00835052 0.000206186 0.00958763 0.00433525 0.00674821 0.00762428 0.0057747 0.00432189 0.000387545 0.00270131 0.0111574 0.00628971 0.00671601 0.0114242 0.0045878 0.00760222 0.00779891 0.00767895 0.00156781 0.00407028 0.00994245 0.00589366 -0.00399917 0.00477183 0.00689031 0.00413572 0.00379815 0.00886665 0.0057732 0.00298969 0.000721649 0.00917526 0.00853978 0.000120183 0.00891881 0.0001544 0.00405157 0.00785944 0.00807125 0.0022192 0.00757891 -0.000322921 -0.00364509 -0.0020536 0.00590152 0.00309248 0.00488954 0.00876214 0.00689101 0.00111849 -0.000773559 0.00362127 0.00829853 0.000618557 0.00670103 0.00938144 0.00938144 0.000206186 0.00783505 0.00484536 0.0085567 0.00371134 0.00370402 0.00688117 0.00908759 0.001841 0.00706662 0.00389229 0.0053927 4.38486e-05 0.00667959 0.00261147 0.00197505 0.00195525 0.00832277 0.00347426 0.00590183 0.00875845 -0.000915906 0.00411577 0.000179215 0.00298969 0.00927835 0.00391753 0.00907216 0.0057732 0.00298969 0.00814433 0.00103093 0.00587629 0.00804124 0.00958763 0.00463918 0.00680412 0.00618557 0.00350515 0.00876289 0.00845646 0.00753201 0.00927835 0.00360825 0.00948454 0.00164948 0.000618557 0.00659794 0.0101031 0.0042268 0.00731959 0.00876289 0.00721649 0.00474227 0.0043299 0.00536082 0.00381443 0.00824742 0.00948454 0.00958763 0.00628866 0.00731959 0.000340963 0.00735802 0.00543904 0.00991186 0.00165308 0.00156677 0.000982809 0.0052983 0.00541712 0.004556 0.00794432 0.00452746 0.00806862 0.00707383 0.00117263 0.00867355 0.00331606 0.000932198 0.00257732 0.000412371 0.00474227 0.00494845 0.000206186 0.00907216 0.00536082 0.00402365 0.0020629 0.00453608 0.00900401 0.00434816 0.00281356 0.00945923 0.000923306 0.00284583 0.00413994 0.00229462 0.00791711 0.0100886 0.0042267 0.00706372 0.00738961 0.0142 0.00315945 0.00166457 0.00213873 0.004251 0.000289781 0.000272073 0.000206186 0.00824742 0.00597938 0.00505155 0.0028866 0.00628492 0.00906228 0.00828825 0.000734314 0.00549907 0.00897649 0.0117466 0.010611 0.00744061 0.00398565 0.0130509 0.00981712 0.00120725 0.00842749 0.00786454 0.00704763 0.0154127 0.00178566 0.0029884 0.00400011 0.0057074 0.00181353 0.00636732 0.00533942 0.00762887 0.00659794 0.0056701 0.00556701 0.00234922 0.00573521 0.0102648 0.00429479 0.00499269 0.00464046 0.00535286 0.00196748 -0.00128852 -0.00510716 0.000126647 -0.00595279 -0.00597623 0.00174065 0.0129476 0.0132115 0.0141868 0.00871109 0.00506017 0.000280547 -0.0042055 -0.00140065 0.00667771 0.0076994 0.00466818 0.00845361 0.00278351 0.00195876 0.00995331 0.00489763 0.0114473 0.00300187 0.010205 0.00214413 -0.00484333 0.00243491 -0.0052501 -0.00715807 -0.00859581 -0.00867573 -0.00394837 0.00187994 0.0122779 0.0107743 0.00298284 0.00784819 0.00470645 -0.0041258 0.00210257 -0.00205499 0.00560802 0.00952964 0.00383823 0.0085567 0.00701031 0.00341671 0.00650174 0.00585514 0.00883908 0.00782078 0.00746614 -0.00116527 -0.00890607 -0.00391129 0.00111684 -0.00441073 0.00717029 0.00675477 0.0137594 -0.00119391 0.00339559 -0.000306526 -0.00920777 -0.00772255 -0.00030348 -0.00239023 0.00398795 0.00828357 0.000551531 0.00412636 0.00463826 0.00309278 0.00381089 0.00307545 0.000268931 0.00408243 0.0128112 0.0113986 -0.00408037 -0.0131583 -0.00570577 -0.00573857 -0.00689553 -0.00256093 0.00893327 0.0115822 0.00501342 0.00722945 -0.00212142 -0.0017365 -0.00128299 -0.0134941 -0.011079 -0.00401268 -0.00043271 0.0136169 0.00225917 0.0012693 0.00249651 0.000442442 0.00629921 0.00668012 0.00205666 0.00246774 0.00314644 0.00415787 -0.0115793 -0.00536814 -0.00912791 -0.0136557 0.000162505 0.00240331 0.00147699 0.00796294 -0.00201231 0.00289187 0.00186917 0.00347189 -0.00535836 -0.0104009 -0.0131811 -0.00298376 0.00865591 0.00858656 0.000505827 0.00740757 0.000376613 0.000200693 0.00958136 0.00270766 0.00454515 0.0017397 0.00938162 0.0111679 0.00106076 -0.0101167 0.00142525 -0.000494555 0.0133055 0.0129709 0.0141835 0.00656482 0.00659729 0.00305712 0.00154328 -0.00664006 0.00339269 0.000656867 -0.0140051 -0.0108644 0.00945286 0.00590674 0.00803166 0.000834855 0.00149987 0.00349877 0.00887357 0.00175155 0.00263386 0.00705361 0.00613551 0.0109931 0.000167458 -0.00368552 0.00326305 0.00787924 0.0104035 0.0137817 0.00797461 0.0151649 0.00580426 0.00256761 0.000421505 0.00401418 -0.00230472 0.00495724 -0.0041876 0.00193572 0.0105327 0.0105888 0.00838321 0.00936529 0.00450638 0.00422612 0.000477046 0.00563014 0.00698879 0.00786986 0.00745264 -0.000112346 0.00111214 0.00905313 -0.00141661 -0.00929319 -0.00826591 -0.00436192 -0.0190246 -0.0109711 -0.0064025 0.00251578 0.00215262 0.00142059 0.00299835 0.00384746 0.00864157 0.0143129 0.0119823 0.0181461 0.0036039 0.00464508 0.00315519 0.00958763 0.00422164 0.00761462 0.00882644 0.0181868 0.0126128 0.00345861 0.000104113 -0.00357271 -0.00119134 -0.02337 -0.0143694 -0.0196168 -0.0161541 -0.0173653 0.00335291 0.0105473 0.00851622 0.00331375 -0.00575152 -0.00998399 0.00999738 0.0119757 0.024158 0.0231555 0.00727056 0.00715233 0.00526248 0.00597938 0.00195155 0.00335189 0.00245491 0.0159572 0.0107888 0.0175945 -8.19872e-05 -0.00334779 -0.000749793 -0.0183693 -0.0264476 -0.0213241 -0.0127565 -0.0093914 0.00803747 0.00839701 -0.00191917 -0.00412681 -0.0105117 -0.012577 0.00736527 0.00643167 0.022104 0.016898 0.0085777 0.00207647 0.00381028 0.00628866 0.00452388 0.00388321 0.00468957 0.0204033 0.0241354 0.0158941 -0.00132213 -0.00809881 -0.0122864 -0.0253963 -0.0189141 -0.0157896 -0.0111785 0.00296622 -0.00402884 0.00332012 -0.0092467 -0.0031773 -0.0111817 -0.0115413 0.00996638 0.0165169 0.0107781 0.0125562 0.013074 0.00275281 0.00103098 0.000927835 0.000206759 0.00992769 0.00771043 0.0125658 0.0318685 0.0182916 -0.000297467 -0.0115533 -0.027342 -0.0242296 -0.0124475 -0.00295434 -0.00513279 0.000801075 -0.00223546 -0.0106843 -0.00656923 -0.000106745 -0.009737 0.00255205 0.0135604 0.00694125 0.0102256 0.00987439 0.00811193 -0.000202676 0.00341653 0.00360825 0.00350489 0.00971745 0.00492644 0.0123789 0.0417128 0.0219252 0.00317443 -0.0115414 -0.0236575 -0.0140331 -0.0117263 -0.00741466 -0.00238078 -0.00631603 0.00217123 -0.0167951 -0.00610619 -0.00791105 -0.0129709 0.00516076 0.010214 0.0188345 0.0102242 0.000404459 -0.00335141 0.000257587 0.00387601 0.000618557 0.00113405 0.00728222 0.0106161 0.0178125 0.0267561 0.0212106 0.0217654 -0.00956498 -0.0191551 -0.0124575 -0.0164597 -0.00770996 -0.00372363 -0.00540815 -0.00370605 -0.00973298 -0.0100649 -0.00641038 0.000288687 0.00196791 0.00577521 0.0158782 -0.00376094 -0.0038039 -0.00138954 0.00400548 0.00532939 0.00288964 0.00494845 0.00924703 0.00777415 0.0081748 0.0168002 0.0257136 0.0184015 0.00222293 -0.0016759 -0.00529749 -0.0118776 -0.00638664 -0.00444867 -0.00706475 -0.00208437 -0.00288441 0.00614401 0.00127891 0.00769394 0.00527625 0.00726181 0.00538655 -0.000768643 0.00227054 0.00632046 0.000491867 0.00921405 0.00412371 0.00534612 0.00410211 0.000963636 0.00268481 0.0141703 0.0197081 0.0175152 0.00700354 0.00315515 0.00513625 0.00227632 0.00622492 -0.00376733 -0.00241441 0.00470192 0.00146278 0.000810956 4.78329e-05 -0.00155237 0.0116998 0.000927748 0.00743271 0.00162145 -0.000461952 0.00544938 0.00127496 0.00940473 0.00278351 0.00269516 0.00775477 0.00126879 0.0105503 0.00676066 0.00837076 0.00731292 0.0155415 0.0190072 0.00916529 0.00683604 0.00681404 0.00558897 -0.0026865 0.000416288 0.00216531 0.0100121 0.00898281 -0.00797394 0.000688434 -0.00379491 0.00237989 -0.00591602 -0.000979094 -0.000103676 0.00833163 0.00474227 0.00680412 0.0102062 0.00269285 0.00398704 0.0085804 -2.9784e-05 0.00342835 0.00218913 0.0150325 0.0117518 0.0190385 0.0192493 0.0121659 0.00633131 0.00428536 0.0116217 0.00415957 0.00634768 -5.92985e-05 -0.00332045 0.00432039 -0.00575683 -0.00595093 -0.00567776 -0.00101365 0.00578475 0.00538945 0.00134021 0.00628866 0.00350515 0.00547746 0.00288581 0.00851437 0.00277441 -0.00128691 -0.00112143 0.00319539 0.0115915 0.00568983 0.0107955 0.0185517 0.0196526 0.0213281 0.00409793 0.0105856 0.00333187 -0.00307162 0.0019972 -0.00972828 -0.014735 0.00329115 0.00191397 -0.00372295 0.00791821 0.00236681 0.00865979 0.00319588 0.00278351 0.0100009 0.00489548 0.00125908 -0.000851236 0.000514538 0.00169233 -0.0105752 -0.00939301 0.00015923 0.000313953 0.00805909 0.017036 0.00743289 0.00651322 0.0074853 0.00193972 -0.00544859 -0.000997346 -0.00915997 -0.013603 0.00470803 0.00260122 0.00335383 0.00364696 0.00463588 0.00618557 0.00103093 0.00206186 0.00989081 0.00967015 0.00426262 0.0034157 0.00611987 0.0051524 -0.000628226 -0.000671752 0.00441201 0.0120971 0.00665271 0.010156 0.00481171 0.0054749 -0.00415158 -0.00178774 -0.000518223 -0.000178219 0.0109625 0.00648073 0.00626759 0.00352756 0.00972068 0.000194444 0.00834645 0.00525773 0.00381443 0.00804124 0.00649528 -4.4437e-06 0.0101841 0.00112924 0.00390279 0.00376023 -0.00047886 0.00399639 0.00832477 0.00466316 -0.00226368 0.0014129 -0.00224706 -0.00574541 -0.00334405 -0.00286331 -0.00870992 0.0042207 0.0089492 0.00116761 0.00821773 0.000819062 0.000380659 0.00453243 0.00339769 0.00525773 0.00474227 0.00680412 0.0056701 0.00866107 0.0047631 0.00755126 0.00409675 0.00430879 0.0080476 0.00751521 0.00342521 0.00819094 5.53741e-05 0.00216665 -0.00242786 0.005799 0.00795459 0.00169601 0.00489506 0.00100604 0.0102157 0.000240207 0.00325298 0.000351429 0.0071134 0.00268041 0.000721649 0.00278351 0.00721649 0.00412371 0.00814433 0.00701031 0.000721649 0.00350055 0.000405173 0.000409127 0.000395531 0.00410338 0.00487546 0.0040688 0.00217724 0.00361862 0.00277226 0.00941627 0.00944877 0.00936746 0.00576097 0.00661679 0.0104118 0.00979081 0.00225329 0.00256783 0.00494845 0.00824742 0.00340206 0.00175258 0.00597938 0.00948454 0.00453608 0.00824742 0.00340206 0.00773196 0.00505155 0.00948454 0.000927835 0.000515464 0.00989691 0.00680412 0.00476691 0.00984778 0.000515464 0.00206186 0.00907216 0.00907216 0.00639175 0.00814433 0.00340206 0.00752577 0.00979381 0.00773196 0.00690722 0.00886598 0.000515464 0.00690722 0.00690722 0.00927835 0.00865979 0.00793814 0.00845361 0.00824742 0.00623269 0.00743791 0.00653955 0.00611706 0.00115767 0.00182003 0.00666461 0.00620509 0.00358922 0.000801129 0.000538374 0.00957921 0.00311472 0.00987933 0.00346244 0.00472851 0.00770885 0.00681036 0.00185567 0.00226804 0.00969072 0.00876289 0.000824742 0.00525773 0.00536082 0.00772861 0.00422565 0.00907216 0.00138739 0.00987865 0.00971413 0.00908359 0.00744676 0.0111383 0.00327649 0.00217095 0.0107762 0.00869171 0.00702009 0.00938011 0.00539579 0.00750125 0.00741999 0.00328536 0.00729796 0.000787128 0.00782763 0.00968864 0.00268041 0.00979381 0.00164948 0.00206186 0.00329897 0.0025678 0.00737415 0.00854005 0.00744982 0.00857518 0.00762648 0.0159299 0.0101917 0.00997266 0.00548175 0.00386209 0.00150931 0.00647352 -0.000460101 0.0025573 0.00686856 0.00622545 0.00599067 0.00958027 0.00422004 0.00319463 0.00143085 0.00528169 0.00348622 0.00927835 0.00474227 0.00123711 0.00876289 0.00649512 0.00355767 0.00370021 0.0113072 0.00920623 0.0119433 0.0121237 0.0110326 0.00901611 0.00916811 -0.000778193 -0.000208695 -0.000786047 0.00354036 -0.00471023 -0.00329293 0.000790355 0.00697624 0.0110175 0.00914389 0.00712402 0.00325236 0.0082734 0.000201612 0.00465401 0.00340206 0.00907216 0.00360825 0.00789265 0.000281206 0.0095175 0.00605163 0.0138475 0.0116885 0.0112489 0.0116127 0.00932903 -2.20019e-05 -0.00607431 -0.00711772 -0.0052646 -0.00480777 -0.00934501 -0.00196805 -0.00362573 -0.00534782 -0.00252803 0.00211287 0.00120078 0.00659212 0.00606843 0.000986501 0.00971251 0.00927835 0.00649485 0.00439024 0.00118591 0.000554529 0.00545221 0.00108892 0.0073142 0.00586398 0.0171558 0.00223536 0.00149188 -4.70133e-05 -0.0112796 -0.00683756 -0.0163537 -0.0128035 -0.0140894 -0.0126139 -0.00530861 -0.00133897 -0.00472236 -0.00248429 0.00031529 0.00329615 0.0102383 0.00741505 0.0101467 0.000721649 0.00338367 0.00977844 0.00891713 0.00499405 0.011366 0.0110141 0.00943188 0.00434517 -0.000356568 -0.00843778 -0.0110977 -0.0125572 -0.0204983 -0.0174941 -0.0130484 -0.0130715 -0.00236334 -0.00514297 -0.00714147 -0.00461241 -0.00361789 0.00328688 -0.000119858 0.00494597 0.00325563 0.00862578 0.0048572 0.00875469 0.00106667 0.00996279 0.0100281 0.0116235 0.0149044 0.00974481 0.00686344 0.00162517 -0.00684287 -0.00907333 -0.0123443 -0.0169508 -0.0184103 -0.0145983 -0.0109916 -0.015119 -0.0126341 -0.00621019 -0.00040537 -0.00201143 -0.00123485 -0.00167117 0.00461273 0.00578127 0.00151945 0.00697588 0.00776267 0.00598664 0.00590742 0.00244821 0.00543349 0.00637838 0.00930902 0.0126612 0.00323498 0.0060563 -0.00454035 -0.0122902 -0.00833819 -0.00762015 -0.012664 -0.00815525 -0.00963213 -0.00607908 0.00302222 0.008474 0.00553437 0.015976 0.00996199 0.0017125 0.00700485 0.0104757 0.00333185 0.00197228 0.00144098 0.00640019 0.00972986 0.0100169 0.00869094 0.0133456 0.0139666 0.00973249 0.00639824 0.00648493 -0.000335775 -0.000684412 -0.00869511 -0.00361956 0.000441101 -0.00444095 -0.003192 0.00241325 0.00528749 0.000684675 0.00886007 0.0142839 0.00862623 0.0034455 0.0119202 0.00712787 0.00666631 0.0057771 0.00946225 0.000928742 0.00859036 0.00238174 0.00366676 0.00617417 0.0165513 0.012677 0.00868724 0.00700081 0.00853618 0.00148192 -0.00155745 0.00730104 0.00664224 0.00624528 0.00400222 0.0014684 -0.0055163 0.000218661 -0.000723594 0.00661967 0.0131668 0.0124606 0.0129363 0.0112361 0.00171103 0.00211556 0.00946574 0.00814433 0.0085836 0.0100671 0.00562483 0.00480869 0.0114194 0.00585204 0.00798873 0.0102988 0.00594654 0.00451671 0.00750769 0.000934944 0.00814241 0.00564551 0.0003336 0.00305293 -0.00124258 -0.00610047 -0.00668599 -0.0025776 0.00717071 0.0118075 0.0133905 0.0143271 0.00954778 0.0016116 0.000195276 0.00917526 0.00425551 0.00538589 0.00287509 0.0040942 0.0121402 0.0064323 0.00421254 0.00649732 0.00407757 -0.000323543 0.00345536 -0.00362088 0.00221559 -0.0016858 0.00593869 0.000140514 -0.00198502 -0.00656217 -0.00248205 0.00317321 0.00352561 0.00464117 0.00898398 0.0124869 0.00880516 0.00479447 0.00830248 0.00536082 0.006725 0.00411124 0.0106657 0.00480313 0.0110792 0.00720218 0.0059916 0.00365842 0.00313265 -0.00282565 -0.0069546 -0.00946128 -0.00105116 -0.00566671 -0.00336511 -0.00606114 0.00530155 -6.23258e-05 0.00237209 -0.000305592 0.00572819 0.0103053 0.00973758 0.00496792 0.00909554 0.00880107 0.00205662 0.00587629 0.00871196 0.000579578 0.00775714 0.00414144 0.00320594 0.00618685 0.00202255 0.00714091 -0.00515589 -0.00956505 -0.00101262 0.00472204 0.00282999 -0.00317502 -0.00794996 -0.00190575 0.00256112 -0.00418522 -0.000802025 0.00271577 0.000269995 -0.00072675 0.00322284 -0.000342472 0.00525105 0.00932147 -3.47552e-05 0 0.00811657 0.00210988 0.00116228 0.000382427 0.00357216 0.00837106 0.00697854 0.00185476 -0.00185077 -0.00739383 -0.00896281 -0.00430497 -0.0079415 0.000518093 -0.000567561 0.0109388 0.00121445 -0.00746016 -0.00195682 -0.0049475 -0.010948 -0.00595619 0.00576266 0.00407341 0.00932904 0.00617513 0.00780405 0.00536082 0.000816121 0.00764421 0.00373186 0.000460498 0.00523611 0.00414599 -0.000498717 -0.00122509 0.00323663 -0.00440501 -0.00264463 -0.013234 -0.00174293 -0.00693354 -1.97114e-05 -0.00184401 0.00421963 -0.00112064 -0.00486266 -0.00178137 -0.00600403 0.00459772 0.00188827 0.00535742 0.0105865 0.00838137 0.00839186 0.00824709 0.000309278 0.00591958 0.00676064 -0.00281632 0.00333688 -0.00176592 -0.000535747 -0.00230654 -0.00208195 -0.0058487 -0.00599438 -0.00540669 -0.00270672 4.82092e-05 0.00291249 0.00116086 -0.00404077 -0.00416721 -0.00626907 0.00417908 0.00050105 0.00581757 0.000887774 0.00835866 0.00833733 0.000459267 0.00449593 0.00175258 0.00496443 0.00804792 0.00821053 0.00170519 -0.00363093 -0.0012741 -0.00543772 0.00143089 -0.00376586 -0.00303117 -0.00734755 -0.0080265 -0.0106516 -0.0029164 0.000817682 -0.00367574 -2.56688e-05 -0.00468593 -0.000427278 0.00216487 0.00387984 0.0054851 -0.000915782 0.0106893 0.00231287 0.00913799 0.00751424 0.0042268 -2.2858e-06 0.00703569 0.00438858 0.00194966 -0.000561821 -0.00611741 -0.00177165 -0.00725215 -0.00587083 -0.00146308 -0.0107592 -0.00364451 0.00255761 0.00365383 0.00723428 -0.00167981 0.0049479 -0.00461372 0.00528812 -0.00120493 -0.000865747 -0.00223271 0.0062865 0.00250526 0.00453045 0.00601665 0.00237113 0.000515464 0.000309278 0.00481987 0.00372213 -0.00124709 -0.000272578 -0.00630207 -0.00868427 -0.00741991 -0.00187611 0.00098404 0.00305732 -0.00307037 0.00495367 0.00438691 0.003226 0.00534956 0.00738332 0.00750108 0.00556608 0.0117818 0.00900796 0.00667801 0.00058144 0.00493602 0.000738269 0.00955416 0.00618557 0.00989691 0.00536082 0.00855623 -0.000471307 0.00529324 0.00640345 0.000331454 -0.00617028 -0.00956646 -0.0105052 -0.00281778 -0.00687367 0.000767697 0.000773587 -0.00375677 0.0011774 0.00532481 0.0100234 6.43649e-05 0.00552666 0.00838326 0.00852317 0.00444329 -0.003429 0.00558177 0.00750976 0.000716824 0.00134021 0.00381443 0 0.00750929 0.00296436 0.00098584 0.00091798 0.00613185 -0.00319807 0.00390907 0.00137134 -0.00283821 -0.00706236 -0.00513924 -0.00599186 -0.00372852 -0.00299584 0.00593087 0.00466868 0.0103349 -7.98231e-05 0.0106913 0.00661212 0.00590809 0.00589657 0.00557127 -0.000245798 0.0042201 0.000618557 0.00793814 0.00494845 0.00191589 0.00112547 0.000206056 0.00454718 0.00936009 -0.00116429 0.00318618 0.000635433 0.00411205 -0.00197898 0.000299924 0.00057927 0.00218491 0.00749277 0.00828415 0.0114402 0.00536423 0.000947537 0.00175415 0.00794579 0.00657967 0.00595779 0.00161943 0.00844173 0.00422172 0.0042268 0.0085567 0.00350515 0.00483493 0.00131536 0.00842881 0.00669601 0.00283763 0.00903159 0.00214328 0.00858894 0.00384744 0.00231507 0.00111939 0.00475341 0.00194135 0.0062789 0.00546499 0.00639539 0.00727603 0.00740066 0.00834587 0.00999579 0.00759499 0.00742179 0.00582137 0.00721244 0.00370649 0.00309278 0.00556701 0.00298969 0.00731959 0.00917515 0.00646507 0.00168078 7.3814e-05 0.00477907 0.00411763 0.00883297 0.00859372 0.000271746 0.0065369 0.0080309 0.00247245 0.00843082 0.00548709 0.0117402 0.00801076 -0.00123007 0.00110883 0.00362389 0.0116429 0.00693726 0.00639175 0.000515464 0.00381443 0.00742268 0.00783505 0.00752577 0.000206186 0.00845361 0.00556701 0.0025822 0.00734037 0.00183327 0.00454017 0.00269381 0.0013992 0.00312374 0.000778992 0.00993866 0.00336517 0.00699593 0.00765399 0.000986259 0.0107766 0.000432759 0.00485671 0.00243559 0.00225642 0.00228597 0.01 0.00618557 0.00886598 0.00608247 0.00670103 0.00773196 0.0085567 0.0042268 0.00494845 0.00381443 0.00773196 0.00556701 0.00639175 0.00484536 0.00731959 0.00587629 0.00756754 0.00895744 0.00917526 0.00835052 0.00340206 0.00752577 0.000206186 0.000309278 0.00793814 0.00536082 0.00659794 0.00804124 0.00742268 0.00247423 0.0101031 0.00216495 0.00865979 0.00865979 0.00329897 0.000206186 0.00618557 0.00164948 0.00990234 0.00648223 0.00597651 0.00736006 0.00157269 0.00172412 0.00214597 0.00434715 0.00634508 0.0103316 0.00317314 0.00688929 0.00788382 0.00656623 0.00439622 0.00811269 0.00147322 0.00707261 0.00845361 0.00793814 0.00484536 0.000618557 0.000206186 0.00463918 0.00278351 0.00376962 0.00829951 0.00618557 0.00446137 0.0105806 -0.00125344 -0.00760797 -0.00260147 0.00985647 0.00557077 0.0261611 0.0184258 0.0379829 0.0299721 0.0206831 0.00897974 0.00728063 0.00928908 0.00462045 0.00497533 0.00349982 0.00795439 0.00107892 0.000103093 0.00618557 0.00917526 0 0.00690722 0.00400378 0.00985097 0.00489777 0.00430545 0.00990076 0.00328062 -0.0017365 -0.00554915 -0.0016033 0.0189212 0.0369017 0.0416071 0.0244895 0.0166 0.00710729 0.00455245 0.00109342 0.00864935 0.00235107 0.00151381 0.01053 0.00718443 -0.000174509 0.00233812 0.00494845 0.00123711 0.00783505 0.000824742 0.000101719 0.00479868 0.0158872 0.0219956 0.0140294 0.00389591 -0.00392976 -0.0082658 0.00772223 0.0165308 0.0601698 0.0240424 0.0111407 -0.00406277 -0.0194087 -0.0138014 -0.00596835 -0.00838017 0.00135811 0.00255217 0.00184883 0.00662877 0.0041259 0.00524468 0.00381973 0.00402062 0.00762887 0.00876289 0.00495174 0.000238672 0.0257983 0.0163327 0.0124088 -0.00248798 -0.0224784 -0.0369231 -0.00282643 0.0272309 0.0218207 0.0167611 0.0382614 -0.00424684 -0.0413042 -0.02964 -0.0216244 -0.010739 -0.00427758 0.0061207 0.00717301 0.00121526 0.00224725 0.0026447 0.00784296 0.00113402 0.00804124 0.00684053 -0.00457519 -0.00148351 0.0110461 0.00622203 0.00129273 -0.0162963 -0.0365801 -0.0206811 0.0039264 0.0024479 0.00459646 0.0224019 0.00172093 -0.0214839 -0.0437161 -0.0191129 -0.0267679 -0.0156165 -0.00771217 -0.00387404 0.00260874 0.00355192 0.00166368 0.0045078 0.00428431 0.000618557 0.00782577 0.00764087 0.00392523 -0.00557979 -0.00722256 -0.00393052 0.00417102 -0.0130112 -0.00752952 0.0148077 0.0335141 0.0389193 0.0121546 0.0336267 -0.00357958 -0.0327323 -0.0436923 -0.0286092 -0.0280346 -0.0215194 -0.0186677 -0.00572727 0.00846222 0.00957088 0.000780059 0.00134388 0.00103824 0.00028525 0.00271595 0.00589826 0.00594181 -0.00209329 -0.00277007 -0.00880651 0.0118816 -0.015606 -0.0114888 0.0108364 0.0208697 0.0302094 0.0166883 0.0164213 -0.0106996 -0.0483743 -0.0554672 -0.0334488 -0.0198261 -0.0126356 -0.0172082 -0.00905013 0.00368614 0.00296359 0.00267308 0.0075329 0.00181391 0.00114406 0.00551193 0.00861234 0.00135401 0.00628711 -0.00153633 0.00592387 0.0239384 0.00251365 -0.0122037 0.00366598 0.0298934 0.00515197 0.0124692 0.00404256 0.00805171 -0.0419793 -0.0529928 -0.0318494 -0.0125624 -0.00910282 -0.00344557 -0.0091841 0.000342195 0.00237664 0.000980837 0.00562821 0.000181779 0.00145497 0.0032519 0.00761104 6.23897e-05 0.00168379 -0.00502306 0.0100956 0.0180761 0.00030821 -0.0263315 0.0145976 0.027034 -0.00400576 0.0102026 0.0192218 0.0154346 -0.0404788 -0.0366427 -0.0222023 -0.0105586 -0.012265 -0.00462523 -0.00266178 3.85858e-05 -0.000555073 0.00586763 0.00806702 0.00856883 0.00927961 0.00381547 0.00398848 -0.00383693 -0.000344567 -0.00305375 -0.00109235 -0.00185721 -0.0258957 -0.0187518 0.00209632 0.00575031 0.00295661 0.00300243 0.0374899 0.0100914 -0.0208652 -0.0161041 -0.0196231 -0.0143627 -0.00920169 0.00297136 0.00408652 -0.00013557 -0.00398915 0.000883092 0.00263303 0.00293794 0.00948454 0.00625554 0.00672479 0.00110366 0.00847791 -0.00431541 -0.00285127 -0.00401891 -0.00678215 -0.0115384 0.00186982 0.00525927 0.000408017 -0.00614035 0.0415944 0.0104822 -0.0147813 -0.0371939 -0.0173464 -0.00071871 0.0076325 0.00808688 0.00769369 -0.00120711 -0.00164894 0.00636937 0.00314543 0.00270497 0.00134021 0.00197961 0.000486237 0.00543468 0.00493868 0.0023694 0.00542649 0.000714339 -0.0036601 -0.0111719 -0.0326806 -0.00596277 -0.0138651 -0.0258004 0.0156914 0.0149891 0.00394157 -0.00634474 -0.0262878 0.00167022 0.0124596 0.0192325 0.00300253 0.00537166 0.000896916 0.00433386 0.00920483 0.00161925 0.00515464 0.00327729 0.00962023 0.00694654 0.00274755 0.00312244 0.00303129 0.00204422 0.00307259 -0.00162412 -0.0238234 -0.0202055 0.00138653 -0.0118155 0.017388 -0.00519459 0.00346638 2.41334e-05 -0.0196799 -0.003512 0.00340672 0.0151873 0.0011889 0.00012035 0.00055081 0.00992232 0.00590454 0.00484416 0.0043299 0.00580179 0.00668297 0.00542292 0.000244549 -0.0107021 0.00170604 0.00923261 0.0121361 -1.44394e-05 -0.0198126 -0.0173786 0.00174696 0.00281681 0.0360123 -0.00534703 -0.0089696 0.000472896 0.00591259 -0.012845 0.00603527 0.000617245 0.00154802 -0.00120129 0.000627555 0.00988386 0.00548883 0.00699963 0.00484536 0.00305366 0.00692696 0.00965555 -0.000894845 -0.00678752 0.00459747 0.00600858 0.0101989 7.2805e-06 -0.0145112 -0.0211655 -0.0145299 -0.00794461 0.0465084 0.000886205 0.0036815 0.00331383 0.00941782 -0.000100972 -0.00528662 -0.0149901 -0.0128987 -0.00900906 0.00635951 0.00578367 0.0079429 0.00420302 0.00938144 -1.23464e-05 0.00625582 0.00847901 0.00231004 -0.00631332 -0.000996913 -0.000834465 -0.00669692 -0.0127864 -0.0132608 -0.0229577 -0.0129107 0.0168833 0.0605349 0.0408688 0.0268306 0.0231104 0.0188512 0.00330182 -0.0017751 -0.0147363 -0.00325227 0.00089982 0.0046355 0.00622149 0.00443649 0.00961044 0.00927483 0.0085567 0.00398686 0.00278698 0.00460206 -0.00171614 -0.00803876 0.000612952 0.00482778 -0.00629414 -0.0190831 -0.0306674 -0.0297798 0.0159231 0.056548 0.0547415 0.0355434 0.0428958 0.0438568 0.0227835 0.0116524 0.00711333 0.000897113 0.0116765 0.0170266 0.00694998 -0.000694769 -0.000114944 0.00793814 0.00540054 0.0100503 0.00768689 0.0070283 0.00358052 0.00804688 0.0238627 0.0289374 0.0171461 -0.0167496 -0.0239032 -0.0295703 0.00236408 0.0363592 0.0490071 0.0454127 0.0359904 0.0238096 0.0165371 0.00235053 -0.00136009 -0.00089954 0.0193806 0.0253488 0.0155047 0.00501041 0.00531858 0.00587629 0.00132586 0.000423479 0.0038382 0.000544046 -0.00394525 0.0197341 0.00768974 0.00730626 3.0306e-05 -0.0244071 -0.021402 -0.00795384 -0.00873891 0.0277151 0.0289975 0.0274414 0.0258702 0.0306427 0.00363199 -0.0120312 -0.0110758 -0.0103128 0.0140721 0.0168028 0.00476526 0.00723632 0.000206186 0.00546392 0.00329897 0.00550217 0.00659348 0.00518764 0.00158521 0.0113003 -0.00277549 -0.0111812 -0.00727672 -0.0297971 -0.041664 -0.0244146 -0.0120948 -0.0128287 -0.0123131 -0.0240792 -0.017394 0.0122307 -0.00520377 -0.00919108 -0.00537316 0.000972838 -0.00279419 0.00783956 0.00370586 0.00834692 0.00896907 0.0102062 0.00587629 0.00887816 -0.000508646 0.00469611 0.00993739 0.00289154 -0.00293372 -0.0134214 -0.0198953 -0.0359162 -0.0346547 -0.0308145 -0.0358133 -0.032884 -0.0110838 -0.0212759 -0.0078169 0.0230039 0.00933236 0.00846117 0.00824909 0.00641746 -0.000289779 0.00044901 0.00777608 0.00725045 0.00659794 0.00247423 0.00608247 0.00518517 0.00186711 0.00674426 0.00991219 0.00772917 -0.00699311 -0.00695639 -0.0134264 -0.0195289 -0.0313959 -0.00722028 -0.0134583 -0.0157163 -0.00412521 0.00390932 0.00664035 0.00265076 0.0126749 0.0160322 0.0114645 0.00768684 -0.00626505 0.00427397 0.000271501 0.00771684 0.00257732 0.000309278 0.0056701 0.00421419 0.0026139 0.00667896 0.00407738 -0.000181687 0.00214685 0.00117099 0.000930815 0.00573795 0.0048958 -0.00703172 -0.00681447 -0.0341374 -0.0152635 -0.0106701 -0.00211651 0.0154215 0.0195554 0.00650265 0.00819655 0.00855108 0.000485716 0.000464668 0.00397054 0.00759953 0.0028866 0.000515464 0.00525773 0.0054587 0.000822539 0.00589072 0.0048451 0.00903776 0.00240096 0.0103546 0.00544505 0.00125234 0.00777703 -0.00389813 -0.00603217 0.00327257 -0.0067295 -0.0230087 -0.0196509 -0.000112231 -0.00286007 0.00602336 0.00818335 0.0109308 0.0102046 0.00974609 0.00350156 0.00618127 0.000515464 0.00226804 0.00340206 0.00340206 0.00278096 0.00369443 0.00403708 0.00904383 0.0101867 0.00963456 0.00372198 0.00259654 0.00820871 0.00147648 0.00721806 0.00259315 0.00345613 -0.000947504 -0.00240938 0.00408695 -0.00118825 0.000369838 0.00050683 0.00219801 0.00350178 0.00360825 0.0071134 0.00835052 0.00309278 0.000412371 0.00958763 0.00360825 0.00268041 0.00268041 0.00711703 0.000521042 0.00155025 0.00620752 0.00466378 0.00100943 0.00470871 0.00761285 0.00869229 0.00767428 0.00474336 0.0067693 0.00375518 0.000388117 0.00138319 0.00607156 0.00342618 0.00231979 0.00220172 0.00948454 0.00443299 0.0057732 0.00278351 0.00123711 0.00917526 0.00587629 0.00701031 0.0085567 0.00958763 0.00474227 0.00628866 0.0014433 0.00536082 0.00783505 0.00762887 0.00999977 0.00886548 0.00742268 0.00237113 0.00206186 0.00494845 0.00742268 0.00402062 0.00371134 0.0028866 0.00546392 0.00989691 0.0014433 0.00268041 0.00185567 0.000618557 0.0071134 0.00268041 0.00340206 0.00350515 0.00154639 0.00927835 0.00556975 0.00515584 0.00359322 0.000101918 0.00123351 0.000100108 0.000504963 0.00896768 0.00267588 0.00552799 0.00279203 0.0101251 0.00792005 0.0048501 0.0102123 0.000110099 0.00886771 0.00360493 0.00845361 0.00938144 0.00865979 0.00989691 0.00185567 0.00556701 0.000206186 0.00402326 0.00824833 0.00896907 0.00257238 0.00485537 0.00796716 0.00836594 0.0102716 0.00656965 0.00298328 0.00527681 0.000923492 0.00301435 0.00335214 0.00159536 0.00206534 0.00420941 0.00921977 0.00771753 0.00793966 0.00505795 0.00776049 0.00156424 0.00865979 0.00587629 0.000721649 0.00701031 0.00546392 0.0025847 0.00226669 -0.000568239 0.000509262 0.00437018 0.00877807 0.00541119 0.00822299 0.00556172 0.00933452 0.00509139 0.009395 0.00416651 -0.000257289 -0.00396027 -0.000123355 -0.00105013 -0.00154507 0.00615636 0.00824719 -0.000557194 0.00647475 0.00145914 0.00545691 0.00443299 0.0043299 0.00412371 0.00536082 0.0050513 0.00620659 0.00558502 0.0035464 0.00457527 0.00662944 0.0113435 0.00648079 -1.70627e-05 0.0108545 0.0166668 0.00264289 -0.00224145 -0.00134434 0.0150984 0.0106866 0.00798318 0.0156355 0.00547539 0.00246315 0.00622967 0.000651039 0.00205878 0.00523889 0.0087648 0.00649485 0.000927835 0.00814433 0.00597009 0.00374889 -0.00196886 -0.00697261 -0.0012839 -0.00252645 0.00619095 0.00877169 0.00458674 0.00824714 0.0060612 -0.00381207 -0.00436877 0.00630019 0.014121 0.0139524 0.018758 0.00943412 0.0268838 0.019388 0.0120302 0.00897038 0.00844869 0.00242874 0.0102714 0.00876289 0.00773196 0.00811269 -0.000563189 0.00486109 -0.000448996 -0.00406596 0.0013983 -0.00585941 -0.00240467 -0.00231762 0.000233904 -0.00534037 -0.00429634 -0.00346868 -0.00907937 -0.01195 -0.00170574 0.00480229 0.0236 0.0307974 0.0360067 0.0219107 0.00941759 0.00925103 0.0077436 0.00937717 0.00924234 0.0071134 0.00143797 0.00779553 -0.000902737 0.00392582 0.00366332 -0.00638933 -0.00352178 -0.00193463 -0.00567397 -0.00264035 -0.00455195 -0.00152319 0.00782938 0.0109669 0.00998797 -0.00111328 -0.00601193 -0.000746841 0.0261386 0.0307499 0.0309409 0.0283111 0.00470619 0.0100404 0.00700308 0.00356469 0.0101529 0.00652234 0.00206659 0.00817376 0.00223669 0.00218242 0.00587406 0.00668641 -0.00122776 -0.0010524 -0.00743339 -0.00850359 0.00694809 0.00376923 0.00536581 0.0203745 0.0081574 0.00176622 0.00079948 0.0124787 0.0319353 0.0119919 0.0204126 0.0305516 0.00779828 0.00344252 0.0046829 0.00995218 0.0072661 0.00669938 0.00751768 0.00701007 0.00920967 0.00248676 0.00197518 -0.00540629 -0.00465785 -0.00867844 -0.00785345 -0.00582093 0.00533216 0.00515356 0.00241469 0.00405941 -0.000948038 2.83272e-05 -0.00642464 0.023523 0.0071547 0.00303159 0.0114214 0.0100744 0.0080917 0.00518589 0.00215754 0.00801511 0.00449772 0.00865787 0.00206101 0.00672887 0.00130721 0.00682234 -0.00314451 -0.00147945 0.00254952 0.00533552 -0.000843484 -0.0067339 -0.0013608 -0.000724635 0.00367851 0.0030712 0.000735955 -0.0017163 0.0105141 0.00848543 0.00325688 -0.000670147 0.00215321 0.00582423 0.000874529 0.0058787 0.00747562 0.00844948 0.00125061 0.00690701 0.0101825 0.000706751 6.79117e-06 -0.00133007 -0.00634303 -0.00637835 -0.00102476 0.00676625 0.00526078 2.7833e-05 -0.00277604 -0.00662411 -0.0120101 -0.0133435 -0.0046353 -0.0078944 -0.00101485 -0.0114276 -0.00250286 -0.00653543 -0.00461431 -0.00283826 0.00309016 0.0015849 0.00407488 0.00370411 0.00620223 0.0101031 0.00584587 0.00240683 0.00120367 0.000704334 -0.00281033 -0.00583161 -0.00838186 0.00305727 0.00962491 -0.00320297 -0.0195045 -0.023926 -0.0276531 -0.0128813 -0.00566975 -0.00467757 -0.0145092 -0.0195191 -0.019074 -0.0172977 -0.0152639 -0.0124481 0.0064038 0.00339125 0.00111042 0.00959287 0.00754664 0.000618557 0.00267342 0.00341575 7.0798e-05 -0.000593509 -0.0086779 -0.00587723 -0.0019435 0.00440211 0.00696923 -0.00938213 -0.0186459 -0.0332711 -0.0113694 -0.00476633 0.000656452 -0.0183829 -0.0178096 -0.0175501 -0.0179905 -0.0164588 -0.0153296 -0.0132513 -0.00201005 0.000265183 0.00424795 0.00109177 0.00868077 0.000412371 0.000257536 0.00102528 0.00075756 0.00537228 0.00449591 -0.00122075 0.000900912 -0.0063776 -0.00228667 -0.0212242 -0.0120051 -0.0105106 0.00211529 0.00714343 -0.00280223 -0.0203102 -0.0291824 -0.0154042 -0.0264475 -0.0213922 -0.0127767 -0.00867719 -0.00590218 0.00058978 0.00650322 0.00454852 0.00309398 0.00587629 0.00534589 0.0066342 0.00614765 -0.00176197 0.00450028 -0.00174656 -0.00890614 -0.00865667 -0.00781129 -0.0158223 -0.011829 0.00820339 0.0180121 0.0123387 -0.00960463 -0.0267905 -0.0257634 -0.0215458 -0.0224176 -0.0192721 -0.0154377 -0.0138418 -0.00289057 -0.00129972 -0.000895888 0.00679412 0.00243675 0.00731959 0.000357629 0.000141102 0.00772366 0.00155443 0.00417458 -0.00229205 0.00688594 0.000454446 -0.00594325 0.00273884 0.0118946 0.0167317 0.0260404 0.00355065 -0.0203975 -0.026357 -0.0350868 -0.0273119 -0.0254038 -0.0213977 -0.0188694 -0.0192241 0.000382627 0.00458113 0.00926874 0.00136564 0.0061457 0.00896907 0.00719723 0.00312294 0.00123222 0.00446821 0.00450168 0.00104657 0.011841 -0.00335083 0.00513812 0.0186055 0.0170107 0.0194171 -0.00345544 -0.0265398 -0.0262806 -0.0314686 -0.0374744 -0.0222114 -0.0195914 -0.0126337 -0.0115802 -0.00753847 0.00158971 0.000870126 0.0109652 0.00346747 0.00172359 0.00649277 0.00309278 0.0072385 -0.000581482 0.00865905 -0.00232555 0.000265297 0.0119145 0.00770885 0.0100199 0.0135097 0.0182601 0.0140107 -0.0130877 -0.0314449 -0.0331652 -0.0285629 -0.0286055 -0.0270834 -0.0197281 -0.00952148 0.00381004 0.00594189 -0.000183918 0.000387821 0.00580323 0.00985087 0.00863124 0.00206186 0.000734728 0.00982156 0.00397613 0.0116693 -0.00381861 0.0075094 0.0212363 0.0188716 0.0231507 0.0297753 0.0227376 0.00306741 -0.0106849 -0.0274932 -0.0350171 -0.0288312 -0.0304926 -0.0271067 -0.0160727 -0.00456151 0.00838937 0.00201826 -0.00832434 0.00239824 0.00237362 0.0107723 0.00780749 0.000721649 0.00835376 0.0058969 0.00534548 0.00807168 0.0098037 0.0125048 0.0162659 0.0154225 0.0237493 0.0133321 -0.00193972 -0.00128286 -0.00191163 -0.0103811 -0.0207542 -0.0104726 -0.0151897 -0.0251045 -0.0138822 -0.00582796 0.015291 0.00935036 0.00340458 0.0056866 0.00394345 0.000725271 0.00731959 0 0.0102062 0.00521652 0.00235979 0.0100092 0.0165257 0.0132985 0.0105058 0.0233846 0.0127482 0.00814944 0.0106065 -0.000625779 0.00612975 0.0203024 0.0209823 0.0236318 0.0194834 -0.00283057 0.00631398 0.012177 0.0117424 0.013854 0.0156152 0.00759064 0.0103454 0.00671175 0.00340206 0.00649485 0.00206186 0.00676106 0.00791562 0.0100641 0.0105576 0.0150332 0.00659952 0.016189 0.0136961 0.0100912 0.0109169 0.00131959 0.00984207 0.0185809 0.0279825 0.0322794 0.0284374 0.0159822 0.00760875 0.00616765 0.0174836 0.0198055 0.0125232 0.00571748 0.00252388 0.00482805 0.00134021 0.0102062 0.00649485 0.0103363 0.00713906 0.00891738 0.00252791 0.00762734 0.00183517 -0.00236478 0.000976252 0.00718647 0.0129824 0.00985809 0.0017236 0.00721499 0.0262191 0.0222728 0.0247214 0.020049 0.00977588 0.00670758 0.0104894 0.00505207 0.00452036 0.00396303 0.00569018 0.000705158 0.00206186 0.00783505 0.000618557 0.00869094 0.0027594 0.00234488 0.00536201 -0.00211861 -0.00904907 -0.00337712 -0.00586685 -0.00196003 -0.00209819 0.000778392 -0.00389627 0.00677763 0.0146994 0.00710574 0.00947727 0.0151502 0.0079232 0.00727861 0.00719199 0.00869644 0.00557229 0.00923148 0.00789921 0.00537646 0.00783505 0.00319588 0.00113402 0.00494873 0.00606609 0.00827101 0.0026744 0.00700648 0.0094631 0.00698874 0.00289445 0.0034631 0.00371864 0.00929602 0.000856761 0.0015463 0.0084723 0.00174469 0.00696657 0.00458437 0.00765157 0.00119576 -0.00154599 0.000666608 0.00728995 0.00089065 0.00434383 0.00929501 0.01 0.00721649 0.0043299 0.00268041 0.000204166 0.000562071 0.00254855 0.000938106 0.00713582 0.00516092 -0.00139965 0.00522355 0.00702405 0.00751131 0.0054414 0.00744203 0.0016574 0.00591144 -0.00155723 -0.00166629 0.00447172 0.00333851 0.000156587 0.0035256 0.00802293 0.00690722 0.000824742 0.00525773 0.00773196 0.00515464 0.0042268 0.00257732 0.00216495 0.00360825 0.00524965 0.00771003 0.00417144 0.00788834 0.0090681 0.00711399 0.00915864 0.00400659 0.00883258 0.00706734 0.00721131 0.00504202 0.00131362 0.00521715 0.00236021 0.00207294 0.00601131 0.00291517 0.00638303 0.00195876 0.00701031 0.00958763 0.00886598 0.00793814 0.00989691 0.00628866 0.00814433 0.00381443 0.00886598 0 0.00247423 0.00381443 0.00278351 0.00680412 0.00690722 0.00690246 0.0033721 0.000824742 0.000824742 0.00762887 0.00814433 0.00340206 0.00257732 0.00969072 0.00917526 0.000206186 0.00701031 0 0.00319588 0.00845361 0.00195876 0.00525773 0.00773196 0.000515464 0.0028866 0.00731959 0.00680412 -0.000835538 0.00309093 -0.001509 0.00603559 0.00870511 0.00419222 0.00860604 -0.000414989 0.00568728 0.00415526 0.00761773 0.00639976 0.00155693 0.0059896 -0.000298821 -0.000403787 0.00838373 0.00457794 0.00927835 0.00443299 0.00154639 0.0043299 0.00762887 0.00515464 0.00628866 0.00266704 0.00257271 0.00185567 -0.00164169 -0.00116348 -0.00220483 0.00355254 0.00365426 0.00191508 0.00117316 0.00122982 -0.00119381 0.00418019 -0.00447788 0.0054586 -0.000493275 0.00734225 0.00128057 0.00727881 -0.00342019 6.33052e-05 0.00880901 0.00446252 0.00206186 0.00360825 0.00948454 0.00371134 0.00804124 0.00192632 0.00399112 0.00932484 0.00347052 -0.00679231 -0.00759523 -0.0105073 -0.00354403 -0.00414869 -0.00643119 -0.00928254 -0.00342024 -0.003245 -0.00361972 0.000940796 0.01505 0.0188537 0.0214325 0.0114275 0.00834047 0.00638611 0.00277827 0.00279069 0.00712857 0.00814433 0.00804124 0.00917526 0.00154639 0.00227901 0.00775453 0.00225568 -0.00413642 -0.00496117 -0.00362346 -0.00185717 -0.0100324 0.000531208 -0.00890115 -0.0108273 -0.00911088 -0.00421943 -0.0138006 -0.00983199 -0.0005979 -0.00286488 0.0079877 0.0101549 0.0126269 0.015729 0.0145419 0.00197131 0.00950544 0.00672275 0.00309278 0.000721649 0.00474227 0.00631982 0.00873301 -0.00290713 0.00191858 -0.00182901 -0.0121164 -0.00489942 -0.00772263 -0.00573059 -0.0127845 -0.0220979 -0.00102632 -0.00228458 -0.00325217 0.00934024 -0.00295439 -0.0141635 -0.0098664 -0.0113905 0.00303464 0.016314 0.0182948 0.00543754 0.00886195 0.00215678 0.00298969 0.00278351 0.00906758 0.00080867 0.00198555 0.00209313 0.00100702 -0.0127929 -0.0116804 -0.00504153 -0.0137128 -0.0150062 -0.0212564 -0.0238193 -0.0290076 -0.0224661 0.00977039 -0.0129019 -0.00277054 -0.0166515 -0.00553323 0.0117975 0.0162193 0.0274269 0.010575 0.00914754 0.00278289 0.00940359 0.00721649 0.00762497 0.00134585 0.00413917 -0.00297843 -0.00321575 -0.00633519 -0.0240701 -0.0196663 -0.0153834 -0.0102852 -0.0202844 -0.0277904 -0.00721042 -0.0132507 0.00554515 0.0239056 0.0102617 -0.0358857 -0.0367802 -0.0166486 0.00743593 0.0253999 0.0371085 0.0294476 0.00658492 0.00853664 0.00360672 0.0082761 -0.000107984 0.00145779 0.00320063 -0.00169663 -0.0121744 -0.0141156 -0.0182558 -0.00778507 -0.0266552 -0.0301613 -0.00987548 0.00241803 -0.000124562 -0.00575614 0.0102877 0.00239386 -6.62312e-06 -0.0271381 -0.02799 -0.0152151 -0.00367211 -0.0114574 0.0193805 0.0512789 0.0178989 0.00472891 0.000145635 0.000190003 -0.000165207 0.00192719 0.00536503 -0.00734581 -0.0119163 0.0044876 0.00292354 -0.0234432 -0.0240704 -0.0335397 -0.0164445 -0.0120828 0.00754131 -0.0022856 -0.00621828 0.0104501 0.0326126 0.0122012 -0.0178235 -0.0259641 -0.00570588 -0.00858182 0.00828216 0.0200371 0.0170091 0.00374616 0.00188972 0.00492963 0.00728021 0.00360124 0.00769519 -0.000450053 -0.000475903 0.0117845 0.00743452 -0.0240166 -0.0040177 -0.000621402 0.00383796 -0.00133709 -0.0221063 -0.0217885 -0.00412404 0.00378173 0.0146116 -0.0189229 -0.0371813 -0.0344879 -0.0107925 -0.00883446 -0.0060402 0.00945588 0.0100449 0.00385216 0.00354043 0.00515262 0.00741973 0.0098511 0.00490373 -0.00490987 0.0193029 0.021363 0.00110479 -0.00889778 0.0244084 0.0283683 -0.0033711 -0.0291429 -0.021302 -0.000840229 0.00320119 -0.00119976 0.00493496 -0.030888 -0.0230474 -0.0106265 -0.00357695 -0.0121228 -0.0287482 0.00131241 0.0130786 0.00507387 0.000159403 0.00618557 0.00352511 0.0127656 0.00118743 0.0081902 0.0338822 0.0300809 0.0253605 0.0237341 0.0198069 3.89729e-06 -0.0270577 -0.019861 0.003429 0.0216614 0.00348763 -0.0125124 -0.0135357 -0.0159677 0.00516223 0.0115557 0.00484561 -0.00241931 -0.0188438 0.000343858 0.00639208 0.00360824 0.00779787 0.00185567 0.00670277 0.0035546 0.00854053 0.0113569 0.0343739 0.0382533 0.0744344 0.0449744 0.00993699 -0.00393808 -0.0290387 -0.0201499 0.000222944 0.0054602 -0.0132007 0.000132573 0.00181815 0.0121433 0.0168415 0.018509 -0.000650249 -0.00512912 -0.0132757 0.000739704 0.00441037 -0.00121564 0.00857496 0.00958763 0.00328735 0.00119839 0.00865896 0.00224445 0.0167972 0.0418505 0.0717927 0.0448145 0.0248818 -0.000983209 -0.0133632 -0.0178642 -0.00878057 -0.00761362 -0.00154555 0.0182331 -0.00127539 -0.00598159 0.0379214 0.0085222 0.0116081 -0.0087606 -0.0213282 -0.00597563 0.00334158 -0.000163593 0.00412537 0.00876289 0.00206509 0.00191071 0.00866149 0.0067285 -0.00173053 0.00587456 0.0526493 0.0465496 0.0402316 0.0459871 0.0389968 0.00547775 -0.00832303 -0.00439282 0.0131716 0.0234425 0.0300683 0.00904017 0.0110903 0.00168277 0.0104451 0.00148635 -0.00804766 0.00376679 0.00845201 0.00729912 0.00775196 0.00865979 0.00226959 0.00685956 0.0138592 0.00386216 -0.00857353 -0.00749611 0.0324875 0.0423534 0.0346974 0.0599115 0.0744448 0.0633487 0.0446071 0.00520148 0.0185895 0.03049 0.0291002 0.00912356 0.0041178 0.0149195 0.00440131 0.00828647 0.00170706 -2.03212e-05 0.000459307 0.00531522 0.00791766 0.0042268 0.00917589 0.00468225 0.0116648 -0.00287965 -0.0125399 -0.0172351 0.00460125 0.0101035 0.00990196 0.0324191 0.0244584 0.00968621 0.00751036 0.0139356 0.0185307 0.0180515 0.0056207 0.00436183 -0.0300404 -0.023131 -0.0121308 -0.00175401 -0.00408219 -0.00492841 0.00315423 0.00338018 0.00790733 0.00525523 0.00556701 0.00323553 0.0147077 -0.00757911 -0.0176985 -0.0164184 -0.0228174 -0.0257741 -0.0511849 -0.04289 -0.0311836 -0.0294247 -0.000243768 -0.000737967 -0.00769095 -0.00379423 -0.00566756 -0.0317242 -0.0325431 -0.0402975 -0.0246501 -0.00577189 -0.00617004 0.00909378 0.00453219 0.00745702 6.72256e-05 0.00938144 0.00561198 0.00361737 0.0046605 -0.00974188 -0.0148411 -0.0165413 -0.0292458 -0.0391147 -0.0438509 -0.0476242 -0.0355961 -0.0230981 -0.0117972 0.0118738 -0.000989835 -0.0221106 -0.00950402 -0.0225088 -0.0264133 -0.0413158 -0.0295155 -0.00543238 0.00738534 0.0217277 0.0061465 0.00145299 0.00919112 0.00484536 0.0037206 0.00465158 0.00316043 -0.000301711 -0.00827301 -0.0199075 -0.0293574 -0.0407011 -0.0364419 -0.04455 -0.0156845 0.00182989 0.0133843 -0.0030991 -0.0260103 -0.0139524 0.00325536 -0.00679562 -0.0224399 -0.0261923 -0.00401239 0.0114279 0.0158224 0.0212254 0.0116748 0.00150425 0.0101031 0.00525773 0.00278351 0.00414351 0.00873156 0.00315056 0.000957055 -0.0119749 -0.0290126 -0.0310907 -0.0130705 -0.0154518 0.0192292 0.0267462 0.00116596 -0.0143579 -0.0158451 -0.0130466 -0.0235443 -0.0102442 -0.0276329 -0.0134613 0.0167066 0.016019 0.0213731 0.02859 0.00674021 0.00531232 0.00917526 0.00371134 0.00742268 0.00916555 0.00780533 0.00266399 -0.00135779 -0.0059961 -0.00640455 0.00024176 -0.00193289 0.0110009 0.0233859 0.0210497 -0.00222504 -0.00172069 -0.00676364 -0.01022 -0.0336955 -0.026207 -0.02182 0.00947178 0.0124307 0.0162225 0.0145767 0.0215459 0.0106495 0.00927129 0.00587629 0.00845361 0.00443299 0.00491993 0.00250843 0.00698073 0.00476102 0.00973157 0.0253408 0.0279974 0.0201575 0.00834305 0.00658044 0.00644062 -0.0118348 -0.00278138 0.00117861 -0.0203217 -0.0212561 -0.00825615 -0.00376601 0.00830098 0.00721975 0.00774623 0.0170667 0.011449 0.00600658 0.00829716 0.00237113 0.00938144 0.0014433 0.0033944 0.00295625 0.000461747 0.00173417 0.0196419 0.0332439 0.0318062 0.0240017 -0.000120225 0.020141 0.00630809 -0.00870258 0.00400837 0.0138407 -0.00560543 -0.00167996 -0.00323888 0.00629247 0.00189839 0.00841578 0.0106919 0.012899 0.00833907 0.00577251 0.00698891 0.00237113 0.00886598 0.01 0.010208 0.00298181 0.000911446 0.00832673 0.0153341 0.0136787 0.015177 0.00745743 0.00275151 0.0144752 -0.0100871 0.00172444 0.000251122 0.0156335 -0.00350481 -0.00513677 -0.000318591 0.00473484 0.000506428 -0.000540233 0.00753342 0.0069561 0.0056766 0.00297125 0.0035862 0.00412371 0.00876289 0.000309278 0.00154639 0.00732299 0.000203723 0.00731565 0.0118332 0.0119362 0.0120604 0.00286774 0.00737932 0.00189395 0.00377642 0.00611547 0.0127943 0.00997076 -0.00343335 -0.00960583 -0.00810457 -0.000812133 0.00530674 -0.000306385 -0.000655262 0.00420905 0.00938144 0.00927835 0.00876289 0.0056701 0.00195876 0.00206186 0.00484536 0.000515464 0.00773196 0.00638587 0.00293145 0.00318549 0.00857373 0.00828368 0.00942764 0.00375681 0.00514823 0.00349216 0.00186258 0.00133875 0.00119699 0.00158728 -0.00742462 0.0107691 0.00493581 0.00262154 -0.00117787 0.00220051 0.000412371 0.00979381 0.00226804 0.00484536 0.00876289 0.000721649 0.000206186 0.000515464 0.00814433 0.00505155 0.00639175 0.0056701 0.00659794 0.00927835 0.00360825 0.00463918 0.00741052 0.00285998 0.0028866 0.00134021 0.00103093 0.00309278 0.00175258 0.00268041 0.0042268 0.00938144 0.00226804 0.00865979 0.00402062 0.00804124 0.00597938 0.00989691 0.00268041 0.00835052 0.00443299 0.00113402 0.00412371 0.0101031 0.00685963 0.00713442 0.0101131 0.00306956 0.00278352 0.00155047 0.00749291 0.00132385 0.00612995 0.0098353 0.00962219 0.00416553 0.00102647 0.000492648 0.00235461 0.00822842 0.00851101 0.00665839 0.00237113 0.00587629 0.000103093 0.00154639 0.00371134 0.00113402 0.00113402 0.00144408 0.0094848 0.000618557 0.00791077 0.00863251 0.00508034 0.00351947 0.00354428 0.00326819 0.00151624 0.0027315 0.00709835 0.00529172 0.00478683 0.00828915 0.00481298 0.00442408 0.00224792 0.00114181 0.00520076 -3.82169e-05 0.00461984 0.00349392 0.00175258 0.00701031 0.00948454 0.00721649 0.00360825 0.00825025 0.00845427 0.00990063 0.00421444 0.00781285 9.11063e-05 -0.00106482 -0.00271976 0.00147275 -0.00287222 0.00360312 0.00436658 -0.00252796 -0.00174166 0.00313953 0.00426338 -0.000186566 0.00761081 0.000604775 0.00538098 0.00559522 0.00732293 0.00571855 0.0055837 0.00164948 0.0043299 0.00742268 0.00371134 0.00886675 0.00422775 0.00604171 0.00546635 0.00242259 0.0060249 -0.00211705 -0.00143653 -0.00172849 0.0033684 0.00145469 -0.00199859 -0.00345577 0.00489481 7.26324e-05 -0.00043786 0.00923732 0.000385388 0.00666505 0.0113314 0.00979559 0.00332213 0.0103816 0.00350958 0.00484274 0.00556701 0.00917526 0.00649485 0.00988147 0.000818737 0.00440678 0.00722598 -0.000504825 0.00796052 -0.00159719 0.00473156 0.00646728 0.00086692 0.00216583 -0.00802417 -0.00565053 -0.00777493 -0.000895971 0.00509187 0.00692063 0.00191654 0.00621778 0.00818344 0.00593465 0.0105211 0.00203926 0.00670922 0.00690269 0.00175258 0 0.00154714 0.00249559 0.00332338 0.00228613 0.00129921 0.00189954 0.00922017 0.00338619 -0.00202595 -0.00184374 0.00200699 0.000961676 -0.00560664 -0.00222725 -0.00582824 0.0015551 -0.000785669 0.00230289 -0.00138733 0.00299093 0.0033799 0.0109219 0.00118918 0.00489135 0.00742155 0.00526541 0.00175258 0.00380242 0.00736638 0.00888318 0.00775774 0.00251154 0.00160304 0.00302454 0.00579641 0.00688558 0.00545447 -0.00935192 0.000927582 -0.00709966 -0.00740965 0.00213301 -0.00813553 0.0011463 0.00241773 0.000310783 -0.00474589 0.00428708 0.00434915 0.00991737 0.00326874 0.00548738 0.00563423 0.00938802 0.00526181 0.0080906 0.00962432 0.00724573 0.00525684 0.00573714 0.00735587 0.00558289 -0.00135347 -0.000222839 -0.00183242 -0.00648598 -0.0075056 -0.00476982 -0.00166739 -0.00483791 -0.000585579 -0.00265382 -0.000308699 0.00382589 -0.00694759 -0.00542604 0.00688572 0.00583337 0.00184289 0.00137841 0.00892959 0.00872094 0.0012388 0.00965271 0.00280001 0.00680829 0.00740813 0.00554953 0.0130315 0.00494227 0.00348202 0.00629 0.000399248 0.00326824 -0.00872226 -0.00121701 -0.00573521 -0.00768918 -0.0060162 -0.00515884 -0.00749756 -0.0063357 0.00255914 -0.0010389 0.00685807 0.00655321 0.00104395 0.00265341 0.00631469 0.000451726 0.00288856 0.0102775 0.00457594 0.00469166 0.00770263 0.0150464 0.0125178 0.00768249 0.0032778 0.00457308 0.00248378 -0.00157249 0.000473477 -0.00786442 -0.00482995 0.00193889 -0.00222715 -0.00230199 0.00345767 -0.000718416 0.00359101 0.0018831 0.00908395 0.00881812 0.00510922 0.00210935 0.00213361 0.00474855 0.00381464 0.00361762 0.000769005 0.00731253 0.0128989 0.0143235 0.013447 0.00677239 0.00658845 0.00654799 0.0010583 0.00080758 0.00225527 -0.00502377 -0.00439996 -0.000803837 0.00248787 0.00589766 0.00231296 0.00114283 0.000264198 0.00695345 0.00584474 0.0086916 0.00804885 0.00112456 0.00717765 0.00287202 0.00886598 0.00438262 0.00796199 0.00360231 0.0135703 0.0182105 0.0112016 0.0100674 0.00639871 0.00837254 -0.00147118 0.00317071 -0.00600287 -0.00449747 -0.00538633 0.000764854 0.000493617 -0.00249827 -0.00252087 0.00505296 0.00321308 0.0110664 0.00721099 0.00513597 0.00111589 0.00296768 0.0024074 0.00565957 0.00123711 0.00957707 0.00868147 0.0115296 0.0146072 0.0101632 0.00883678 0.0132897 0.00500083 0.00561813 0.00461609 -0.00597978 -0.00852955 -0.00593254 -0.0077575 -0.00937766 -0.00826537 -0.00185303 -0.00487426 -0.00288795 -0.000369637 0.0107503 0.00977384 0.00721225 -0.000255129 -0.00157566 0.00384066 0.00801289 0.00989691 0.00634969 0.00362985 0.00243642 0.00452077 0.00844684 0.00591568 0.0115759 0.00235116 0.00699142 -0.00554141 -0.0016964 0.000283822 -0.00925736 -0.0107282 -0.013012 -0.0108974 -0.00433312 0.00520676 0.00126446 0.00607062 0.00680378 0.0106719 0.00301381 0.000901173 -0.00173651 0.000702697 0.00133809 0.00546392 0.00471798 0.00950231 0.00704708 0.00481176 0.00652268 0.00937907 0.00938368 0.0103673 0.000663672 0.00212017 