0.0043299 0.00134021 0.00907216 0.00896907 0.00917526 0.00896907 0.00391753 0.00391753 0.00113402 0.00927835 0.00319588 0.00917526 0.00391694 0.00989563 0.00670103 0.00670103 0.00979381 0.00134021 0.00113402 0.00721649 0.00113402 0.00835052 0.00340206 0.000103093 0.00268041 0.00257732 0.00690722 0.000927835 0.00969072 0.00814433 0.00505155 0.00907216 0.00453608 0.00917517 0.00772702 0.00885841 0.00782204 0.00669884 0.00244807 0.00406964 0.00574704 0.0006946 0.00831127 0.00471477 0.000287887 0.00472315 0.00648098 0.0100912 0.00617595 0.00276199 0.00204801 0.00237101 0.00618557 0.000515464 0.00247423 0.00896907 0.00309278 0.00443299 0.00989691 0.00783536 0.00237124 0.00999967 0.00175931 0.00194289 0.0087136 0.00907836 1.26087e-05 0.00111221 0.000719359 0.00804779 0.00515869 0.001315 0.00823074 0.00260603 0.000982634 0.00922657 0.00349506 0.00811368 0.00432063 0.00484548 0.00598112 0.00154734 0.00721649 0.00195876 0.00742268 0.00484536 0.000618405 0.000310405 0.0092827 7.2278e-05 0.00299748 0.00641186 0.00451139 0.00438386 0.00828833 0.00337633 0.00900721 0.00882441 0.0051449 0.00467056 0.000348231 -0.00143746 0.0051881 -0.000517551 0.00865576 0.00860927 0.00556953 0.00860619 0.0020225 0.0102001 0.00330227 0.00814433 0.00680412 0.00556701 0.00515412 0.00391792 4.42363e-05 0.00549429 0.00948038 0.00422342 0.000119828 0.00747487 0.000257323 0.00523087 0.00637646 0.00788944 -0.00265371 -0.000539042 0.000950724 -0.0016351 0.00600868 0.00408193 0.0048501 -0.000861484 0.00728736 0.00661068 0.00456401 0.00849394 0.00515757 0.0065972 0.00835052 0.00350515 0.00979374 0.0101773 0.00891982 0.00398148 0.0027333 0.00755802 0.00394172 0.00694635 0.00639003 0.00322389 0.00176006 0.00552985 -0.00378656 -0.00316585 0.0035038 0.00434777 0.00349205 0.00618417 0.00700254 0.00801809 0.00416874 0.000356557 0.00972345 0.00685279 0.00195516 0.00360716 0.00494845 0.00226796 0.00523905 0.00806135 0.004958 0.00857443 0.00683059 0.0030594 0.00733475 0.00381061 0.0056394 0.00180245 0.00258498 0.00506499 -0.00333279 0.00154607 -0.00203933 0.0058232 0.00295983 0.00396233 0.00446891 0.00566996 0.00395773 0.00985826 0.00618923 0.00897514 0.000133896 0.0102033 0.00525773 0.00741627 0.00357436 0.00476471 0.00814726 0.00190801 0.000851821 0.00248907 0.000391847 -0.00299693 0.000256488 0.000653235 0.000769366 0.00102918 -0.000590203 -0.000774292 0.00123124 -0.000225596 0.000306254 0.00477219 0.00566804 -0.00147017 0.00390423 -0.000303367 0.00790451 0.00496199 -2.55124e-05 0.00845276 0.00330521 0.00538373 0.00826175 0.00317572 0.00597169 0.00429241 0.00117216 0.00264167 0.00148451 0.00180629 -0.00391084 -0.000179896 -0.00232399 -0.00385953 0.00203471 2.45982e-05 -0.00537754 -0.00565154 -0.00113451 0.00167207 -0.0044938 -0.00342619 -0.00112261 0.00867815 0.00737988 0.00171072 0.00977488 0.0102185 0.00638524 0.00470351 0.00823717 0.00410063 0.00277985 -0.00198358 -0.000427769 -0.00198467 -0.00163691 0.00139966 -0.00146623 0.00224874 0.0020996 -0.00460769 -0.00575292 -0.00771012 -0.00468822 -0.00170969 -0.00354624 -0.00160212 -0.00388348 -0.00637938 0.00461849 -0.00152541 0.00648759 0.000746509 0.00496561 0.0041227 0.00731202 0.00977682 0.00388738 0.0078329 0.00691694 0.00371428 0.00458447 0.000327768 0.00353633 -0.00440368 -0.00526644 -0.000844041 -0.00359393 4.86404e-05 -0.0081323 -0.00695966 -0.00801849 -0.00224889 -0.00196051 -0.00691561 -9.05417e-05 -0.000537966 0.00429498 0.00642223 0.00617218 0.00768333 0.00846127 0.00298251 0.00298888 0.00847492 0.002114 0.00438112 0.00570447 0.00238858 -0.000441355 0.0032777 -0.00169461 -0.00448366 -0.000718757 -0.00135575 -0.000126747 -0.00553021 -0.00619933 -0.00228708 0.000874258 -0.000706161 -0.00729954 -0.00245549 -1.0376e-05 -0.00306841 0.00389833 0.000432539 0.00743301 0.000682935 0.0001871 0.00958182 0.00845361 0.00363464 0.00221056 0.0057584 -0.00011932 0.000975601 0.00378045 0.000255899 0.000489741 -0.00551694 0.000510087 0.00131764 1.9572e-05 -0.00455062 -0.00357158 -0.00887607 -0.00375221 -0.00236033 0.00160947 -0.00222336 -0.00400779 -0.00424086 0.00333672 0.00529558 0.00695659 0.00337163 0.00886277 0.00659296 0.00474227 0.00410834 0.0059195 0.00767524 0.00650651 0.000335779 0.00688028 0.00141416 -0.0019123 0.00121001 0.00374042 -0.00292108 0.00036394 -0.00104629 -0.00785126 -0.0127482 -0.00337183 -0.00465693 -0.00640261 -0.00282806 0.000672291 -0.00239252 0.00164847 0.00340776 0.0066396 0.00021958 0.00155054 0.00670559 0.00969072 0.000103093 0.00837619 0.00374359 0.003372 0.00702774 0.00553021 0.00395584 0.00385643 0.00267458 -0.00336504 -0.0045948 -0.00353265 -0.00828402 -0.00149012 -0.00670567 -0.0065044 -0.0016314 -0.00762048 -0.00547033 0.00185384 -0.00190686 -0.00148429 0.00286318 -0.00109963 0.000430436 0.000449012 0.00855701 0.00680412 0.00195876 -2.6962e-05 0.00583398 0.00692224 0.00689301 0.00324479 0.00352126 -0.000617544 -0.00131953 -0.000553592 -0.00410857 -0.00140395 -0.00976547 -0.0048505 -0.0022758 -0.00178067 -0.00276512 0.000885772 -0.00559046 -0.00271391 -0.00492159 0.00491674 0.000598137 0.00755512 0.00515275 0.00909548 0.00918826 0.00175258 0.0045366 0.00732416 0.00836703 0.00614565 0.00165203 0.00178828 0.00460249 -0.00403826 0.00428076 -0.000568405 0.00346543 0.00204847 -0.00467345 -0.000420579 -0.00678741 -0.00395119 -0.00376417 -0.00188087 -0.00685523 -0.00505536 0.000215907 0.00542029 -0.00115377 -0.000667371 0.00255877 0.000292451 0.0095053 0.00865979 0.00927838 0.00830959 0.000133796 0.00915055 -0.000244576 0.000998563 -0.000169886 -0.00317238 0.00173216 0.00313749 0.00375284 -0.00217536 0.00133901 -0.00121381 -0.00269315 -0.00316273 -5.59246e-05 0.0012793 -0.00421402 0.000994557 -6.90288e-05 -0.00243232 0.00192107 0.00362835 0.00445797 0.00648731 0.000431601 0.00742341 0.00659794 0.00998 0.000499149 0.000837279 0.00227085 0.00363225 0.005178 -0.00228709 0.00364142 0.00425895 -0.00280029 -0.00256022 0.000343185 -0.00231229 -0.00740452 -0.00268209 -0.00223881 0.00117628 -0.00368855 0.00107275 0.00193235 0.00356725 0.00791536 0.00506608 0.00211088 0.00439623 0.00558998 0.00639175 0.00586981 0.00607887 0.00860621 0.00224942 0.000104613 0.00706679 0.00489955 0.00478302 -0.00431108 -0.00289292 0.00344776 0.0003415 -0.00685467 0.000238428 0.000230528 -0.00132635 -0.00028488 -0.00435194 -0.000360652 0.000796092 -0.000357931 0.00512875 0.00723533 0.00969362 0.00360998 0.0075972 0.000420071 0.000309278 0.00155531 0.00115419 0.00663786 0.00729132 0.00161439 0.00254916 0.00110354 -0.0010667 0.00556913 0.00210073 -0.00363024 -0.0064011 -0.00929894 -0.000143622 -0.00708049 0.000297013 -0.00103743 0.00062134 0.00328673 0.00225835 -0.0012727 0.00303079 0.00262679 0.00599522 0.000685461 0.0054982 0.00556701 0.00927835 0.00268041 0.00114172 0.00964783 0.00908986 0.00115846 -0.00111579 -0.00114556 0.00101067 0.00257525 -0.00278996 -0.00294015 -0.00704076 -0.000796259 -0.000232403 -0.000457786 -0.00129727 0.00458348 0.0038068 -0.00172382 -0.00290126 0.00394284 0.00672763 0.00749817 0.00805754 0.00509884 0.00435531 0.00319588 0.000515464 0.00484536 0.00384351 0.00969506 0.00689337 -0.000883026 0.00292536 -8.05289e-05 -0.000240555 0.00160293 -0.0013772 -0.0039887 -0.00107889 -0.00333049 -0.00402236 -0.00236204 0.00637164 0.0013856 -0.00287524 0.00308583 0.00832285 0.00349783 0.00332877 0.0103657 0.00996021 0.00912338 0.001165 0.00185567 0.00896907 0.000515464 0.000113883 0.00947107 0.00494656 0.00844493 0.00319227 0.00640063 0.00748401 0.00569015 0.00694616 0.00320891 0.00419246 -0.00333476 0.003376 0.00275115 0.00132658 0.000365124 0.00614951 0.00235918 0.00732622 0.00374845 0.00889591 0.00169714 0.00769535 0.00614656 0.00639864 0.00216495 0.00474227 0.00762887 0.00935152 0.00871529 0.00299344 0.00886932 0.00687171 0.00725062 0.00696445 -0.000951325 0.00317326 1.04923e-05 0.00717609 -0.00357591 0.0067712 0.00114922 0.0014248 0.00546051 0.00712969 0.00325558 0.00728971 0.00183622 0.00694943 0.00843514 0.00459678 0.000110445 7.51986e-07 0.00731959 0.00618557 0.00639175 0.00948454 0.00596373 0.00892808 0.00842562 0.00404742 0.00155547 0.00207834 0.000933765 0.00417845 0.000115939 0.00772348 0.00583271 0.00826644 0.007102 0.006366 0.0072688 0.000934526 0.00781916 0.00224004 0.00510839 0.000532174 0.00774705 0.000930718 0.00721716 0.00598018 0.00546392 0.00742268 0.00103093 0.00783505 0.00329995 0.00744676 0.00718581 0.00438809 0.00108903 0.00505378 0.00840981 0.00837284 0.00308747 0.000300253 0.00319837 0.00376821 0.00894063 0.00570087 0.00854654 0.00284469 0.00410884 0.00814901 0.0100883 0.0067549 0.00464779 0.00989691 0.00226804 0.00206186 0.000515464 0.00958763 0.00309278 0.00103093 0.00175258 0.00412371 0.0088603 9.38191e-05 0.0066731 0.000668338 0.0044456 0.00796284 0.00119933 0.00829673 0.00601712 0.00440915 0.00419702 0.00550677 0.00450977 0.00910819 0.00187975 0.00390084 0.00749792 0.00114529 0.0067762 0.00731959 0.00804124 0.00123711 0.00195876 0.00546392 0.00329897 0.00783505 0.0101031 0.00649485 0.00391753 0.00154639 0.0056701 0.00783505 0.00701031 0.00206186 0.00865979 0.00669357 0.0100868 0.00989691 0.00494845 0.00134021 0.00979381 0.0043299 0.0071134 0.00412371 0.00319588 0.00907216 0.00298969 0.000412371 0.00536082 0.00989691 0.00278351 0.00845361 0.000824742 0.00474227 0.00360825 0.00948454 0.0022678 0.0033834 0.000697974 0.00122783 -3.51099e-06 0.00646705 0.00910809 0.00212609 0.00854445 0.00751786 0.0088515 0.00347301 0.00214524 0.00887032 0.00483865 0.00163233 0.00282445 0.00173419 0.00092928 0.00113402 0.00587629 0.00391753 0.00164948 0.000927835 0.00350515 0.00443299 0.00937953 0.00969006 0.00432902 0.00814479 0.00894052 0.00152534 0.000985312 0.00927824 0.00269003 0.0068504 0.00582028 0.00139894 0.00836093 0.00393463 0.00429519 0.00289346 0.00837771 0.0064904 0.000763893 0.00210977 0.00332009 0.00926832 0.00937701 0.0043299 0.000103093 0.00494845 0.00329897 0.00711429 0.000908069 0.00669597 0.00146073 0.00567978 0.00679942 0.00604687 0.0027 0.00529534 0.00709045 0.0103591 0.00934277 -0.000880873 0.00481353 0.0035634 0.0066849 0.00702737 0.00697973 0.00348322 0.00916942 0.00294929 0.00873184 0.00350846 0.00984844 0.00645437 0.00773196 0.00391753 0.000515464 0.00299273 0.00894433 0.00922809 0.0104464 0.0098608 0.00125669 0.00344659 0.000393233 0.00540257 -0.00197797 -0.00017199 0.0048885 0.00461781 0.00996914 0.00756274 0.00712922 0.00449162 0.00871001 0.00987354 0.0107967 0.008192 0.0110754 0.00640772 0.0101341 0.00156263 2.70327e-05 0.00360825 0.00731959 0.00773238 0.00748718 0.00306067 0.00609626 0.0022538 0.00931217 0.00620087 0.0038488 1.31573e-05 -0.0104667 -0.00484007 -0.00630587 -0.00466267 -0.00318614 0.0013191 0.000156705 -0.00152215 0.0133531 0.0141339 0.0113022 0.00691281 0.0142439 0.0102233 0.00552815 0.00231196 0.00364815 0.00680412 0.00298985 0.00872748 0.00019146 0.00612318 0.00343806 0.00493952 0.00520081 0.00623124 0.000496944 -0.00853168 -0.00968679 -0.00185251 0.00137445 -0.00845755 -0.0134369 -0.0085887 -0.00880612 -0.00514823 0.00657389 0.00468876 0.00979231 0.0132005 0.00938786 0.0125715 0.00221682 0.00250751 0.00910216 0.00845361 0.0050738 0.00224645 0.00563892 0.00548328 0.00376484 0.00191873 0.00425717 0.000683087 0.00429225 0.000722215 0.00382481 -0.00345234 -0.00697011 -0.0134969 -0.0166155 -0.0190719 -0.0108946 -0.00135429 0.00303209 0.00119712 0.00186076 0.014032 0.00627884 0.00985381 0.00997818 0.000875725 0.00710264 0.00464335 0.0037481 0.00635623 0.00952444 0.00550682 0.00551329 0.0022095 0.0015345 -0.00430646 0.00419563 0.000610417 0.0037678 -0.00175757 -0.0142472 -0.0171981 -0.017879 -0.0105017 -0.00942262 0.00149339 0.00344773 0.00911371 0.00559133 -0.000623848 -0.00091417 0.00350143 0.00940027 0.000982212 0.00516753 0.00371236 0.00122355 0.00768917 0.00427256 0.00177021 0.00906422 -0.00203599 0.00223007 -0.00252721 0.00446387 -0.00250925 0.00212316 -0.0107285 -0.013275 -0.0135425 -0.00831612 -0.0173325 0.00268113 0.00892769 0.013041 0.0074451 0.00757824 0.00343791 0.0028729 -0.00152998 0.00534079 0.00728643 0.00302608 0.00144448 0.00247342 0.00845686 0.000433283 0.0100093 0.00458733 -0.0031196 0.000378456 -0.00513351 -0.0012113 0.0012249 -0.00592856 0.00204431 -0.0105217 -0.00155555 -0.00865784 -0.00365999 0.012583 0.0175641 0.0138739 0.0130383 -0.000433246 -0.00175686 0.000902562 -0.00298235 0.00220148 0.00853476 0.00580065 0.00237126 0.000600539 0.00415232 0.00893958 0.00274721 -0.00197521 -0.000899175 -0.0089516 -0.00470473 0.000719926 0.00520242 -0.00285562 0.00604798 0.00439973 0.0108562 0.00766256 0.00224157 0.0185633 0.0098288 0.0114873 0.00156965 -0.00173609 -0.00748471 -0.00274239 -0.000433131 0.00463073 0.00871176 0.00444524 0.00701031 0.00729207 0.00538852 0.00886836 0.00651203 0.00469778 -0.007513 -0.00564352 -0.00402367 0.00185271 0.000679421 0.00542378 0.0126091 0.00777618 0.00650485 0.0114399 0.0129763 0.0222012 0.00476625 -0.00730805 -0.00943916 -0.00777574 -0.0082566 0.00523078 0.00999411 0.00194333 0.00217081 0.00651825 0.00402062 0.000901095 0.00606246 0.00121912 0.000585897 0.000171446 -0.00626339 -0.0149126 -0.0109342 -0.00864094 -0.00740382 0.00386245 0.00860607 0.00934481 0.007601 0.00388896 0.00567849 0.00648894 -0.00491056 -0.00860081 -0.00542185 -0.00178026 0.000298554 0.00154022 0.00367144 0.00839606 0.00460382 0.00397007 0.00701031 0.00721649 0.00572483 0.00088084 0.00159327 0.00272737 -0.0031164 -0.00673523 -0.0101913 -0.0123683 -0.00475515 0.00551484 0.0119323 0.00667139 0.00808312 0.00815669 0.00826716 0.00117555 -0.0113885 -0.00291752 -0.00121801 0.0018696 -0.00350872 -0.00107096 0.00442199 0.00620383 0.00689657 0.00978832 0.00474227 0.00134021 0.00913045 0.00124598 0.00361032 0.00404948 0.00292023 -0.00406006 -0.00705474 -0.00869995 -0.00161602 0.00554078 -0.000517157 0.00651204 0.00887099 0.00272411 0.00107424 -0.0103286 -0.00535053 -0.00400647 0.00766929 0.00416955 0.000301855 0.00445826 0.00342049 0.00116935 0.00761035 0.00924845 0.00659794 0.00928047 0.00912331 0.000765059 -0.000391384 0.00276421 0.00552646 0.0035779 -0.00551665 -0.00182439 -0.00161276 0.00138136 0.00197568 -0.00195147 0.00156181 -0.00530396 -0.014076 -0.00712344 -0.00515054 -0.00278801 0.00274102 0.00769761 0.00250168 0.000159804 0.00145559 0.00246138 0.00232871 0.00406049 0.00257732 0.00463929 0.00876921 0.00799239 0.00434927 0.00454663 0.00299615 0.00417561 0.00105015 0.00692096 0.00657771 0.00669948 0.0029604 -0.00373842 -0.00609776 -0.0120285 -0.00213346 -0.00637467 -0.00328932 -0.000211448 -0.000353435 0.00264217 0.00436987 0.00741717 0.0109099 0.0056196 0.00398628 0.00501443 0.0080398 0.00639175 0.00924256 -0.000202456 -0.00227578 0.00500339 0.00674427 0.0015461 0.00273993 0.0106745 0.00834482 0.00957739 0.00405469 -0.00251555 -0.0101581 -0.00261064 -0.00873934 -0.00513619 -0.00331163 -0.00211462 -0.00377967 -0.00285109 0.00515329 0.000420082 0.00712854 0.00621027 0.00918151 0.0017519 0.00268041 0.00845217 0.00665096 0.00680639 0.00799225 -0.000546497 0.00328265 0.00441031 0.00763526 0.0058249 0.000836963 -0.00580531 -0.00713551 -0.00278422 0.00491837 0.000847783 -0.00327016 -0.000166985 0.00465328 0.00383998 0.00292408 0.00566231 0.00127434 0.00521727 -0.000234695 0.00512562 2.15805e-05 0.00361015 0.00773196 0.00452542 0.00578651 0.00516688 0.000498132 0.00140852 -0.00654134 0.00643407 0.00486006 -0.00368203 -0.00990568 -0.0108718 -0.00339208 0.00280604 0.0058667 0.00336554 -0.0036184 -0.00363987 -0.000833099 0.00561936 0.00753166 -0.00109084 0.0028811 -0.00119835 0.0050269 0.00386857 0.00174414 0.00793814 0.00525773 0.00742268 0.00147735 0.00813571 -0.000934221 -0.00660227 0.0013685 0.00680519 0.00213154 -2.21861e-05 -0.00692735 -0.00287212 -0.00219212 0.00595703 0.00929003 0.00157809 -0.00140777 -0.00362192 -0.0036771 -0.00294973 -0.0041103 -0.000786492 0.000276226 0.00225456 0.001102 0.00630548 0.00886556 0.00907216 0.00628866 0.000412371 0.00625817 0.00139833 0.000868621 -0.00137872 0.00780072 0.00440566 0.00277333 -0.00342689 -0.00326492 0.000410309 0.00415388 0.0057724 -0.00267794 -0.000315524 -0.0100529 -0.00553064 0.00333133 0.00359266 0.00168259 -0.000943671 -0.000380759 0.000337325 -0.0012188 0.00475738 8.40332e-05 0.00350515 0.00164948 0.00896907 0.00210254 0.00320246 0.00281629 0.00187752 0.00717242 0.00452413 -0.00491779 -0.000718983 -0.000158641 -0.00252372 -0.00313021 0.00612579 -0.00313766 -0.00649394 -0.0108687 0.000357662 -0.000906124 0.00362428 0.00102125 0.00800148 0.00484512 0.00402494 0.00296984 0.0087538 0.00135428 0.00618557 0.00360825 0.00680412 0.00971039 0.00114248 0.00404211 0.00469594 0.00789472 0.00272943 0.00335912 0.00783686 0.0042285 0.0041155 -0.00594207 0.00171755 -0.00235421 0.000324365 0.00148468 0.00274581 0.000681572 0.00930659 0.00159652 6.86509e-05 -0.00121358 0.00584997 0.00573413 0.00700985 0.00907119 0.00670103 0.00546392 0.00546392 0.0025778 0.00407446 0.00102876 0.00581668 0.00840386 0.00624636 0.00941874 0.00874553 0.00902718 0.00504197 0.00675867 0.00496967 0.00117911 0.000104565 0.00179643 0.00685728 -0.00121018 -0.00284528 0.000119069 -0.00221164 0.00379981 0.00292638 0.00806208 0.00566924 0.00546288 0.00979381 0.00783505 0.0042268 0.00628866 0.00298955 0.00978236 0.00342797 0.00147287 0.000390535 -0.000802261 -0.00047141 0.00247188 0.00318699 0.00250189 -0.000789793 -0.00256869 0.0035512 0.0050011 0.00754854 0.00692366 -0.00163854 -0.000143187 0.00218267 0.00621477 0.00135549 0.00412371 0.0071134 0.00494845 0.00742268 0.00247423 0.000206186 0.00701031 0 0.00443299 0.00298528 0.00843893 0.0038555 0.0019126 0.000403471 0.000403931 0.00818696 0.00699381 0.00422229 0.00316008 0.00206171 0.0060488 0.00392646 0.00804915 0.0073262 0.00203664 0.00116001 0.00351402 0.00456258 0.00474227 0.0101031 0.00597938 0.00402062 0.00690722 0.00608247 0.00113402 0.00453608 0.00628866 0.00319588 0.00989691 0.0057732 0.00123711 0.00309278 0.00979381 0.00329897 0.00342657 0.00518875 0.00134021 0.00618557 0.0101031 0.00494845 0.00350515 0.00113402 0.00402062 0.00690722 0.00402062 0.00659794 0.00824742 0.00762887 0.00618557 0.00814433 0.00247423 0.00731959 0.00185567 0.00453608 0.00309278 0.00834846 0.00885631 0.00413435 0.00110676 0.00365891 0.0101702 0.00786631 0.00606656 0.00405172 0.000383213 0.00403811 0.00875854 0.00708439 0.000274433 0.00346522 0.00206904 0.000180103 0.00137353 0.0015457 0.00690722 0.00536082 0.00319588 0.00484536 0.00268041 0.00948454 0.00804124 0.000296074 0.00154184 0.00494101 0.00472075 0.00939771 0.00233178 0.00146868 -0.00052144 0.00736727 0.000612775 -0.000399525 0.00101029 0.00428464 0.00297183 -0.00094225 0.00161135 0.00310434 0.000879552 0.000639792 0.00837828 0.00849274 0.000911067 0.0101956 0.0102062 0.0028866 0.00536082 0.00319588 0.00783574 0.0030548 0.00772071 0.000439455 0.00295994 0.00342554 0.00367221 0.00275452 -0.00445062 -0.00512276 -0.000443976 -0.00476861 -0.0156889 -0.0164646 -0.011993 -0.00281706 0.00257106 0.00389925 0.00710856 0.00231928 0.00649547 0.00186442 0.0104516 0.00345755 0.00925447 0 0.0085567 0.00402062 0.00299205 0.00360885 0.00279382 0.00941835 0.0049889 0.0130879 0.00338388 -0.00809091 -0.00676268 -0.010947 -0.0137402 -0.0209524 -0.040424 -0.0344376 -0.0278828 -0.0100319 0.00932263 0.00140271 0.000457783 0.000453598 0.00843979 0.0125579 0.00644355 0.0068799 0.00866999 0.0053921 0.00721649 0.00350515 0.000515791 0.00516107 0.00235501 0.0121091 0.0107108 0.00501794 0.00808055 -0.00640501 -0.0112321 -0.0190965 -0.0171114 -0.0182689 -0.034707 -0.0482908 -0.0387849 -0.0148229 -0.00204114 -0.00307578 -0.018992 -0.0150497 -0.00407538 0.00683066 0.00592139 0.00142159 0.00388934 0.000252352 0.00402062 0.00164643 0.000606135 -5.89851e-05 -0.000577932 0.00643027 0.000866507 0.00205209 -0.00132523 -0.0207651 -0.0344584 -0.00115642 0.0109699 0.000753281 -0.0139385 -0.00799706 -0.000401016 0.0045324 -0.0196264 -0.0244143 -0.0256581 0.0100335 0.01904 0.000846378 -0.000649652 -0.00418137 0.00158658 0.00898663 0.00876289 0.00638703 0.0040414 0.00671353 0.00556258 0.00515691 -0.00201629 -0.0126756 -0.0153694 -0.0328413 -0.0402166 0.0228946 0.00771612 0.00104888 0.00449983 -0.00164301 -0.000411428 -0.0201328 -0.0511952 -0.0132225 -0.0144245 -0.00120367 0.0174251 0.0152998 0.0132716 0.00317691 0.000657309 0.007892 0.00767543 0.00266745 0.00144102 0.00458374 0.00678303 0.00177851 -0.00513013 -0.0108334 -0.0126152 -0.0336114 -0.0381553 0.0184546 0.00446347 -0.0250226 -0.0449831 -0.0377814 -0.0275961 -0.0575177 -0.0472873 -0.0216972 -0.0407076 -0.0244878 0.0293174 0.0277219 0.0207262 0.0091069 0.00102414 0.00956004 0.000151662 0.00789935 6.0808e-05 0.00254183 -0.00567039 -0.00375666 -0.00417585 -0.0136487 -0.0124002 -0.0238023 -0.00707692 0.0310816 0.0441563 -0.00506868 -0.0375774 -0.0150243 -0.0217964 -0.0593301 -0.045344 -0.0370063 -0.0465698 -0.0168834 0.00916005 0.00919032 0.0158275 -0.00438305 0.0052192 0.000516155 0.00090028 0.0059133 -0.00440112 0.000638681 -0.00645234 -0.0123213 -0.0136621 -0.0251144 -0.0121192 -0.0140269 -0.0105037 0.0560104 0.0842161 0.0299501 0.0238217 0.00876172 -0.00805806 -0.0656138 -0.0744055 -0.036827 -0.0332622 -0.0126211 -0.00380616 0.00728841 0.0229371 0.00328391 -0.00178924 0.000480768 0.0101478 0.00419635 0.000103108 0.000351155 -0.0136159 -0.00670065 -0.00445881 -0.034025 -0.022933 -0.0177034 -0.00624539 0.0158226 0.0672734 0.00457872 0.0146086 0.0198968 0.0180886 -0.0493292 -0.033099 -0.0161961 -0.0148618 0.00268677 -7.36446e-05 0.0079984 0.0079874 -0.000671423 -0.000853274 0.0027242 0.0043299 0.000828707 0.00585869 0.00300276 -0.00566852 -0.0111957 -0.00576997 -0.0100292 -0.0200286 -0.00648103 0.0213774 0.0396269 0.0362185 0.0266017 0.0240226 0.0739251 0.0577793 -0.0142904 -0.0374813 -0.0257775 0.0012061 0.0125948 -0.00160689 -0.00416187 -0.00507917 -0.00603052 -0.00933852 0.00740205 0.0028866 0.00754839 0.00957466 0.000777797 1.62107e-05 -0.00516663 -0.00905029 -0.011135 0.00657812 0.0100234 0.0641811 0.0494019 0.058039 0.108362 0.0835649 0.107712 0.0662294 0.000811239 -0.0255072 -0.0188559 -0.005645 -0.0170306 -0.0127274 -0.0137104 -0.0171131 -0.0140343 -0.00662374 0.0056416 0.00659794 0.00804124 0.00078598 0.00656597 0.00182692 -0.00703047 -0.0235083 -0.006651 -0.0189491 -0.00285665 0.0436 0.0539412 0.0598942 0.040246 0.0529789 0.0874875 0.0359041 -0.0114065 -0.0262736 -0.00891275 -0.0275281 -0.0296778 -0.0257373 -0.023202 -0.00801754 0.00252984 0.00247626 0.000674036 0.00216495 0.00742268 0.00653678 0.00836667 0.00451834 -0.00525679 -0.021675 -0.0360873 -0.0548433 -0.0638268 -0.0173974 0.0447646 0.0310308 0.0130238 0.0437241 0.0730578 0.0146015 -0.00454899 -0.0249673 -0.027166 -0.0243527 -0.0251436 -0.0221438 -0.0138067 -0.0152958 0.000194632 0.00533719 0.00977628 0.00752577 0.000615901 5.22011e-05 0.00830709 0.00323999 -0.0106229 -0.0196771 -0.0366448 -0.0520234 -0.0762689 -0.0404147 0.00967971 0.0171356 0.0228514 0.0461556 0.0672288 -0.011492 -0.0179553 -0.0375473 -0.0285704 -0.0158146 -0.0225979 -0.0120786 -0.00794357 -0.0127004 -0.00668892 -0.00270745 0.000687729 0.00123711 0.00103078 0.00564422 0.00109131 -0.00767896 -0.0131192 -0.0244257 -0.0386042 -0.0286252 -0.035083 -0.0271212 -0.0150725 0.00789603 0.00173625 0.0138372 0.0297123 -0.0681312 -0.0536298 -0.0510963 -0.0429385 -0.0324304 -0.0196112 -0.0109589 -0.00847905 -0.0130372 -0.00608771 -0.00239786 0.000670096 0.0073189 0.00391753 0.00669119 0.00141925 -0.0057783 -0.00903956 -0.0217643 -0.0459239 -0.0458687 -0.0537394 -0.038403 -0.0105619 -0.0111181 -0.0104594 0.0295197 -0.0230534 -0.0752818 -0.057444 -0.0511869 -0.0402971 -0.0251285 -0.0243141 -0.00458758 -0.00733551 -0.00626974 0.000152699 0.00839436 0.00437558 0.00505155 0.00562196 -0.00151205 0.00507401 -0.00762613 -0.0139973 -0.0316531 -0.0553258 -0.0581218 -0.0544279 -0.0159544 -0.00565689 -0.0160286 -0.0424855 0.027179 -0.0588581 -0.0667201 -0.0474949 -0.0379024 -0.0232068 -0.0173804 -0.0141314 -0.0126256 -0.00625435 -0.00365058 0.00674764 0.00946249 0.00426087 0.00278351 0.00525781 0.00206208 -0.00149501 -0.00112546 -0.0124027 -0.0318349 -0.0585272 -0.0492219 -0.00931611 -0.00713855 -0.0180094 -0.0393304 -0.0589306 -0.00906654 -0.0487645 -0.0553525 -0.0396491 -0.0306993 -0.0234757 -0.00772757 -0.0147636 -0.00571988 0.00431978 0.00334491 0.00699986 0.00826027 0.0014433 0.00989691 0.00505155 0.00509454 0.00508253 -0.00846784 -0.00195247 -0.0265948 -0.0309592 0.00827009 0.0265154 0.00884619 -0.0279 -0.06456 -0.0541309 -0.0168746 -0.0374566 -0.0667843 -0.0397553 -0.0261933 -0.0132926 -0.0150674 -0.000458484 -0.0013419 0.0105549 0.00383479 0.0085712 0.000880522 0.00948454 0.00195876 0.00824742 0.00588965 -0.00118878 0.00108324 -0.00896401 0.00159624 -0.00468062 0.0224943 0.0150383 -0.000965052 -0.048047 -0.0539986 -0.045357 -0.0257511 -0.0476151 -0.0444414 -0.0303771 -0.0198095 0.0028839 0.00907957 0.00591551 0.0109978 0.0107207 0.00493935 0.00168589 0.00798327 0.00773196 0.00618557 0.00402062 0.0017194 0.00577643 -0.00302984 0.00356781 0.011776 0.00290647 0.0173194 -0.00143281 0.00322642 -0.0292054 -0.022986 -0.0341495 -0.0338563 -0.0467869 -0.0144654 -0.00960064 0.00406192 0.0077418 0.0147763 0.01635 0.015269 0.0144198 0.00569266 0.00056828 0.00932016 0.00268041 0.00721649 0.00649485 4.66595e-05 0.00240943 0.00496537 0.0185321 0.0204043 0.0125078 0.0373142 -0.00452007 0.00867561 -0.00750939 -0.00926099 -0.0110377 -0.00852065 -0.0220061 0.0083504 0.0070788 0.0111136 0.014791 0.0208826 0.0210079 0.0157327 0.0167873 0.0105631 0.00943804 0.00181579 0.0085567 0.000206186 0.000721649 0.000926259 0.00246326 0.00441723 0.010743 0.0105695 0.0138872 0.00990424 0.00884862 0.0108456 0.00280116 0.0220056 0.0294367 0.0157624 0.00108994 0.0429862 0.0181587 0.00650913 -0.00303304 0.00630027 0.0136922 0.017577 0.00964665 0.00935421 0.00493619 0.00819247 0.00391753 0 0.000309278 0.00752577 0.000207338 0.00686496 0.00924054 0.0077816 0.0121928 0.0149227 0.0117813 0.0191827 0.00326984 0.0138628 0.00587352 0.00608352 -0.00548625 0.0140093 0.0125168 0.00524943 0.00720857 -0.000199564 -0.000465726 0.000807372 0.00214821 0.00237113 0.00608247 0.00680412 0.00134021 0.00639175 0.000103093 0.00536082 0.00639175 0.0057732 0.00257473 0.00165455 0.00190826 0.00100457 0.00195215 0.000443004 0.00143545 0.00995375 0.00154077 0.0111872 0.00295738 0.00763468 0.00627826 0.00236882 0.00829594 0.000903422 0.00657285 0.00293743 0.00255455 0.00175258 0.00896907 0.00463918 0.00412371 0.0102062 0.00659794 0.000515464 0.00628866 0.00175258 0.000927835 0.00773196 0.00752577 0.00360825 0.00938144 0.00938144 0.00484536 0.00403011 0.00465995 0.000721649 0.00206186 0.00639175 0.00515464 0.000618557 0.00453608 0.00113402 0.00195876 0.00783505 0.00195876 0.00845361 0.0057732 0.01 0.00525773 0.00443299 0.00969072 0.00938144 0.0043299 0.00597938 0.0100077 0.00596323 0.00813012 0.000859003 0.00849573 9.43775e-05 0.00980589 0.00775956 0.00946872 0.00967231 0.00705963 0.00390829 5.3649e-05 0.00386518 0.0102663 0.000238972 0.00444929 0.00979667 0.00134076 0.00639175 0.00247423 0.00876289 0.01 0.00824742 0.00845361 0.00494845 0.00773195 0.00783505 0.00951233 0.00761661 0.00972595 0.00985866 0.00318544 0.00292117 0.00653023 0.0070202 0.00224993 0.0104406 0.00933966 0.00619979 0.00407027 0.00541558 0.00491435 0.0038793 0.00913562 0.00477034 0.00950603 0.00319463 0.00968989 0.000515464 0.00463918 0.00185567 0.0043299 0.00432846 0.0101024 0.00246984 0.004526 0.00824291 0.00568609 0.00387173 0.0112774 0.0111329 0.00946504 0.00303478 0.006623 0.00810772 0.00270045 0.00159409 0.00651267 0.00174252 0.0084448 0.000198695 0.00703016 0.00315072 0.00989493 0.00605436 0.00308653 0.00896823 0.0042268 0.00783505 0.00463918 0.00886106 0.00968905 0.0090247 0.00875663 0.00521759 0.00666425 0.00271057 0.00761642 0.00796627 0.000861445 0.00584432 0.00469737 0.00707215 0.000312707 0.00362241 0.00263194 0.00371697 0.00653968 0.00577565 0.0076363 0.0066433 0.00288225 0.00574223 0.00646103 0.00368493 0.00722998 0.00474227 0.00783505 0.00113334 0.00222702 0.002417 0.00513698 0.00124972 0.00549646 0.00228953 0.000509022 0.00601093 0.00225607 0.00508959 -0.000227012 -0.00624838 -0.00425213 -0.00216854 -0.00690384 0.00186068 -0.00369906 -0.00407431 0.00120791 0.00458899 0.00258277 0.00899274 0.000906952 0.0097886 0.00599929 0.00783505 0.00855659 0.00303298 0.00790841 0.00644191 0.00853408 0.00784766 0.000297997 0.0018446 0.00329665 -0.00112244 -0.00379789 0.00133706 -0.00599422 -0.00704139 -0.00465819 -0.00380699 -0.00369406 -0.00153227 -0.000805214 -0.00878466 -0.00335246 -0.000912812 -0.0040696 0.0027975 0.00317356 0.00272082 0.00516263 0.00515464 0.00236759 0.00640306 0.00832815 0.0062842 0.00238289 0.00373995 -0.000594939 0.00544166 -0.0049014 -0.0048427 -0.00320314 -0.00133797 -0.00407139 -0.00457391 -0.00938919 -0.00266549 -0.000283995 -0.0053493 3.78992e-05 -0.0012447 -0.00111096 -0.00696111 0.000664879 0.00360143 0.00659752 0.00510744 0.00216576 0.00699378 0.00854325 0.00242468 0.00176092 0.00702494 0.00832812 0.00498165 -4.74017e-05 0.00456641 -0.00296335 0.000532971 0.000666016 -0.000540876 0.00342006 -0.00405459 -0.0058634 -0.00428598 0.00155158 0.0024361 -0.000495188 -0.006744 0.00210376 -0.00723118 -0.00208241 0.00351606 0.00570455 0.00145966 0.00335159 0.00485175 0.00744273 0.000402545 0.00165603 0.00270416 0.0037015 0.00766001 0.00480049 0.00226818 -0.000706204 0.00368235 7.92935e-05 0.00504535 0.00127102 -0.00602617 -0.0024249 -0.00748871 -0.00186505 -0.00133116 0.00398521 -0.000458151 -0.00607834 0.00222608 -0.000564115 0.00341428 -0.000130732 0.00754118 0.00218663 0.00825485 0.00487886 0.00564731 0.00904698 0.00380266 0.00241805 0.00472995 0.00505675 -0.000313158 0.00593469 0.000964768 -0.00187127 0.00207795 0.00158524 -0.00654008 0.000195554 -0.00204301 0.00230282 0.00436979 -0.000137106 -0.00152734 -0.000598429 0.00679265 0.00559804 -0.000440718 -0.000515441 0.00621662 0.00687999 0.00154719 0.00423034 0.00952424 0.00602861 0.0102176 0.00967297 0.00685276 0.00217638 -0.00311868 0.00534204 0.000902975 -0.00396371 0.00118774 -0.00306954 0.000705868 -0.00316233 0.00307042 -0.000845015 0.00344803 0.00502212 0.00360444 0.00416736 0.00626561 0.00708948 0.00133778 0.00656821 0.00488557 0.00811608 0.00752577 0.00168437 0.00514428 0.0046489 0.00147595 0.00744127 0.0053345 0.000234382 -5.29524e-05 -0.00197014 4.64604e-05 0.00286057 0.000819543 -0.000370566 0.00285752 -0.00558122 0.00143075 3.5817e-05 0.00298819 -0.00112337 -0.000456791 0.00259147 0.00525257 0.00483783 0.00182398 0.0043555 0.00345773 0.00857925 0.00639175 0.00902209 0.0066005 0.00318083 0.00456856 0.00269394 0.002876 -0.000809077 -0.00139278 -0.00384783 -0.00534899 -0.006433 -0.003004 -0.00507803 -0.00573081 -0.00350796 0.00593512 0.00392524 0.000179935 0.00334023 0.00459804 0.00106797 0.00535408 0.000598691 0.00878553 0.00456358 0.00682146 0.0056922 0.0085567 0.00556701 0.00952405 0.0096087 0.000868858 -0.000139054 -0.00292123 0.00263242 -0.00428567 0.000664986 -0.00532238 -0.00879135 -0.00766042 -0.00461241 -0.00584398 -0.00639614 0.0018141 -0.000318224 0.00174923 0.00507991 0.00390587 0.00500228 0.00710063 0.00604715 0.0068685 0.00540484 0.00280582 0.00711502 0.00958763 0.00474227 0.00815917 0.00350745 -0.00255822 0.00111205 -0.00393819 0.00219709 -0.00441689 -0.00617211 0.0004707 -0.000272471 -0.00232862 -0.00595842 -0.00422928 -0.00053309 -0.00231837 0.00460375 0.0046977 0.00260609 0.00237949 0.00370189 0.00311081 0.00303303 -0.00100942 0.00348175 0.0069928 0.00929241 0.0042268 0.00492369 0.00619475 0.00397196 0.00912336 0.00475567 -0.00535867 -0.00320993 -0.00167598 0.00335108 -0.00305334 -0.00522412 -0.0032319 -0.00264177 -0.00168292 0.00271778 0.00150597 0.000214621 -0.000581182 -0.0023079 -0.00419255 0.00140425 0.00145795 0.00617172 0.000773104 0.000692765 0.00764302 0.00291356 0.00979381 0.00453474 0.00705796 0.00330811 0.00797295 -0.00063311 -0.00420952 -0.00497337 -0.000519085 0.00363768 0.00387111 -0.00381406 -0.000121134 -0.00723595 -0.00193866 0.00583872 -0.00120756 0.00455024 0.00350267 0.00235769 0.00514167 -0.00285409 0.00351433 0.00234807 0.00505062 0.000798857 0.00163088 0.00370259 0.0064973 0.00948454 0.0065179 0.000180233 0.00776425 -0.000348885 0.00474031 0.0016968 -0.00498108 -0.0040114 -0.00262968 -0.000766633 0.000201508 -0.00137652 1.75614e-05 0.00588028 0.00655004 0.0046398 0.00593972 -0.000853128 0.000162034 0.00212644 0.00356182 0.00290208 0.00589055 0.00335337 0.00128257 0.00969847 0.00907216 0.00835316 0.00311996 -0.000659839 0.00657451 0.000869505 -0.00402647 -0.00468764 -0.00318455 -0.00532864 0.00304479 0.000835826 0.0037503 8.66468e-05 0.00328602 0.00176173 0.000378798 -0.00363685 -0.00191834 0.00193586 0.0022514 -0.00326077 -0.000622428 0.00178218 0.0043507 0.00216432 0.00747525 0.00350598 0.00525773 0.00863278 0.00276245 0.00868311 0.000391628 -0.0021261 0.00297843 0.00196573 -0.00226395 -0.00275723 -0.0022843 0.00172281 -0.00124604 -0.00344103 0.00334835 0.000452425 0.00256062 -0.00146425 -0.000874757 -0.000194512 -0.00274729 0.00301179 -0.00501517 0.00244347 0.00802709 0.00616445 0.00607891 0.00412371 0.00329897 0.00319588 0.00263085 0.00811124 0.00535753 -0.00227559 -0.00263139 0.00194713 -0.00590895 -0.00622748 -0.00470532 -0.00389366 -0.00539867 -0.000555777 -0.0074797 -0.00713133 -0.00162093 0.00299117 -0.00366734 0.00109533 -0.00625209 -0.00477664 -0.00438562 0.00683256 0.00507347 0.00761543 0.00480284 0.0043299 0.00907216 0.00597938 0.00354929 0.00168881 0.00848204 -0.00122401 0.00225613 0.00093897 -0.00402352 -0.00339139 -0.00290995 0.00139161 -0.00360246 -0.00354017 -0.00919676 -0.00256883 0.00294739 0.00746304 0.00146365 -0.000204562 0.00113608 0.00496841 0.00215753 -1.9221e-06 -8.65383e-05 0.00324485 0.00119563 0.00649485 0.00103093 0.00113402 0.00590593 0.00489948 0.00694012 0.00375814 0.000494456 -0.000893027 0.00333586 -0.00119617 0.00145793 -0.0035547 -0.00158384 -0.00354161 -0.00639869 0.00262192 0.00721359 0.00960141 -0.000519062 0.0016811 0.00156887 0.000993151 0.00236533 0.00509894 0.009136 0.00654217 0.00802227 0.00463918 0.0101031 0.00443299 0.000777309 0.00605118 0.00572051 0.00158607 0.000481008 0.00732525 0.00546995 0.00641998 0.00749112 0.00516028 -0.00298925 -0.00640137 -0.00493794 0.00482144 0.00823807 0.011439 0.00690625 0.00759701 0.0073009 0.00322084 0.00456934 0.000899387 0.00374095 0.00565564 0.00257825 0.00247423 0.00206186 0.000309278 0.00710838 0.00183291 0.00479681 0.00264282 0.00736052 0.00470355 -0.000343522 0.00430346 0.00893789 0.00154395 0.00627979 0.00520707 0.00878837 0.00853277 0.0108922 0.0103855 0.0110904 0.00412487 0.00414192 0.00072438 0.00680383 0.00476906 0.000103992 0.00783588 0.00185666 0.00412371 0.00329897 0.00443299 0.00164948 0.00536133 0.00481847 0.00349561 0.00175308 0.00449082 0.00241442 0.00668688 0.00630527 0.00271057 0.0045651 0.00413857 0.00557049 0.00393076 0.00831266 0.0114884 0.00431923 0.00593788 0.00370346 0.00834967 0.0100278 0.00531658 0.00319588 0.00608247 0.000309278 0.00886598 0.00360825 0.00216495 0.00804124 0.00195876 0.00670103 0.00969818 0.00238961 0.00664166 0.00872909 0.00477028 0.00635328 0.000439267 0.0102636 0.00169266 0.00302636 0.00442983 0.00492345 0.00663781 0.00197579 0.0102778 0.00426365 0.00242589 0.00893487 0.00183484 0.00484536 0.00783505 0.0071134 0.00309278 0.00896907 0.00742268 0.00164948 0.00762887 0.00463918 0.00969072 0.00969072 0.00639175 0.0042268 0.0071134 0.00268041 0.00257732 0.00153916 0.00905634 0.00309278 0.00659794 0.00536082 0.000721649 0.00597938 0.00494845 0.00701031 0.00731959 0.0101031 0.00618557 0.00969072 0.00845361 0.00309278 0.00958763 0.00103093 0.0102062 0.00247423 0.00505155 0.00237113 0.00946634 0.00172255 0.00120107 0.00260237 0.00681105 0.00852804 0.00823101 0.00392496 0.000953836 0.00529197 -0.000846982 0.00480564 0.00887897 0.00717909 0.00530417 0.00959753 0.00825973 8.87714e-05 0.00154632 0.00536082 0.0102062 0.00278351 0.0101031 0.00340206 0.00587629 0.00938144 0.00969832 0.000791814 0.00684127 0.0039074 0.00196087 -0.000529478 0.00145534 0.00445361 0.00465159 0.0049467 0.00324844 0.00081296 0.000822364 0.00953363 0.00955484 0.00272405 0.00985433 0.00274503 0.00634111 0.00536133 0.00761591 0.0042285 0.000516502 0.00917526 0.00463918 0.0057732 0.0071134 0.00979388 0.00899507 0.00249117 0.00375802 0.00828155 0.003342 -0.0014046 0.00505827 0.00111137 0.00304673 -0.00256265 0.00112306 -0.000656372 0.00526456 0.000815992 -0.00154718 -0.00396708 -0.00240126 0.00709936 0.00150047 0.00649189 0.00809108 0.0084551 0.00611145 0.00484177 0.00752577 0.00659794 0.00917526 0.00721671 0.00215342 0.00621154 0.00791816 0.00803139 0.00609808 -0.000281656 0.00173016 0.00316986 0.007066 0.00971987 -0.00144624 -0.00901253 -0.0164234 -0.0189988 -0.0196024 -0.014567 -0.00422181 -0.00277689 -0.00482047 0.00272384 0.00362858 0.00424198 0.00879157 0.00795626 0.0064139 0.00484536 0.00793814 0.0089691 0.000887069 0.0060852 0.0109351 0.0147031 0.00498784 0.0121805 0.0141802 0.0138928 0.014915 0.00380175 -0.00775982 -0.0103095 -0.0121996 -0.0197242 -0.0213344 -0.00556904 -0.000311167 -0.00145961 -0.00459469 -0.00278961 0.00806401 0.00769901 0.00385374 0.00409538 0.00477496 0.0042268 0.00824724 0.00148161 0.00446849 0.0102372 0.0203548 0.0148616 0.0159441 0.0115282 0.0195193 0.00264522 0.0185433 0.0112501 -0.0088253 -0.0205333 -0.0146435 -0.0162101 0.00254635 0.006299 0.0163166 0.00914121 0.00683457 0.00769844 0.0153598 0.000902132 0.0017472 0.00657478 0.00568257 0.000618557 0.00780014 0.00167319 0.0124288 0.00695893 0.00714277 0.0131332 0.014619 0.00366949 0.0040495 0.00969038 -0.00069713 0.00201031 -0.00675174 -0.0114698 -0.0225697 -0.0154208 0.00355028 0.00571733 0.00562338 -0.00187415 0.0038159 0.0161162 0.0103242 0.0045639 0.00797143 0.00292695 0.00597318 0.00859713 0.00611069 0.00777562 0.00316802 -0.000680133 0.00675381 0.00796841 -0.00307219 0.00416053 0.0204779 0.0152343 0.00855632 -0.00817316 -0.0134606 -0.0223246 -0.0205057 -0.028999 -0.00881977 0.0119398 -0.00828833 -0.00596753 0.00985524 0.00496304 0.0135846 0.014764 0.0107169 0.00301989 -3.14037e-05 0.00148022 0.00149636 -0.00228912 -0.00620323 0.0106304 0.0156131 0.0105665 -0.0153583 0.0125886 0.0167365 0.0139098 0.00667081 0.00754725 -0.0086026 -0.0104496 -0.0149735 -0.0207278 0.0132426 0.0132307 -0.00751137 -0.00538281 0.00450459 0.00283339 0.00930382 0.00939673 0.00075744 0.00958225 0.00596111 0.00882263 0.00234441 0.000735811 0.00588334 0.000519779 0.00780565 0.00217166 -0.00855208 0.00175215 0.00815107 0.000853412 0.0191767 0.00116496 -0.00937019 -0.0343586 -0.0300315 -0.0214096 0.0146375 0.0259807 0.0198673 0.0023357 0.00243211 -0.00519865 -0.00374694 0.00411503 0.00324614 -0.0011759 0.00595419 0.00754327 0.0103011 0.00837759 0.000600015 -0.00261645 0.00467667 -0.00660014 -0.00854539 0.000708667 0.00607024 0.0101312 0.00833619 0.000177068 -0.0259632 -0.0268989 -0.0431585 -0.0145296 0.0130248 0.0199406 0.0200557 0.00834508 -0.000615715 -0.0100386 -0.00888869 -0.00593968 0.000815206 0.00281314 0.00955259 0.00958763 0.00749412 0.00180829 0.00555209 -0.0103157 -0.00651267 -0.0127485 -0.0171578 0.00465711 0.0102406 0.0212532 0.00760483 0.00433823 -0.0172948 -0.0259072 -0.0200721 -0.00725511 0.0102493 0.0177566 0.00927913 0.00452771 -0.0193865 -0.00216747 -0.013134 -0.000861366 -0.000918128 0.00188679 0.00195684 0.00618557 0.00485526 0.00741205 0.00526857 -0.00149638 0.00234568 -0.0109519 -0.00416581 -6.53587e-05 -0.000990677 0.00280439 0.00456117 -0.0110078 -0.0207971 -0.026085 -0.0210506 -0.0025215 0.000193666 0.00797435 -0.00215228 -0.00189468 0.00239065 0.00169219 -0.000653994 0.00282355 6.96104e-05 0.0065104 0.000694538 0.00587629 0.00989691 0.00863724 0.00347411 0.00158047 0.00685322 -0.00159584 -0.00309155 -0.00443917 0.00608212 0.00768762 0.00109774 0.00143172 -0.0174755 -0.00709554 -0.0045985 0.000397811 0.00114247 0.0177241 0.0144142 0.00450244 0.00809676 0.00949062 0.00524923 -0.00352698 0.00544685 0.00898638 0.00288339 0.0028866 0.0056701 0.00475352 0.0118184 0.00137867 0.00961975 -0.00427477 0.001878 -0.00384694 0.00483524 0.0205644 0.00492717 -0.000515595 -0.00745532 -0.0113949 -0.00598575 0.000311438 0.0236415 0.0293249 0.0190158 -0.000360039 -0.00254842 0.00719048 0.00225295 -0.00299381 0.00293157 0.00975288 0.0036438 0.00350515 0.0086591 0.00720805 0.00840873 0.00864616 0.00582979 0.00796807 0.00105319 0.00218461 0.0064263 0.0164116 0.000274461 -0.004563 -0.0198568 -0.00987254 0.0148313 0.0210789 0.0314688 0.0243428 0.00767168 -0.00286683 -0.000627139 0.00414719 0.00198387 -0.00317048 0.000139144 0.00706858 0.00150634 0.00958763 0.00701027 0.00634041 0.00827915 -0.00291973 0.000924719 0.00132621 0.00197002 -0.00402928 0.000495823 -0.00269518 -0.00634509 -0.0281224 -0.0252576 -0.001965 0.0250016 0.0321553 0.0234458 0.0202656 0.00359141 -0.00485548 -0.00313974 -0.000760974 0.00781833 0.00300247 0.0030218 0.00324315 7.73934e-05 0.00977921 0.0057732 0.00274412 0.00963409 -0.00367804 -0.00656337 -0.00467501 0.00641196 0.00461674 -0.00641123 -0.0184499 -0.0171467 -0.0229497 -0.0163483 0.0102529 0.0268684 0.0346602 0.0172802 0.0096296 0.00338023 -0.00158426 -0.00362669 0.00163502 -0.00228802 0.00808166 0.00767335 0.000178358 0.00816946 0.00628866 0.00893194 0.00921843 0.00521104 -0.00130746 -0.00323016 0.00382136 -0.00452465 -0.00900805 -0.00507925 -0.0134246 -0.0170191 -0.0365422 -0.0141715 0.0255691 0.0327942 0.016136 -0.0137175 -0.0164278 -0.0143331 -0.0210967 -0.016866 -0.0139061 0.00163473 0.000352792 0.00958037 0.00928944 0.00969595 0.00278351 0.0092219 0.00312874 0.0037785 -0.00509135 -0.00746055 -0.00355906 -0.00487169 -0.0240196 -0.0228526 -0.0254362 -0.0309846 -0.0136329 0.0139999 0.0312817 0.0139708 -0.0133199 -0.031076 -0.0267055 -0.00990218 -0.00704178 -0.0199923 -0.00767378 0.00666335 5.10037e-05 0.00304968 0.00695151 0.00731959 0.0042268 0.00556701 0.00229818 0.00025796 0.00092731 -0.00143299 -0.00941281 -0.0210486 -0.026096 -0.0296656 -0.0270341 -0.0215798 0.00656042 0.0261915 0.017491 0.0110015 -0.01254 -0.026622 -0.0174805 -0.00978535 -0.00463981 0.00298913 0.000169952 -6.07037e-05 0.00968059 -0.000612989 0.00535156 0.00556701 0.0056701 0.00237113 0.00266633 0.00087489 -0.00339163 0.00326191 0.000401353 -0.00532498 -0.0105876 -0.0126217 -0.02466 -0.0218802 0.00924619 0.0106888 0.0135984 0.0178499 -0.00299632 -0.0216351 -0.0225972 -0.00337434 -0.00345131 0.000966795 0.00249211 0.00824859 0.00173951 0.0091981 0.00595852 0.000721649 0.000618557 0.00206186 0.00112111 0.00271431 0.00595993 0.00352627 -0.000977572 0.00298589 -0.000763223 -0.0116241 -0.0197612 -0.0184557 0.0101115 0.000984031 0.0203116 0.0119696 -0.00254101 -0.0289906 -0.02057 -0.00796211 -0.00732716 0.00402974 0.00285311 -0.000550487 0.00206293 0.00905561 0.00899131 0.00319588 0.00948454 0.00546392 0.0111991 0.0061489 0.00495545 0.00259931 -0.00291612 -0.00607823 -0.00996907 -0.00288654 -0.00324257 0.0116326 0.0203066 0.0203723 0.0183348 0.0203549 0.00879906 0.00113678 -0.00860428 -0.0128548 -0.00386554 0.00535667 0.00407547 0.00455652 0.00282609 0.0099966 0.00567008 0.00391753 0.00917526 0.00474227 0.00216463 0.00354102 0.00523735 -0.00138244 0.00273787 -0.000825098 0.00285231 0.00567056 -0.0164246 -0.00156226 -0.0025499 0.0166467 0.0187173 0.0234147 0.0241206 0.00417447 -0.00593973 -0.00641572 -0.00485532 0.0067093 0.00286199 0.00254683 0.00285782 0.0069072 0.00989688 0.00618557 0.00639175 0.00525773 0.00515464 0.00536037 0.00478956 0.00548655 0.00630244 -0.000786612 0.00364233 0.00667049 -0.00759111 -0.0103038 -0.0101126 -0.00318823 -0.00551809 0.00998274 0.0109707 0.0077401 0.00724879 -0.000914824 0.00622622 0.00911706 0.00553741 0.00815187 0.00835052 0.00989691 0.00134021 0.0071134 0.00649485 0.00628866 0.00298969 0.00793814 0.00670103 0.0032023 0.00835045 0.00676466 0.00578179 0.00768019 0.00364164 0.00858672 0.007165 0.00564543 0.00913757 0.00592455 0.00365188 0.00331292 0.00271097 0.0065211 7.85023e-05 0.0102658 0.00627282 0.00494634 0.00360825 0.000927835 0.00278351 0.00175258 0.00587629 0.00958763 0.00391753 0.00742268 0.000618557 0.00195876 0.000103093 0.00237113 0.00515464 0.0085567 0.00927835 0.000412371 0.00515724 0.000933522 0.00484536 0.00958763 0.00113402 0.00474227 0.000824742 0.00989691 0.00237113 0.00195876 0.00649485 0.00824742 0.00134021 0.00721649 0.00278351 0.00494845 0.00319588 0.000721649 0.00175258 0.00907216 0 0.000721793 0.00131241 0.00612285 0.00285376 0.00135098 0.00853134 0.00809552 0.0100852 0.002599 0.003461 0.010255 0.0088116 0.00834327 0.00462964 0.00498841 0.00807164 0.00542377 0.00456048 0.000207552 0.00731959 0.00608247 0.00845361 0.00371134 0.00298969 0.00628866 0.00381443 0.00618333 0.00700954 0.000619077 0.000361533 0.00773709 0.00210797 0.00730411 0.00916744 0.00544937 0.00394209 0.00670953 0.00734305 0.00828112 0.0043543 0.0061818 0.00824288 0.00227168 0.00338096 0.00759154 0.0074653 0.00663628 0.00256249 0.00689867 0.00680412 0.00505155 0.00814433 0 0.00381355 0.00617967 0.00640099 0.00253257 0.00793238 0.00349152 0.0102673 0.00494545 0.0063736 0.0110131 0.00916269 0.0024582 0.00870534 0.00581693 0.00263224 -0.000955133 0.00455251 0.0088753 0.0075324 0.00909517 0.00089829 0.00577912 0.00562156 0.00258426 0.00175722 0.00319588 0.00463918 0.00360825 0.00329593 0.00247485 0.00374901 0.00214114 0.00436099 0.0115908 0.00629955 0.00125108 0.00925633 0.00239381 0.00264777 0.00188715 0.00666408 0.00348293 -0.00287908 -0.000352929 0.00187453 0.00390099 0.00319826 0.0104177 0.00405047 0.00655164 0.00854437 0.0094178 0.00113749 0.00877283 0.00164948 0.00824742 0.00164906 0.00617819 0.00126149 -0.000219906 0.00381574 0.00666922 0.00386868 0.00955741 0.00239908 0.00501695 -0.00143229 0.00135981 -0.0032408 -0.00843445 -0.00750835 0.00213027 0.0039561 -0.00267426 -0.00153666 -0.00244989 0.0027839 0.0012943 0.000580483 0.00750687 0.00702421 0.00321056 0.00649485 0.00319563 0.0017562 0.00273413 0.000578946 0.00902443 0.00644599 0.00510673 0.0122858 0.00752235 0.00539729 -0.00530133 -0.00183362 -0.00203983 -0.00961007 -0.00326166 -0.0112371 -0.00766358 -0.00862339 -0.00373664 -0.0020587 0.00274294 -0.00209563 0.00994252 0.00790595 0.00440366 0.000357964 0.00227601 0.0014433 0.00750453 0.00567572 0.00263692 -0.000325306 0.00317713 0.00282595 0.00377063 0.00203384 -0.00289319 0.0026997 -0.00462398 -0.00513244 -0.00907271 -0.00804044 -0.0062333 -0.00756829 -0.00821843 -0.00542528 -0.000377828 0.000817864 -0.0017744 0.0080071 0.00338485 0.00486492 0.00590733 0.00353027 0.00154963 0.0101978 0.00391461 0.00402078 0.00686196 0.00570462 0.00584673 0.00692582 0.0081093 0.00680031 -0.00251546 -0.00407587 -0.00708756 -0.00973693 -0.00458384 -0.00789493 -0.0126313 -0.0119204 -0.00439659 -0.00440273 -0.00253785 8.14559e-05 0.00402833 0.0014687 -0.000145313 0.00506667 0.00914177 0.000630974 0.00995649 0.0047438 0.00410722 0.00118386 0.0100033 0.00180604 0.000278104 0.00696221 0.0103302 0.00985171 -0.0021647 -0.00495168 -0.00273371 -0.0095041 -0.0130736 -0.010142 -0.00378123 -0.0027664 -0.00181312 -0.00891146 0.00286569 -0.000749217 0.000123608 -0.00130951 0.00717499 0.00096427 0.00481507 0.00541528 0.0066076 0.00917704 0.00103209 0.00636988 0.00361301 0.00351694 0.00231039 0.00239313 0.00421342 0.00805728 0.00245146 -0.00239596 0.000298814 -0.00780225 -0.000130414 -0.00128251 -0.00644947 0.00175738 -0.00311267 -0.00131193 0.000945659 0.00157653 0.00648643 0.00527295 0.00819655 0.00250207 0.00835914 0.003069 0.00854751 0.00886617 0.00352794 0.0102621 0.00748772 0.00289256 0.00103158 0.0074041 0.00606863 0.00572293 0.00579285 0.00650029 0.00329327 0.00494642 0.000454228 -0.00543726 0.000422038 0.000467459 -0.00512974 0.00331888 -0.0018511 0.00465586 0.000862404 0.00247968 0.00733862 0.0113018 0.00516374 -2.21498e-06 0.00720578 0.00927835 0.00319803 0.000615256 0.0024908 0.000463588 -0.00038985 0.00592011 0.00806952 0.00386894 0.00204912 -0.00114654 -0.00174677 -0.00194772 0.000147339 -0.00142619 0.00303659 -0.0041002 0.000404001 -0.00179464 -0.00411369 0.00175286 0.0051929 0.00588333 0.000374322 0.00978994 0.0029344 0.00594775 0.00296788 0.00391753 0.0012298 0.00529476 0.00263797 0.00852524 0.0015989 0.00702206 0.00192933 0.00142981 0.0049034 -0.000616754 0.00255099 0.00174243 0.00148876 -0.00310255 2.86738e-05 -0.00118057 0.00440161 0.00277608 0.00462011 0.000815506 0.008856 0.00883471 0.00269827 0.00225029 0.0098009 0.00301848 0.0041523 0.00319588 0.0043299 0.00230646 0.00698682 -2.84831e-05 0.00807208 0.00597789 -0.00112378 0.00565451 0.00119811 -0.00514801 -0.00341372 -0.00613228 -0.00112495 -0.000366376 -0.00101462 0.00451284 0.000102279 -0.00290177 -0.0039207 0.00187502 0.00734852 0.0103099 0.00159674 0.000900696 0.00431958 0.00661449 0.00411583 0.00412371 0.00505155 0.0034587 0.00754705 0.00843816 0.00500195 0.00861809 0.00325252 -0.000989278 -0.0021876 -0.00331428 -0.000998011 -0.00591248 -0.00709903 -0.00304922 -0.000908749 -0.00404459 0.0075777 -0.00217334 0.000780892 -0.00488762 0.00161976 0.00426551 0.000952057 0.00524955 7.11638e-05 0.00634176 0.00100339 0.00494845 0.00319415 0.000228873 0.00418173 0.00121823 0.00218683 -0.000697682 0.00436515 0.0053543 -0.000963683 -0.00469137 0.000412699 -0.000604348 -0.000634509 0.000729226 -0.00649776 0.00430351 0.00443823 0.00173618 -0.00197689 0.0016954 -0.00217369 0.0061074 -0.00131136 0.00068009 0.00505815 0.00779905 0.000361723 0.0056701 0.00484527 0.00684213 0.00500714 -0.000319299 0.00357798 0.00632742 0.000567037 -9.90987e-05 0.000477618 -0.00206488 -0.00676946 -0.00634974 -0.00277948 -0.00107505 -0.00403008 0.00496531 -0.00435375 -0.000127221 -0.00303783 -0.00561461 -0.0020318 0.00592116 0.00906113 -0.000326034 0.00865155 0.00445715 0.00254199 0.0086588 0.00319588 0.00302228 0.0031469 0.004416 0.00442814 0.00510801 0.000888832 -0.00329688 0.000178074 -0.00301524 0.00212613 -0.00525474 -0.00213659 -0.00582509 0.000439312 0.0017639 0.00345585 0.00550475 -0.000115428 0.000380327 -0.000745302 -0.0032596 0.00556089 0.00173097 0.00505048 0.000754401 0.00131582 0.00298969 0.00597534 0.00923135 0.000388062 0.00132774 0.0017205 -0.00478845 -0.00337761 0.00174453 -8.79001e-05 -0.00434905 -0.00399041 0.0007478 -0.00534261 -0.00269243 -0.00261925 0.000700183 0.000916542 -0.00520188 0.00434691 -0.000646679 0.0032217 0.00366246 0.00897238 0.00214121 0.00274984 0.000622632 0.00690386 0.00742268 0.00163996 0.00316017 -0.000614362 0.00489094 0.00266678 -0.000148403 -0.0055279 -0.00367529 -0.000979155 0.00118145 -0.00307085 -0.00209608 -0.00236419 -0.00701565 0.00266238 -0.00174297 -0.00287379 0.00254456 0.000825779 0.00613712 0.00686102 0.00262635 0.00729718 0.00605862 0.0071676 0.00758656 0.0014433 0.01 0.00835052 0.00331708 0.00651501 0.00324415 -0.0013931 -0.00376434 -0.000480897 0.000968228 0.000567008 0.0026651 -0.00146246 -0.0065903 -0.00543704 -0.00731919 0.000398477 -0.00315869 -0.000852499 0.00347532 0.00538339 0.00610409 0.00154383 0.00235656 0.00656968 0.00652419 0.00461162 0.00532258 0.00268041 0.00185567 0.00804124 0.00947027 0.00134775 0.000418215 0.000270758 0.000290828 0.0010915 -0.00243635 -0.00121633 -0.00301631 0.0023332 -0.00665347 0.000701412 -0.00444786 0.00278699 0.00386548 -0.0014202 -0.00442643 -0.000657847 0.00651207 0.00610623 0.000737053 0.00478147 0.00887478 0.00162363 0.00792582 0.00628866 0.00680412 0.00298969 0.00400237 0.00350766 0.00591919 0.00257107 -0.0011849 0.00446492 -0.00228934 0.000128602 -0.00292154 -0.00616234 -0.00554563 -0.00433052 0.00481733 0.00359817 0.00330475 0.00333178 -0.00113204 -0.000337702 0.00834063 0.00381361 0.0058876 0.00194757 0.00899749 0.00778291 0.00855057 0.00360825 0.00494845 0.00123711 0.00496643 0.00670899 0.00426344 0.00903251 -3.34531e-05 -0.00116649 0.00521403 -0.00193636 -0.000361157 0.00103721 -0.00194593 -0.00325567 0.00607638 -3.31542e-05 0.00290758 0.00702805 0.00529071 0.00624197 0.00766672 0.00399965 0.000610149 0.00784485 0.0057391 0.000812927 0.00587548 0.0102062 0.00391753 0.00412371 0.00886539 0.00887191 0.00546472 0.00348502 0.00531498 0.00441687 0.00687142 -0.000186208 0.00900014 0.00396185 0.0059434 0.00136449 0.00261707 0.00815413 0.00351384 0.00161712 0.00301228 -0.00245052 0.00175425 0.00427494 0.0043492 0.00278237 0.00684893 0.00896835 -8.60895e-07 0.00762887 0.00989691 0.00587629 0.00257732 0.00350561 0.00515774 0.00117874 0.00725463 0.00550531 0.010027 0.00778815 0.00525837 0.00735374 0.0085914 0.000197276 0.00698925 0.000339835 0.00217699 0.00968579 0.00713367 -0.00131364 -0.000230542 0.0100675 0.00631412 0.0046989 0.00340206 0.00958763 0.0071134 0.00525773 0.00824742 0.00216495 0.00268041 0.00783505 0.00319588 0.00526107 0.0063972 0.00340287 0.00153965 0.00361734 0.00413887 0.00141261 0.00115474 0.00955719 0.00902137 0.00508705 0.0100405 0.0059722 0.00567193 0.00759186 0.00555354 0.00308339 0.0037042 0.0019605 0.00814433 0.00948454 0.00659794 0.00134021 0.00381443 0.00340206 0.00659794 0.0071134 0.000721649 0.0043299 0.00474227 0.00391753 0.00474227 0.00618557 0.00237113 0.00628866 0.00484813 0.0065009 0.00783505 0.00618557 0.0057732 0.00164948 0.00639175 0.000618557 0.00268041 0.00175258 0.00845361 0.00360825 0.0101031 0.00690722 0.00546392 0.00793814 0.00113402 0.00185567 0.0043299 0.00494845 0.000309278 0.00608533 0.00187123 0.00121651 0.00566479 0.00156876 3.95614e-05 0.0102963 0.00788919 0.0023916 0.00633343 0.00247849 0.00399707 0.00922922 0.00365965 0.00982331 0.00589035 0.0100113 0.00547083 0.00855744 0.00680412 0.00371134 0.00185567 0.00164948 0.000309278 0.00742268 0.00474227 0.00680593 0.00433052 0.00413407 0.00166449 0.0104934 0.00560722 0.00842984 0.000962583 0.000867956 0.0101553 0.00643374 0.000745613 0.00306397 0.00423758 0.00268829 0.000983173 0.00815437 0.00617615 0.00411878 0.00236387 0.0016471 0.00895545 0.00772347 0.0102062 0.000618557 0.00649485 0.0071134 0.00226774 0.001862 0.00960621 0.00203519 0.00878653 0.00317538 0.00640249 0.00686389 0.00539801 0.000988562 0.00373178 0.0120048 0.00420423 0.00460446 0.00146235 0.00883798 0.00814909 0.0111315 0.00511692 0.00682781 0.00232928 0.00028252 0.00543176 0.00424654 0.00176162 0.00938144 0.00701031 0.00164948 0.00999895 0.00855829 0.00387603 0.00176622 0.000796225 0.00278923 0.0068926 0.00360478 0.00250592 0.00600871 0.00994133 -0.000114731 0.00773929 0.00417657 0.0117939 0.00514428 0.00282046 0.0077501 0.00683816 0.00296543 0.00608852 0.000935929 0.0037971 0.00719844 0.000746721 0.0085572 0.00628866 0.00783505 0.00762872 0.0080297 0.00267691 0.00690885 0.00564179 0.00709667 0.00954749 0.0113585 0.011074 0.00815893 0.00473057 0.00515976 -0.00310401 0.00264331 0.00426866 0.00261226 0.00364959 0.00302817 0.00605939 0.0061272 0.00976891 0.00069094 0.00510975 0.00439491 0.00147902 0.00762961 0.00628866 0.00752565 0.00592347 0.000609525 0.00155785 0.00790511 0.00137911 0.0118594 0.010839 0.0107395 0.00804182 0.000975697 -0.000716479 0.00630493 0.00539494 0.00232869 0.00629088 -0.00325524 -0.00134762 0.000116069 0.00125083 0.000978737 -0.00275734 0.00237021 0.00491183 0.000663013 0.00534003 0.00865741 0.00979381 0.00668378 0.00116489 0.00349411 0.00441813 0.00787254 0.00478643 0.00925405 0.00879345 0.0139808 0.011275 -0.00355436 -0.00759326 -0.00546313 -0.00154388 -0.00179614 -0.0029411 0.000174364 -0.0013236 0.00183127 0.00164397 -0.00343153 -0.000754035 0.00553193 0.00143467 0.00307554 0.0034084 0.000928297 0.0028949 0.00355295 0.00457648 0.00661156 -0.00516269 0.00487246 0.00588142 0.0106156 0.0141505 0.00366455 0.00606825 0.00173992 -0.00932249 -0.00300596 -0.00411461 -0.00461577 -0.00593393 -0.00969399 -0.00524993 -0.00809177 -0.00416448 -0.00913637 -0.000194602 0.00153025 0.00109729 0.000938542 0.00136413 0.00371152 0.00339902 0.00990725 0.00990759 0.000711288 -0.00147611 -0.000422763 0.00647786 0.00882738 0.0147292 0.0059472 -0.00182764 -0.00646039 -0.00368336 -0.0119226 -0.0126285 -0.00230782 -0.0107039 -0.0137979 -0.0092112 -0.0152723 -0.0147017 -0.0134248 -0.0116414 0.00145983 0.00732831 0.000425479 0.00213326 0.00115812 0.00649131 0.00332158 0.0101507 0.00933717 0.00493108 0.00381352 0.00110376 0.000767962 0.0123029 0.00545829 0.00276632 -0.00805731 -0.00539718 -0.00475461 -0.00468423 -0.00190948 -0.000521167 -0.00864328 -0.0119172 -0.00826032 -0.0128741 -0.0131722 -0.00424795 -0.00180163 0.00615336 0.00906585 0.00608518 0.00753022 0.00463879 0.00299088 0.0035326 0.00037975 0.00380403 0.00461972 0.00567193 0.0110806 0.00881303 0.0063205 -0.0074816 -0.00532472 -0.00329875 -0.00205767 -0.00191357 0.00501978 0.00483191 0.00902879 -0.00325841 -0.00283244 -0.0125754 -0.00448101 0.000563893 -0.00477373 0.00502651 0.00122078 0.00682417 0.00598039 0.00628866 0.0078844 0.00838609 4.49791e-05 -0.00129655 0.00488286 0.00758481 0.000973193 0.00575605 0.00475639 -0.00551964 -0.00414069 -0.00201579 -0.00280977 0.00243758 0.000406596 0.0038704 0.00198456 0.00405574 0.00117042 -0.000352782 -0.00520958 0.00150819 0.000821968 0.00706241 0.00508187 0.00493535 0.00237309 0.00340206 0.0015345 0.00830019 0.00864655 0.00416534 0.000996319 0.00432244 0.00536845 0.00399409 0.00297982 0.00302378 -0.00237397 -0.00358645 -0.00178839 -0.0106371 -0.00629014 -0.00170097 0.000952636 0.000619937 0.0072353 -0.00398376 -0.00155836 -0.00140949 0.00517316 0.00117491 0.00426724 0.0069439 0.00791245 0.00134021 0.00164948 -3.64693e-05 0.00946631 0.00816521 0.00226186 0.00834488 -0.000908698 0.000559738 0.00127891 0.00517411 0.00441088 -0.00622664 -0.00745851 -0.00394724 -0.00924132 -0.010095 0.00113288 0.00235458 0.00111249 0.000856019 -0.000134533 -0.000275459 -0.00165056 0.00488435 -0.000225327 0.00318174 0.00845127 0.00587629 0 0.00107317 0.00156684 0.00112587 -0.00103191 -0.00115589 0.00386972 -0.000918708 0.000270328 -0.0016601 -0.000323546 -0.00322619 -0.0018138 -0.000746481 -0.000994036 -0.00298625 0.000734277 -0.000992732 0.00505982 0.00424024 0.000261576 -0.00349148 0.00675749 0.00430253 0.00754456 0.00833275 0.00537705 0.00886598 0.00690665 0.00888876 0.00932726 0.00547198 0.0066578 -0.00439561 -0.000277226 -0.00597502 0.00229256 -0.00610563 -0.00794819 -0.00093713 -0.00637516 -0.00651887 0.00131396 6.2424e-05 -0.00929636 -0.0056141 0.00102946 0.00964978 0.000164051 0.00721179 0.000484007 0.00148682 0.0047732 0.00356157 0.00159099 0.00845361 0.00762884 0.00705889 0.00666743 0.00240697 0.000781925 -0.00590553 -0.0106391 -0.00330159 0.00326786 -0.000965044 -0.00488007 0.000175939 -0.00780788 -0.00631839 -0.00334437 -0.00330899 -0.00548493 -0.00163037 -0.000935357 0.0127617 0.00744302 0.00357625 0.00221203 0.00583864 0.00345187 0.00799582 0.00619498 0.00381569 0.00216495 0.00295674 0.0013867 0.00281271 -0.00115496 -0.00517904 -0.00223585 -0.00850799 0.00115369 0.00416257 -0.00294388 -0.00441164 -0.00646794 -0.00678024 -0.00650786 0.00127884 -0.00555855 -0.00356731 0.00213777 0.0104886 0.00424558 0.00306152 0.00706147 0.010844 0.00695404 0.00922268 0.00238136 0.00556701 0.00784662 0.00403406 0.00416247 0.00237239 -0.00440603 -0.00112284 0.00227315 0.000379983 -7.55784e-06 0.00377006 0.00737108 -0.0041352 -0.00208173 -0.00562047 -0.00744107 0.00336629 -0.00077478 0.00511837 0.00746307 0.00514046 0.00427696 0.00343603 0.00668602 0.00718415 0.00578473 0.00570611 0.0020473 0.00773196 0.000448182 0.00978582 0.00811961 0.00182411 0.00543378 -0.00279695 0.00196787 -0.00336079 -0.00249289 -0.00123037 0.000671734 0.00705126 0.00270179 0.0013678 0.00209859 -0.000412926 0.000904961 0.00305497 0.00943196 0.00176926 0.00677064 0.00163252 0.00317866 0.00201254 0.00491824 0.00774715 0.00515464 0.00515464 0.00896907 0.00197656 0.00189025 0.00859068 0.00629071 -0.00280344 0.0034234 -0.00629659 -0.000537728 0.000571819 0.0029213 -0.00285923 -0.00218294 -0.00580329 0.00557803 -5.25797e-05 -0.000169065 0.00027562 0.002093 0.00229433 0.00263159 0.00408759 0.00105414 0.00431084 0.0047355 0.00198345 0.00969072 0.00804124 0.00989691 0.00448509 0.00799175 0.00798188 0.000325189 -0.00311732 0.000444856 -0.00157811 -0.00173025 -0.00942545 -0.00607502 -0.0120793 -0.00790228 -0.00399405 0.0022773 0.0049961 0.00306658 -0.00510865 -0.00230997 0.00352206 0.00274414 0.00630421 0.00679963 0.00472983 0.00250211 0.0103006 0.00226804 0.0057732 0.00701031 0.00164005 0.00890643 0.00165234 0.000642865 0.00474571 0.00103763 0.00645103 -0.000336271 0.00371347 -0.00341201 -0.00230058 -0.00568806 0.000693003 -0.0025758 -0.000466597 -0.00053762 -0.00180342 0.0016143 -0.000979496 0.00593732 0.00642481 0.00764211 0.0089868 0.00694808 0.00337888 0.00690722 0.00835052 0.00824742 0.00424903 0.00917627 0.000173279 0.000962036 0.00705298 -0.0009536 -0.00150817 0.00647599 0.0044701 0.00373343 0.00663341 0.00537369 0.004164 -0.00244236 -0.000797014 -0.00142448 -0.00103254 0.00873968 0.00781224 0.0102161 0.00901233 0.00441631 0.00841923 0.00486838 0.00494718 0.00546392 0.00649485 0.00814433 0.00742245 0.00990117 0.00124369 0.00126653 0.00871365 0.00119713 0.00168642 0.000630183 0.00687667 0.00895406 0.00600673 0.00615529 0.00627248 0.00410167 0.000839692 0.00405573 0.00993981 0.00476583 0.00648776 0.00261781 0.00749071 0.00724299 0.000901519 0.00432877 0.00989556 0.00319588 0.0043299 0.00453608 0.00865979 0.000516064 0.00775446 0.00585586 0.000227604 0.00393445 0.00207909 0.0040401 0.00029968 0.00457052 0.00569767 0.0088598 0.00419604 0.0013286 0.00905036 0.00999344 -6.81762e-05 0.00953513 0.0093893 0.0103931 0.0081525 0.00359898 0.00649485 0.0042268 0.01 0.00185567 0.0085567 0.00463918 0.00505155 0.00268041 0.0042268 0.00886499 0.00855583 0.00710964 0.00968338 0.00379341 0.000830528 0.00165835 0.00778065 0.00641605 0.00601421 0.00312367 0.00521982 0.00540779 0.0101657 0.00977673 0.0050961 0.00989618 0.00376919 0.00892149 0.00515464 0.00185567 0.00226804 0.00134021 0.00618557 0.00742268 0.00319588 0.00979381 0.0071134 0.00329897 0.00752577 0.00649485 0.00185567 0.00587629 0.00865979 0.00134021 0.0097143 0.00458771 0.00298969 0.00742268 0.000927835 0.0042268 0.0056701 0.00134021 0.00474227 0.000618557 0.000824742 0.00484536 0.0057732 0.00484536 0.00350515 0.000618557 0.00185567 0.0057732 0.00195876 0.00804124 0.00824742 0.000207152 0.00257801 0.000113187 0.00340495 0.0102293 0.00696399 0.00609966 0.000876734 3.35419e-05 0.00160756 -0.000531891 0.00465356 0.0104011 0.00265443 0.00581051 0.00957394 0.00325651 0.00665491 0.0038887 0.00412371 0.0028866 0.00876289 0.00494845 0.00783505 0.00195876 0.0056701 0.00473029 0.00288247 0.00268391 0.00224134 0.00547465 0.00419789 0.00469859 0.0115011 0.00461106 -0.000306917 0.00375563 0.0012611 0.00661483 0.00945775 0.00416885 0.0036093 0.000747025 0.00904853 0.00435734 0.00315277 0.00842124 0.00792022 0.000224477 0.00226804 0.00690722 0.00309278 0.00618557 0.00700774 0.00594315 0.00811944 0.00234914 -0.000167613 0.00476361 0.00575156 0.0118501 0.00658874 0.00998442 0.0106534 0.00530082 0.0147459 0.00211837 0.00148484 0.00275681 0.00405942 0.0018971 0.000164738 -0.00119146 0.000507369 -0.000278169 0.0058471 0.00602241 0.00404492 0.00804124 0.00608247 0.0014433 0.0100943 0.00917182 0.00749295 0.00479282 0.00791245 -0.00355505 0.00189947 0.00114322 0.00541356 0.00694743 0.0109524 0.00540343 0.00179078 0.00177507 -0.00730498 -0.00377639 -0.0020358 -0.000265798 -0.00280989 0.00494 2.004e-06 0.00435536 0.000276292 0.00576915 0.00105102 0.000946874 0.0014433 0.000206186 0.00907094 0.0026177 0.00297264 0.00613912 -0.00273869 0.00379789 -0.0051391 -0.00579851 -0.00688774 -0.00986508 -0.00914772 -0.0163237 0.000152524 0.00311809 -0.00260814 -0.00817645 -0.00788638 -0.00846016 -0.000454001 -0.00929217 -0.00101006 0.000467198 0.000228385 0.00317513 0.00273108 0.00260542 0.00484536 0.0101031 0.00911441 0.00781577 0.00239644 0.00567514 0.00339602 -0.0115426 -0.01453 -0.00557296 -0.0138065 -0.00940369 0.00193686 0.000931823 -0.0092289 0.00643993 0.00689238 -0.0106431 -0.01274 -0.0153272 -0.0123394 -0.00415186 0.000994257 -0.00472168 0.00173182 0.00673062 0.00277487 0.00564416 0.00927835 0.00656917 0.00362587 0.00507753 0.00168125 -0.0028526 -0.00362261 -0.0178019 -0.00434372 0.00800618 0.00813509 0.01414 0.00902996 -0.00259876 -0.0144817 -0.0171013 -0.000392663 -0.00238182 -0.0141811 -0.0163877 -0.00915951 -0.0074796 -0.00611191 -0.00619687 0.00386127 0.00137335 -0.00028744 0.00866557 0.00938963 0.00403505 0.00413007 0.00833654 0.00131094 -0.00721628 -0.00342903 -0.00959491 -0.00170708 0.00551311 0.0294866 0.0288662 -0.00785958 -0.0120622 -0.00731075 -0.0156011 -0.0139471 -0.00782277 -0.00506691 -0.013393 -0.0217835 -0.0198922 -0.0139974 -0.00555018 0.00403233 0.00784096 0.00581699 0.000832357 0.00405309 0.00258235 0.00490329 0.00764996 -0.0134693 -0.00926126 -0.00947163 -0.00926461 -0.00928496 0.00378461 0.0254378 0.0137952 -0.00812848 -0.011688 0.0018741 0.00514197 0.00369859 -0.00237401 -0.00101599 -0.0109917 -0.0130779 -0.0193493 -0.00875154 -0.00284524 -0.000860397 0.00271263 0.00317446 0.0100364 0.00993467 0.00603989 0.00537676 0.0016788 -0.0117185 -0.00213598 -0.000645781 0.00229156 0.000517782 -0.0014568 0.00393378 -0.00129773 -0.00620066 -0.00604414 -0.0153161 0.00724854 0.0094624 -0.00433759 0.000412028 -0.000502843 -0.0106007 -0.0112649 -0.00677211 -0.00125065 -0.00161584 0.00481267 0.000692398 0.00010702 0.00443705 0.00313465 0.00477974 -0.000595719 -0.00885671 -0.0033111 -0.00140236 0.00487363 0.00126605 -0.00252033 0.0055064 0.00255976 0.00709366 -0.00159947 -0.0153081 0.0003563 0.0267917 0.00294836 -0.00440991 -0.000128643 -0.00273401 -0.00628962 -0.00594718 -0.0107584 -0.00416286 -0.00175351 0.0030967 0.00494786 0.00649485 0.00784446 0.00686035 0.00264303 -0.00674516 -0.00428998 -0.00319978 -0.00509177 0.00296567 -0.00535108 -0.00452519 0.00498396 0.0042158 -0.000112751 0.00525459 0.0207151 0.0328863 0.0139336 0.00701726 0.00435547 -0.0145374 -0.00972988 -0.0108766 -0.0177271 -0.00235473 0.00554033 -0.00152138 0.00627811 0.00103093 0.000517242 0.00719411 0.000371392 7.26088e-05 0.00273261 0.00593712 0.0109976 0.00285353 0.00178312 0.0084906 -0.00426667 -0.0110085 0.000827464 0.00499609 0.0130111 0.0179471 0.013307 0.0123659 -0.000932786 -0.0130284 -0.00883086 -0.00384808 -0.000323401 0.00889448 0.0164025 0.00901019 0.00470327 0.00164948 0.000103093 0.0100881 0.00722883 0.00418962 -0.00489931 -0.000491155 0.0135712 0.00528711 0.00254542 0.0042247 -0.00065806 0.00184226 0.00377803 -0.000177565 0.0143631 0.0193966 0.0161639 0.019345 0.00688605 -0.00579198 -0.00843368 0.00410339 0.00362354 0.014797 0.0188683 0.00188455 0.0048096 0.00226804 0.00927835 0.00836941 0.0110384 0.00378248 -0.000968723 0.00304491 -0.00737422 -0.00119018 0.00397771 0.0127728 0.00520378 0.0105861 -0.00282089 0.00462191 0.0244462 0.010097 0.0197293 0.0207042 0.0166922 -0.00492781 -0.00298327 0.00143008 0.0120556 0.0143885 0.0221665 0.0127686 0.00376638 0.00463918 0.00988352 0.00263909 0.00410161 0.00446227 0.00216989 -0.00864462 -0.0106106 -0.0156878 -0.00817044 0.00503993 0.0136803 -0.00336815 -0.00415123 0.00556034 0.0332252 0.0276811 0.018987 0.00857117 0.0222469 0.00261969 0.00877701 0.00437227 0.00960841 0.0163393 0.0138586 0.0130342 0.00191829 0.00206186 0.00505082 0.0100313 0.00234995 0.00628422 0.00138269 -0.00467885 -0.00478447 -0.00450082 0.0024046 0.00952386 0.00526984 -0.00566365 -0.0125483 0.0025275 0.0302812 0.0255474 0.00122138 0.00964766 -0.00438295 0.00557765 0.00882483 0.00364656 0.0172578 0.0130011 0.0154875 0.0100178 0.000844374 0.0100545 0.00659794 0.00209773 0.00690169 0.0032462 -0.0054943 -0.0038193 0.01072 0.00382766 0.00397833 -0.00472928 -0.00694506 -0.0145198 -0.00882361 0.0176277 0.0191237 0.00914781 0.00723438 -0.00230111 -0.0104437 -0.0119683 -0.00607228 0.00760614 0.00854195 0.00812446 0.00653896 0.00767975 0.00360071 0.00659794 0.00665833 0.0044696 0.0064633 0.00566739 -0.0120946 -0.00451304 0.00616971 -0.00222331 -0.00909793 -0.0101763 -0.00767189 -0.0145452 0.00367575 0.0200499 0.00110255 -0.0138794 -0.0163129 -0.0152655 -0.0120025 -0.00899684 0.00357332 0.00498964 0.0181213 0.0156445 0.0133288 0.0128582 0.00211518 0.00278351 0.00980499 0.00596199 0.0102342 -0.00159113 -0.00759033 -0.0171733 0.00389573 -0.00614012 -0.00872703 -0.0195599 -0.0160051 -0.0089173 -0.00206961 0.000701618 -0.0155448 -0.0287474 -0.0202077 -0.0146376 -0.00565349 0.00456029 0.00805257 0.00644546 0.00609438 0.0145511 0.0109257 0.00576494 0.00113402 0.0085567 0.00175258 0.00364758 0.00661097 -0.00253135 -0.00872708 -0.0125968 0.000259657 -0.00227036 -0.0155436 -0.00203157 -0.00565385 -0.0079438 0.00121062 -0.0207027 -0.0347032 -0.0279421 -0.0268694 -0.00972797 -0.00139489 -0.00628708 -0.00169965 -0.00293805 0.0011328 0.0101248 0.000439968 0.00702717 0.00948454 0.00309278 0.000721649 0.00586271 0.00549253 0.00307139 -0.00280785 -0.0117845 0.00342575 -0.00378393 -0.0124841 -0.0040552 -0.00384341 -0.00784946 -0.00990116 -0.0223308 -0.0262524 -0.0357893 -0.0333182 -0.0206455 -0.00974957 -0.00940817 -0.000370954 -0.00801182 -0.00460954 0.00610256 -0.00128057 0.000168994 0.00814433 0.00556701 0.0042268 0.00233341 0.000999675 0.000701053 0.00141614 -0.00473262 0.00869283 0.00352602 0.0060905 0.00349353 0.0110113 -0.00565488 -0.012524 -0.0125664 -0.0280772 -0.0243919 -0.0231816 -0.0120581 -0.0139698 -0.00743957 -0.0119179 -0.010999 -0.00379411 0.00137111 0.00297447 0.00140487 0.00639175 0.00762887 0.00876289 0.00954426 0.00598321 0.000713407 0.00122047 0.00261392 0.00266771 0.00635542 -0.000756117 -0.0026875 -0.0028525 -0.00267726 -0.00302729 -0.00494455 -0.0110415 -0.00188808 -0.00546348 -0.00056921 -0.00252165 -0.00188409 -0.00219476 0.000103309 0.00249737 0.00614117 0.00648272 0.00847038 0.00505155 0.00185567 0.00556701 0.00649432 0.00949279 0.00434854 0.00602994 0.00992737 0.00456259 0.0029429 0.00280872 0.00722984 0.00719054 0.00627074 0.00453678 0.0019596 -0.00305525 0.0013601 0.00942404 0.00519914 -0.00527255 -0.00542209 0.000895469 0.000877148 -0.00104396 0.00868927 0.00516953 0.00228584 0.00154639 0.00134021 0.0057732 0.00659794 0.00319678 0.000756322 0.00720566 0.00776898 0.00195746 0.00631039 0.0128696 0.00259363 -0.00113218 0.00449846 0.00476301 0.00265568 0.00373553 0.000750158 0.00579433 0.00750586 0.00395596 0.00592649 0.00670722 0.001247 0.00351676 0.00546392 0.00309278 0.00938144 0.00515464 0.00835052 0.00670103 0.00670103 0.00969072 0.00226804 0.00835341 0.0079295 0.00858986 0.00617917 0.00533122 0.00933849 0.00477948 0.00476653 0.00096889 0.00621055 0.00443262 0.00790829 0.00028598 0.00620131 0.00522244 0.00324223 0.00324207 0.00554065 0.00600158 0.00515464 0.00680412 0.00453608 0.000309278 0.01 0.00360825 0.000618557 0.00804124 0.000103093 0.00731959 0.00247423 0.00773196 0.00546392 0.000103093 0.00608247 0.0014433 0.000522664 0.00475803 0.00649485 0.000824742 0.000515464 0.00814433 0.00546392 0.00350515 0.00824742 0.000721649 0.00876289 0.00649485 0.00907216 0.00391753 0.00752577 0.00927835 0.000412371 0.00175258 0.00474227 0.00546392 0.000515464 0.00536427 0.00867556 0.00618685 0.00800879 0.000742324 0.00886241 0.00314476 0.00640426 0.00464268 0.00974893 0.00680323 0.00434335 0.00601918 0.00277298 0.0049022 0.00384695 0.00324755 0.00353576 0.00711439 0.00927835 0.00195876 0.00865979 0.00804124 0.000927835 0.000927835 0.00216495 0.001379 0.00279688 0.00197124 0.00269444 0.00988381 0.00331376 -6.74877e-05 0.00515739 0.011869 0.00714006 0.00877746 0.00868681 0.00765422 0.00257915 0.00843007 0.012176 0.00921458 0.00885781 0.00190332 0.00699386 0.00765021 0.00502874 0.00524753 0.00969072 0.00402062 0.00721649 0.00804124 0.00711243 0.00825559 0.00909711 0.00429771 0.00540491 0.00614371 0.00542455 0.00651951 0.00509398 0.00238207 0.000714326 0.00591445 0.00360815 0.00397174 0.00594464 0.00789586 0.00599014 0.0141666 0.00623526 0.00582211 0.00277162 0.00329123 0.00708192 0.00356946 0.00977992 0.00721649 0.00886598 0.00917526 0.000924517 0.00587391 0.00203005 0.00316171 0.00861068 0.000982899 0.00826322 0.00429901 0.0018814 0.00154137 -0.00134376 0.00158833 0.00366675 0.00425542 0.0176894 0.0138646 0.0127869 0.0084013 0.00802549 0.00123333 -0.000854672 -0.00173311 -0.000750923 0.00146203 0.0038204 0.00857633 0.000721649 0.00886598 0.000515003 0.009586 0.00795803 0.00697711 -0.00117092 0.0097878 0.0109871 0.00430303 0.000350848 -0.00465566 0.00154001 0.00841092 0.00438907 0.00548299 -0.00043692 0.00156181 0.0111084 0.00684088 0.0108964 -0.00211223 -0.00185033 0.00287498 0.0041172 0.00383776 0.00920802 0.0082764 0.00175258 0.0081443 0.00165422 0.00236154 0.00616125 0.00325284 0.000243383 0.00765459 0.00257155 -0.00497095 -8.48193e-05 -0.00472831 -0.00620602 0.00839396 0.00604847 0.00448967 -0.00213062 0.00247271 -0.00331387 0.00278003 0.000357995 0.0010393 0.00187208 0.00181358 0.00130601 0.00199516 0.00312629 0.00950575 0.00268041 0.00731358 0.00242573 0.00941791 0.0040624 0.00421355 -0.00112594 0.00213245 -0.0123178 -0.00318478 -0.00323301 -0.00311028 -0.0043577 -0.00279049 0.00460072 -0.00490904 0.00159577 -0.00824324 -0.00710288 0.00153577 -0.00435988 -0.00346197 -0.000506609 0.00274704 0.00802258 0.00531436 0.00923331 0.00928773 0.00445981 0.00735896 0.00351702 0.00674326 0.00364611 -0.00285927 -0.0032843 -0.00595434 -0.00326718 -0.00396052 -0.0116417 -0.0059271 0.00373723 0.00360414 0.00334584 0.000794083 -0.00435993 -0.00298448 -0.00708243 -0.00407639 -0.00504927 -0.00574543 -0.00699389 0.0081224 0.00405186 0.00352732 0.00757907 0.00967593 0.00463493 0.00159083 0.0037402 0.00904628 0.00457172 -0.000139487 -0.00164292 -0.000921754 -0.00178719 0.00223349 0.00698187 0.00150002 -0.00294192 0.00463109 -0.00507081 -0.0121604 -0.0104809 -0.00794488 -0.0101486 0.00316927 -0.0013299 -0.00249197 -0.00290388 0.00493973 0.00466326 0.00404971 0.00977675 0.00615417 0.00597444 0.00222164 0.000618991 0.000275186 0.00549558 0.00889846 0.00739222 0.00707836 0.00321146 0.00839251 0.00214764 -0.00275571 0.00742558 0.000483454 -0.00406015 -0.00653023 -0.0118011 -0.0050508 -4.1453e-05 0.00501388 -0.00249326 -0.00644997 0.00406173 0.00461644 0.0115101 0.00721028 0.00111585 0.00224103 0.00371081 0.00650511 0.00352514 0.00978009 0.00887746 0.00510813 0.00294791 0.0124499 0.0116309 0.0131395 0.00843868 -0.00254656 -0.00748345 -0.0170047 -0.0142033 -0.00454038 0.00173893 -0.00313503 -0.00110855 0.000572895 -0.00412793 -0.00523186 0.00456117 0.0113714 0.0198827 0.00740206 0.00753535 0.00740722 0.00670103 0.00464692 0.0097263 0.000966064 0.00175569 0.00918008 0.00924371 0.0137904 0.00833297 0.0133312 -0.00382941 -0.0137001 -0.00846067 -0.00846534 -0.00939514 -0.00351066 -0.00243471 0.00022729 -0.00633395 0.00153888 -0.0080513 -0.000950802 0.00558044 0.0196548 0.0237919 0.00297219 -0.000122935 0.00719556 0.00175258 0.00866204 0.00428707 0.0049827 0.00816469 0.0128692 0.0125935 0.0201372 0.00852155 0.00260095 -0.00973337 -0.00917995 -0.0112502 -0.0123071 -0.0122478 -0.00389027 -0.00316209 -0.00160352 0.00354621 -0.00170705 -0.00528123 0.00119853 0.00255431 0.0161932 0.0148681 0.0101289 0.00413685 0.00770565 0.00762887 0.00494845 0.00450618 0.00572073 0.0142501 0.0124593 0.0203022 0.0185687 0.00707727 -0.00271002 -0.011014 -0.0167141 -0.0159665 -0.00695968 -0.00046686 -0.0042003 -0.0101764 -0.00176686 0.00417041 0.00348603 0.00636387 0.00752464 0.0127006 0.0144992 0.0223153 0.00974844 0.00169116 0.00494619 0.00237113 0.00134021 0.0074344 0.00469303 0.00194447 0.0107442 0.0101913 0.0233431 0.00177107 -0.00959653 -0.0134104 -0.00729797 -0.00303261 -0.0057551 0.000959835 -0.00320374 -0.00907311 -0.0099221 0.000800331 0.00147042 -0.000292451 0.00566248 0.0172773 0.0266095 0.0198568 0.00236032 0.000461153 0.00771798 0.00680412 0.00773172 0.00776378 0.00345853 0.00399276 0.0138362 0.00814926 0.0181388 0.0044602 -0.000850476 -0.0110293 -0.00192896 -0.0072357 0.00181436 0.00427078 -0.00144661 -0.0177584 -0.0153974 -0.0142312 -0.00292663 0.00657795 -0.00201013 0.00991796 0.0170857 0.0179336 0.00900137 0.00667773 0.00841621 0.00525773 0.00278349 0.00172094 0.0061687 0.00263995 0.0128081 0.00371054 0.0187519 0.00532517 -0.00248287 0.00370447 -0.000660148 0.0103726 -0.00101211 -0.00220342 -0.0013166 -0.00716254 -0.00933606 -0.0119956 -0.00533513 0.0014008 0.000491134 0.0142598 0.0144369 0.0141319 0.00678741 0.00284495 0.00514002 0.00257827 0.000206186 0.00929546 0.00123639 0.00329576 0.0116369 0.0122841 0.0150431 0.00649874 0.00117999 0.00967724 0.00281364 0.00975691 0.0087067 0.00833584 0.00339907 -0.00458193 -0.00339889 0.0034777 -0.00126296 0.000113234 0.00419416 0.015052 0.0140563 0.00446102 0.00653347 0.00925213 -0.000184529 0.00917526 0.00836436 0.000406415 0.00635683 0.00623923 0.0107958 0.00962712 0.0102045 0.000867779 0.00831265 -0.00134891 0.00589996 0.00775185 0.00247818 0.00273684 0.000810927 0.00145267 0.00380803 -0.0017774 -0.00484211 0.00382724 -0.00140945 0.00780765 0.00390815 0.000375563 0.00140459 0.00472497 0.00346245 0.00268041 0.0102652 0.003414 0.00129688 0.00531878 -0.000344982 -0.00317658 -0.000681903 0.0109037 0.0045289 0.0061717 0.0061232 0.00941173 0.00692423 0.00638787 0.00313973 0.00033668 -0.0021561 -0.0053986 -0.00435456 0.00206368 -0.000908378 0.00540675 -0.0038246 -0.00198275 0.00620902 0.00308269 0.00247423 0.00896907 0.00835052 0.00584073 0.00081928 0.00627796 -0.00313977 0.00332466 -0.0040914 0.00791511 0.00401459 0.00590664 0.00111211 0.00677741 -0.00311125 0.00434984 0.00722712 0.00496721 -0.0015637 -0.00919841 -0.00617769 -0.00565192 -0.0119849 0.0014327 -0.00760826 -0.00304775 0.00598386 0.00788097 0.00164948 0.00865979 0.000618557 0.00407761 0.00708256 0.00219078 0.00322244 -0.000651493 0.00461257 0.00734095 0.00426146 0.0147573 0.00573147 0.00596071 0.0060711 0.00355759 0.000804864 0.00122787 0.00221067 -0.00410629 -0.0032648 -0.00506023 -0.00994626 -0.00284563 0.00324327 0.00300248 0.00268661 0.00480355 0.00639175 0.00453608 0.00762887 0.00803257 0.00795777 0.0009198 0.00460695 -0.00182966 0.00469229 0.00181418 -0.00079146 0.00770476 0.000775907 -0.00447298 -0.00161069 0.000735552 0.00777509 -0.00577976 0.000585699 -0.00445271 -0.00789301 -0.00448847 -0.00188286 0.0037218 -0.00166505 0.00489367 0.00406639 0.00481554 0.00298969 0.00237113 0.00474227 0.00441654 0.00195965 0.00140941 0.00698836 0.000171192 -4.62034e-05 0.00293924 0.00104586 0.00111564 -0.00788438 0.00310386 -0.00235991 0.00046366 0.00351274 -0.00230892 -0.00150165 -0.00010483 -0.00536758 -0.00231412 0.000742263 -0.000760846 0.00732025 0.00886536 0.00442619 0.00298784 0.00123711 0.00371134 0.00298969 0.00958782 0.00606616 0.00752427 0.00363834 0.00326006 0.00519178 0.000448634 0.00641367 0.00209116 -0.00294282 -0.00119327 0.00587066 -0.00189158 0.00287015 -0.00580672 -0.00697671 -0.00277174 0.00501358 0.00430684 -0.000340585 0.0028172 0.00838666 0.005591 0.00690557 0.000719683 0.00484536 0.00103093 0.00381443 0.00113402 0.0102052 0.00684025 0.000929096 0.00653126 0.00970696 0.00411689 0.00273589 0.00184984 -0.00206399 0.00182119 0.00729333 -0.00249505 0.0045639 0.00734868 0.00579135 0.00216809 0.00778836 0.00809947 0.00120028 0.000174991 0.00548643 0.00814433 0.00845361 0.00927835 0.00917526 0.000206186 0.01 0.00917526 0.00659794 0.00886598 -4.91057e-06 0.00648715 0.00536026 0.00050099 0.00757842 0.00468677 0.0100224 0.00689401 0.00390057 0.0100365 0.00946913 0.003688 0.00581413 0.000613945 0.00191819 0.00419426 0.000222677 0.00446552 0.00778381 0.00494845 0.00484536 0.00907216 0.00824742 0.00845361 0.00804124 0.00216495 0.00865979 0.00773196 0.00103093 0 0.00639175 0.00113402 0.00164948 0.00680412 0.00701031 0.00926676 0.00657255 0.00670103 0.00587629 0.000412371 0.00164948 0.000103093 0.0042268 0.00257732 0.000824742 0.00113402 0.00639175 0.00701031 0.00309278 0.00979381 0.00164948 0.00804124 0.0085567 0.00494845 0.00618557 0.00628866 0.00721082 0.00430283 0.00340261 0.00298126 0.00982739 0.00504415 0.00418516 0.00103788 0.001523 0.00605623 0.00470232 0.00767212 0.00794081 0.00101198 0.00361966 0.00496618 0.0066834 0.00320632 0.00773195 0.00762887 0.0043299 0.00381443 0.00969072 0.00752577 0.00865979 0.00639175 0.00524735 0.00690364 0.00111344 0.00628749 0.00244638 0.00248307 0.00486258 0.00476116 0.00458372 0.00387138 0.00452648 0.00388179 0.00518211 0.00622087 0.00592315 0.00728944 0.00127197 0.00552721 0.00360122 0.000481747 0.000639461 0.000342182 0.00387363 0.00845361 0.00309278 0.00835052 0.00731959 0.0024718 0.000589842 0.00568811 0.0087118 0.000540838 0.0022342 0.00344012 0.00366583 0.000188812 0.00243097 -0.00314988 -0.000304232 -0.00766773 -0.000512626 0.00347613 0.00127743 0.00819642 0.00870816 0.0174944 0.0146613 0.0118956 0.0037088 0.00491855 0.00453961 0.000599182 0.00773196 0.00381443 0.00412371 0.000507135 0.00721768 0.00096577 0.0075099 0.00663299 0.000509437 0.000903278 -0.00493293 0.000331352 -0.00614822 -0.0108068 -0.00515356 -0.00454261 0.00749688 0.00047016 0.00465501 0.000277064 0.0015722 0.00157697 0.0121096 0.0166417 0.0119204 0.0164738 0.0104183 0.00212821 0.00990661 0.00587629 0.00649485 0.00257616 0.00460814 0.000384425 0.00403889 0.000557428 -0.00432851 0.000401032 -0.000322944 0.00023696 0.00580104 0.0129737 0.00944844 -0.00954312 -0.0117899 -0.00171376 -0.01487 -0.0212218 -0.0202989 -0.0132424 -0.00146053 0.00116963 0.00342467 0.00884967 0.0108159 0.00400886 0.00347038 0.00649485 0.00927807 0.00883284 0.00674658 0.00492724 0.000941719 -0.00140701 -0.00103762 0.0022704 -0.00306145 0.00485449 0.0171974 0.016616 0.00928582 0.00338578 0.00129972 -0.00102308 0.000333958 -0.00515396 0.00146768 0.00549906 -0.00760097 0.00472765 0.00219631 0.00318642 0.00763437 0.00517626 0.00673846 0.00329897 0.00203253 0.00584657 0.00874571 0.00282176 -0.00283929 -0.00740553 -0.00323685 -0.00471932 0.00338722 0.00986115 0.0069339 0.000506692 0.00248008 -0.00821812 -0.002079 0.0113339 0.0198023 0.0135969 0.00564365 0.00286963 0.0121747 0.00365364 0.0161539 0.00803556 0.0085953 0.0120669 0.00628328 0.00378245 0.00884677 0.00864371 0.00602275 -0.000998697 0.000556787 -0.00430522 -0.00384293 0.00281195 0.00955636 0.0192963 0.00618938 0.0072524 -0.00696829 -0.00646796 0.00129105 0.0161259 0.0205222 0.00915964 0.00782154 0.00897419 0.00621323 0.00920617 0.00962379 0.0112428 0.0100476 0.00924566 0.00426147 0.000923628 0.00187894 0.00482323 0.00294764 -0.00545639 -0.00131182 0.00158505 0.000895529 0.00196073 0.0120096 -0.00102873 -0.00982378 -0.0188091 -0.0198783 -0.0192905 -0.00508598 0.0057079 0.0096873 0.00681548 -0.00147877 -0.00506788 0.010101 0.00449297 0.00762918 0.021807 0.00777887 0.00860845 0.0040455 0.00545902 0.00210106 0.00714327 0.00408927 0.00937402 -9.95381e-05 -0.00183398 -0.00379153 0.00605657 0.0123981 0.0019456 -0.0143912 -0.0172897 -0.0255081 -0.0210584 -0.00770742 -0.00640292 -0.00956899 -0.0165554 -0.00692151 -0.0126476 0.000480327 0.00254056 0.00212 0.014355 0.0147155 0.0134209 0.00340019 0.00494793 0.00910716 0.00613399 -0.00137365 0.00884392 0.00960883 0.00183531 0.0079086 0.0193571 0.024455 0.00683899 -0.00541664 -0.0203076 -0.026127 -0.0206242 -0.0141873 -0.00748953 -0.0226358 -0.0137924 -0.00930771 -0.0184514 -0.00229731 0.000938073 0.0101408 0.0128153 0.0196694 0.00967317 0.00357332 0.00876289 0.000797822 0.00573875 0.00321139 0.00551056 0.0110626 0.00622917 0.00245682 0.0223968 0.0221215 0.00969617 -0.00746381 -0.0187287 -0.0179231 -0.0202502 -0.00457175 -0.0147675 -0.0165437 -0.0136852 -0.0161996 -0.0101912 -0.00510609 0.00888358 0.0176902 0.0149868 0.0109999 0.00651736 0.00219813 0.00237113 0.00326486 0.00544004 0.000370734 0.00806544 0.00894563 0.00277307 -0.000401888 0.0140779 0.0181452 0.0295936 0.00664739 -0.00190136 -0.0128799 -0.0143041 -0.00839284 -0.0162514 -0.0260348 -0.024036 -0.0135017 0.00488524 0.00357148 0.0101632 0.00915827 0.0100775 0.0064495 0.00576687 0.000119253 0.00494845 0.0101031 0.0079261 0.00673054 0.00178688 0.00295729 -0.00534482 -0.00394076 0.009574 0.00994132 0.0287297 0.0138066 -0.00020188 -0.0178084 -0.0123521 -0.00851865 -0.0131506 -0.0250912 -0.0251377 -0.0103012 -0.00666676 0.00645564 0.000219595 0.00554575 0.0010552 0.0057477 0.00143907 0.000694687 0.000721649 0.00618557 0.00633685 0.00505861 0.0048207 -0.00176637 -0.00899239 -0.00773232 0.00200466 0.0220514 0.0324653 0.0315339 0.0121384 -0.00451243 -0.00245236 -0.00422021 0.00900417 0.00129624 -0.0125829 -0.0198262 -0.0163601 -0.00752121 -0.0079603 0.00112499 -0.00661593 -0.00139329 0.00581265 0.00185 0.00195876 0.00876231 0.00856054 0.00228527 0.00470298 -0.00401235 -0.00457041 -0.0148551 -0.0103727 0.00489578 0.0222004 0.0219612 0.0286552 0.0230902 0.0093383 -0.00315776 0.0160188 0.0100989 -0.0178496 -0.0171429 -0.00885092 -0.00946663 -0.0154373 -0.0123049 -0.00838959 -0.00208026 0.00670284 0.00533476 0.0043299 0.00123708 0.00952839 0.000727797 0.00393542 -0.00539587 -0.0069091 -0.0133904 -0.0192464 -0.00596077 -0.00468345 0.0202474 0.0289638 0.0145057 0.00157157 0.0121384 0.0299084 0.0147355 -0.0129982 -0.0159481 -0.00963497 -0.0116504 -0.0102721 -0.00690081 -0.00349255 0.00668021 0.000941493 0.00122151 0.00608225 0.00103093 0.00825712 0.00359373 -0.00512165 -0.00510993 -0.00296804 -0.0135554 -0.0137965 -0.00816991 -0.00540417 0.00756836 0.0254501 0.00754047 0.00665254 0.00977224 0.0109907 0.00672339 -0.0119166 -0.0235295 -0.0181491 -0.0124333 -0.0108955 -0.0130387 -0.000101017 0.000863544 0.0084374 0.00368822 0.00237113 0.00514197 0.000263193 0.000428211 -0.00321439 -0.00718186 0.00164894 -0.0047341 -0.000142841 -0.00164037 -0.0036508 -0.0101797 0.00712893 -0.000331053 0.00275204 0.0107827 -0.00434468 -0.00233785 -0.0070182 -0.0148065 -0.0143204 -0.0175333 -0.0155393 -0.00788305 0.00469073 0.00636546 3.26285e-05 0.00336734 0.00164948 0.00989049 0.00220178 0.00149692 -0.000307143 -0.0048559 -0.00571829 0.00188815 0.00418966 0.0129183 0.0114901 -0.00219347 0.00842439 0.0119193 0.00439831 0.0174396 -0.00193152 -0.000595409 -0.00949935 -0.0100534 -0.0117304 -0.0132235 -0.00556936 0.00700448 0.00713506 0.0102684 0.00682391 0.00587629 0.00824742 0.00876289 0.00902825 0.00795773 -0.00110937 -0.00149896 0.00217973 0.00350848 0.00199745 0.0051441 -0.002122 0.000262045 -0.000633348 0.00342469 0.00715428 0.00835172 -0.0129457 -0.00769397 -0.0154905 -0.0165762 -0.0198813 -0.00930242 0.00465417 0.00979306 0.00942589 0.00262393 0.000756856 0.000412371 0.000824742 0.0085567 0.00611283 0.00400399 0.00401767 -0.0022241 0.00199528 -0.00233326 -0.00265227 0.0106905 0.00499751 0.00862472 0.00699904 -0.0016555 0.00686876 0.000282757 -0.0112009 0.000796051 -0.00556955 -0.0120606 -0.00966762 -0.0043819 0.000982093 0.00815146 0.00407396 0.0094971 0.010002 0.00649485 0.00865979 0.00989691 0.00204805 0.00508408 0.00529485 0.00492428 0.00624005 -0.0044602 0.0135039 0.0219284 0.0157201 -0.000270749 0.00158234 0.0173168 0.00877826 -0.000100523 -0.00047951 0.00310527 0.00430292 -0.00451015 -0.00130402 0.00023153 3.87458e-05 0.00426943 0.00862308 0.0105205 0.00239429 0.00278351 0.00556701 0.00597938 0.0094027 0.00936331 3.59204e-05 0.00268237 -0.00538296 0.000952479 -0.00203876 0.0143048 0.0251347 0.0190853 0.0149538 0.016357 0.0253049 0.0104352 -0.000378978 -0.00327976 -0.00239102 0.00878692 0.00477594 -0.000139244 0.00712505 0.000290679 0.00841603 0.0091759 0.00080676 0.000927835 0.00247423 0.00268041 0.00371019 0.00802509 0.00779049 0.00395985 -0.00628127 -0.00829191 -0.00868636 -0.00647285 0.00340393 0.0082899 0.00732149 0.00594485 0.00838089 0.00331259 0.0109615 0.00666247 0.00880869 0.00589223 0.00497053 0.00456327 0.0101822 0.00289033 0.00901487 0.0062727 0.00358916 0.00731959 0.000412371 0.00443299 0.00824742 0.00288699 0.00233331 0.0011382 0.00365161 0.00224379 0.000834645 0.00413858 -0.00365218 0.00341019 0.00671923 0.0105581 0.00595523 0.00535851 0.00601857 0.000539224 0.00629938 0.00482029 0.00279935 0.00229382 0.00392887 0.0102754 0.00391753 0.00113402 0.0071134 0.00195876 0.00752577 0.00587629 0.00443299 0.00298969 0.00536082 0.00773356 0.00598871 0.00766365 0.00450644 0.00167222 0.00869307 0.00981502 0.00545767 0.00375972 0.00349995 0.00928791 0.00192884 0.00648135 0.00693774 0.00851306 0.00702549 0.00373884 0.00835862 0.00422973 0.000515464 0.00701031 0.00948454 0.00989691 0.00814433 0.00628866 0.00690722 0.000412371 0.00185567 0.00639175 0.00350515 0.00731959 0.00391753 0.00453608 0.01 0.00845361 0.00628425 0.00823777 0.00278351 0.00103093 0.00164948 0.00618557 0.000206186 0.00907216 0.00247423 0.00237113 0.00237113 0.00453608 0.00113402 0.0056701 0.00876289 0.00164948 0.00237113 0.00793814 0.00659794 0.0056701 0.00927835 0.00865888 0.00105297 0.00615234 0.00456523 0.0099794 0.00321508 0.00845577 0.00408519 0.00822585 0.00162363 0.00486298 0.000962804 0.00458094 0.00661015 0.00821554 0.000498299 0.00171736 0.00704395 0.00844937 0.0043299 0.00453608 0.00268041 0.00546392 0 0.00113402 0.00216495 0.00236191 0.00412053 0.00391421 0.00291061 0.00262716 0.00154666 0.00342055 0.00768391 0.00517813 0.00277951 0.00636318 0.00414323 0.00200442 -0.000295077 0.00685897 0.00839036 0.00182675 0.0068062 -0.000414652 -0.000494423 0.00728652 0.00237356 0.00258126 0.00597938 0.00175258 0.0071134 0.00865979 0.00226781 0.00214017 0.00486538 0.00956836 0.00351515 0.00680304 0.000759268 0.00445105 0.0037211 0.000786376 0.00374031 0.00199482 0.00266283 0.00163044 0.00507912 0.0063688 0.00732419 0.00646378 0.00403419 0.00668261 0.0054636 0.00445164 0.00191813 0.00904038 0.00565101 0.00628866 0.00525773 0.00628866 0.00814354 0.00752887 0.0097101 0.00269887 0.00644555 -0.000770345 -0.00256246 0.000734561 0.00141266 0.00291567 -0.0043505 -0.00553758 -0.00240536 -0.00175512 -0.00447448 -0.00288508 -0.00756885 -0.0109122 -0.00461188 0.00296623 0.000395858 0.0039757 0.007156 0.0106019 0.00854824 0.00683012 0.01 0.00845361 0.00824731 -9.93017e-05 0.00889046 0.00304517 0.00357791 0.00305431 -0.000144048 -0.0070902 -0.00781603 -0.00920431 -0.0161102 -0.0258371 -0.0324218 -0.0463687 -0.0397283 -0.0416682 -0.0433076 -0.0322145 -0.0259235 -0.0160826 -0.00363557 0.000269614 0.0101386 0.0111454 0.00254886 0.0098862 0.0028866 0.00453596 0.00250842 0.0084027 0.00878173 0.00829918 0.00387128 -0.0103071 -0.0106891 -0.00769112 -0.0122091 -0.0111045 -0.0288552 -0.0252161 -0.0340861 -0.028496 -0.0508637 -0.0448708 -0.0291213 -0.020948 0.0122799 0.0010449 -0.000774966 0.00647556 0.0159796 0.0117312 0.00609073 0.00835002 0.00206186 0.00118126 0.00962331 0.00596266 0.00439232 -0.00032932 0.00591494 0.0122129 0.0181861 0.011462 0.0112232 0.000724737 0.00649847 0.014368 0.0159995 0.0174903 0.0175256 0.0192186 0.0259241 0.0222064 0.0484212 0.023103 0.0130453 0.0167114 0.0146717 0.0067587 0.00816068 0.00424845 0.00698744 0.001595 0.00258308 0.00966288 0.0010901 0.00403297 0.00170972 0.0073667 0.0181827 0.019336 0.0015944 0.0275869 0.0420105 0.0315718 0.0352179 0.0630813 0.0752831 0.0440048 0.0458557 0.0334442 0.0439272 0.0212771 -0.00155087 0.0120306 0.013633 0.00191384 0.00308165 0.00135892 0.0076319 0.00964758 0.00564308 0.00230462 0.00726676 -0.00310789 -0.00507697 -0.00311113 0.0120108 0.0092457 0.0104016 0.0283964 0.0340027 0.0277228 0.0523626 0.0360397 0.0193268 0.0273347 0.0146018 0.00620591 -0.00691805 -0.0235793 -0.0241231 -0.0136662 0.0112296 0.00395426 0.00459646 0.00921174 0.00742621 0.00985759 0.0100836 0.00206685 0.0096064 -0.009186 0.00775485 -0.00102347 0.00415418 0.0166907 0.0261544 0.0338679 0.00562417 0.00451951 -0.000533851 -0.0205861 -0.015404 -0.0260224 -0.0293887 -0.0325951 -0.0347136 -0.0317093 -0.0298157 -0.023364 0.00640333 0.00802325 0.0107971 0.00472725 0.00422718 0.0011193 0.00106774 0.0016451 -0.00627945 -0.00685125 0.00144954 0.000725482 0.0124053 -0.00874587 0.00152239 -0.000117796 -0.0076316 -0.00482213 -0.00319932 -0.0270527 -0.0282089 -0.0213619 -0.0255778 -0.0257963 -0.0268001 -0.0303113 -0.00513743 -0.0160291 0.00227275 0.0109578 0.00617784 0.00543644 0.000721649 0.00576878 0.00835149 0.00501289 -0.000356814 -0.00987785 -0.000832085 0.00157197 -0.0030263 -0.00504078 0.000698197 -0.00306321 -0.0120846 -0.0129704 -0.0280161 -0.00341648 -0.0168392 -0.00978591 -0.00229661 -0.00403755 -0.0153914 -0.0258354 -0.00581328 -0.00897303 -0.00252473 0.0123631 0.00513065 0.00997022 0.00731959 0.00205662 0.00439889 0.00760833 -0.00592503 -0.0029234 0.00456566 0.00738683 0.00046956 0.00858805 0.00121366 -0.00368574 -0.00268645 -0.00133167 0.00790725 0.00323935 0.00671415 -0.0111017 0.00102644 0.0013674 -0.0104746 -0.018807 -0.0260306 -0.0181194 -0.00407774 0.00216708 0.00628034 0.00300236 0.0014433 0.000206186 0.00267556 0.00848994 -0.00685067 -0.0098261 0.0116609 0.00590859 -0.00236036 0.0033844 0.00868866 -0.00925522 0.000758579 0.00522635 0.0212619 0.0203479 0.0077048 -0.00923597 0.00508538 0.000654555 0.00795665 -0.00655238 -0.00882317 -0.00929027 -0.00910619 -9.53496e-05 0.00460889 0.00617787 0.00350515 0.00474227 0.00915991 0.00376311 0.000577168 -0.000128151 0.0128607 -0.00418902 -0.00126847 0.00308904 0.0200035 0.024436 -0.00228841 -0.00422699 -0.00874022 0.00348518 -0.00418329 -0.00661363 0.0058694 -3.51945e-05 0.00583165 -0.00778214 -0.00659043 0.00124346 -0.00390459 0.000415745 0.00178458 0.00122263 0.0042268 0.00546178 0.008529 0.000897556 0.000493473 0.000554304 -0.00244042 -0.00694425 0.00469334 0.0118749 0.0257858 0.0136478 -0.000957698 -0.011126 -0.0281913 -0.0152744 -0.00676819 -0.0159026 -0.00667068 -0.0139893 -0.00573618 -0.018706 -0.0155258 -0.00681121 -0.0037673 -0.00375566 0.00418237 0.00261075 0.00917526 0.00938133 0.0055963 0.00525885 -0.00518892 -0.0117454 -0.00433987 0.0119146 0.0161363 0.0182149 0.0273673 0.0183963 -0.00326597 -0.019032 -0.0177174 -7.10765e-05 0.0063574 -0.00157111 -0.00293587 -0.00947763 -0.000880252 -0.00750012 -0.000571109 -0.00481768 -0.00992128 -0.00342598 0.00316306 0.000616728 0.0086813 0.0101031 0.00474376 0.00218822 -0.00458314 -0.00410536 0.00180246 0.0136347 0.0233326 0.0150911 0.00558467 -0.00461804 -0.0170625 -0.0058972 -0.0063703 -0.0185105 -0.00440353 0.00327369 -0.0121187 -0.00547634 0.0106644 -0.00659596 0.000959423 0.000294331 -0.00534889 0.000527655 0.00605877 0.00731467 0.00701031 0.00802933 0.00857013 -0.000181598 -0.0052185 -0.00226523 0.00316541 -0.00080782 -0.00843767 -0.00979144 -0.0273321 -0.0259381 -0.0136294 0.00338038 0.00439444 -0.00635864 -0.0268788 -0.00661763 -0.0120541 0.00317048 0.000411567 -0.0030953 -0.00846011 -0.00199831 0.00644815 0.0011264 -0.00142032 0.00452525 0.00958763 0.00382921 0.00710601 -0.00282288 -0.00853143 -0.00746511 -0.00566942 -0.0101031 -0.0268517 -0.0250109 -0.0231086 -0.0141052 0.00782356 0.0274802 -0.00256944 -0.0214647 -0.0134899 0.00301364 -0.00976631 0.00637615 -0.000261563 -0.00353505 0.00637759 0.0132196 0.0151305 0.00400144 -0.00143778 0.00721649 0.00701031 0.00773196 0.00115612 -0.00160931 -0.00370048 -0.00278011 -0.0164112 -0.0278567 -0.04375 -0.0253394 -0.00960823 -0.00476964 0.0204137 0.0171012 -0.0120082 -0.0257599 -0.0100087 -0.0197724 -0.00971733 -0.00805431 0.00647033 0.00367335 0.0102699 0.0133466 0.0121164 0.0105111 0.00285898 0.00659794 0.00164948 0.00371134 0.00855811 0.00791589 0.00105608 -0.00191504 -0.00828541 -0.0254356 -0.024516 -0.020229 -0.00581645 -0.00150857 0.0155288 -0.00267741 -0.0244418 -0.0414722 -0.0163834 -0.00469797 -0.009703 -0.00989595 0.00759127 0.0035955 0.00455508 0.00933874 0.00504487 -0.000233665 0.0097776 0.00164948 0.00453608 0.00268041 0.00318396 0.00723998 0.00531801 0.00636967 0.0106284 -0.00717862 -0.00831259 -0.00308015 0.00515161 0.0111808 0.0276781 -0.0113153 -0.0285149 -0.0213521 -0.00828911 -0.00461045 -0.0197453 -0.00948968 0.00410367 -0.00248707 0.00892994 0.0138374 0.0100184 0.000808361 0.00907678 0.0101031 0.00680412 0.00865979 0.00682074 0.00642581 0.00832764 0.00945278 -0.00313785 0.00553312 0.00259472 0.0145038 0.00879664 0.0197527 0.0209485 0.00508176 -0.0105797 -0.019456 -0.00269885 -0.00335951 -0.00695162 -0.00188769 0.0105749 0.0033995 0.00896596 0.0118018 0.00526172 0.00833288 0.00168753 0.000206186 0.00525773 0.000721649 0.00535411 0.00714766 0.00821049 -0.00579332 -0.0101491 -0.0107446 0.00192793 0.0111199 0.0225644 0.0142472 0.0307456 0.0152381 -0.000269575 0.00252327 0.0122148 0.0216787 0.0074654 0.00912142 0.0165388 0.0151747 0.011905 0.0103381 0.00537605 0.00664328 0.0094155 0.00618557 0.00525773 0.00103093 0.0014433 0.000310091 0.00126993 0.00362861 0.00266301 0.00394352 0.00775995 0.0161342 0.0166131 0.0105511 0.0287921 0.0287046 0.0305346 0.0238806 0.0290474 0.0286734 0.0136732 0.0121809 0.0146401 0.0115391 0.00870574 0.00509052 0.00721649 0.00773196 0.00659794 0.0102062 0.00412371 0.00587629 0.00608247 0.00443299 0.00195876 0.00268392 0.0048201 0.00412594 0.00505369 0.00766465 0.0122176 0.0103655 0.00411982 0.00744019 0.00585162 0.00495796 0.00164407 0.0107023 0.00636628 0.00615414 0.0090667 0.0106321 0.00187036 0.00524829 0.00546392 0.00237113 0.00494845 0.00783505 0.00515464 0.00670103 0.00773196 0.00927835 0.00762887 0.00360825 0.00340206 0.00958763 0.00134021 0.00329897 0.00298969 0.00597938 0.00567687 0.00795295 0.0042268 0.00350515 0.0042268 0.00371134 0.00804124 0.000824742 0.00309278 0.00185567 0.00206186 0.000824742 0.00649485 0.00804124 0.000927835 0.00701031 0.000103093 0.00597938 0.00453608 0.00525773 0.00773196 0.00206759 0.00984149 0.00541442 0.00097163 0.00817957 0.00979733 0.00234677 0.00128271 0.00779196 0.00809043 0.00203231 0.00551691 0.00744466 0.00543412 0.00469332 0.000755074 0.00849396 0.00547789 0.00381525 0 0.00752577 0.0101031 0.00154639 0.00536082 0.000721649 0.00865979 0.000515755 0.00175268 0.00826821 0.00137456 0.00542591 0.000816657 0.00619102 0.00605658 0.00790466 0.0047698 0.00528857 0.00886711 0.0105242 0.00236917 0.00211419 0.00206487 0.00228286 0.00340015 0.00203976 0.00664809 0.00404094 7.1538e-05 0.00719592 0.00298969 0.00556701 0.00443299 0.00278351 0.00711333 0.00484671 0.00887389 0.000484461 0.00107634 0.00541052 0.00901063 0.00883377 0.0016337 0.00535434 0.00333369 0.00573567 0.0111375 0.00128045 0.0097666 0.00861982 0.00103792 0.00574752 0.00390348 0.00700514 0.00237521 0.00748356 0.00419205 0.00895099 0.00649419 0.0042268 0.00587629 0.00948454 0.00484512 0.00546477 0.00735015 0.0020601 0.00557563 0.000794505 0.00749103 0.00574473 0.00722166 0.00542962 0.00712063 0.0066151 0.0110594 0.00893281 0.00568447 0.00875611 -0.00183501 -0.00207236 0.000903793 0.00478558 0.00357975 -2.18414e-05 0.00722829 0.00272163 0.0091637 0.0017602 0.00701031 0.00536082 0.00608244 0.00244494 0.00953371 0.000324752 0.00196835 0.00576471 0.00843185 0.00542893 0.00977874 0.00144252 0.00615655 0.00829157 -0.000834126 -0.00710274 -0.00744162 -0.00510786 0.00101538 0.00169756 0.00104377 0.00313664 0.00413761 0.000518815 0.00653822 0.00825565 0.00597378 0.00578445 0.00113402 0.010206 0.00762479 0.00772601 0.00404542 0.00626487 0.00359397 0.00884716 0.00626557 0.0103934 0.00931124 0.0118945 0.00370441 0.00641133 -0.00326502 -0.0106826 -0.00762132 -0.00108993 -0.00523302 -0.0021394 -0.00219963 -0.00708134 -0.00343099 0.000817742 0.00046809 2.55744e-05 0.000686968 0.000723038 0.00917526 0.00183733 0.00167909 0.00499944 1.17562e-05 0.000264735 -0.000432902 0.000534095 0.00333169 0.00955583 0.00346578 0.000884824 -0.00233798 0.000451275 0.00180899 -0.0120925 -0.00443885 -0.00843893 -0.00619721 -0.0044083 -0.00817571 -0.00298859 -0.00113517 -0.00652479 -0.000850768 0.0052898 0.0073673 0.00505181 0.00205363 0.008473 0.00579195 0.00627132 -0.00144732 -0.000507433 0.00165171 0.00585565 0.00812217 0.00353313 0.00386524 -0.00396483 0.00138073 -0.00291653 -0.00265282 -0.0101935 -0.00700801 -0.00856113 0.00236559 -0.00070952 -0.00683281 0.000770937 -0.00046888 0.00187866 -0.00176422 0.00909261 0.00829201 0.00298489 0.00123767 0.00589144 0.0079628 0.00359943 0.00897219 0.0077381 0.00851259 0.00502668 0.00345075 -0.0022399 -0.00852873 -0.00645576 -0.00644106 -0.0056029 -0.00499215 -0.00425868 -0.00104251 0.00598783 0.00308622 -0.00138912 -0.000180408 0.000121305 -0.00268238 0.00337818 0.00208407 0.00243967 0.00439218 0.0101838 0.00329961 0.00302446 0.00280067 0.0104415 0.00501922 0.00613904 0.00318309 0.00235797 0.00305163 -0.00129043 -0.00747381 -0.00790641 -0.00285279 0.00417307 0.00444576 0.00384351 0.00630876 0.00220305 0.00670618 0.000129304 -0.00139491 0.000713065 0.00244258 0.00173389 -4.50774e-05 0.00568183 0.00795196 0.00418727 0.00979388 0.00258808 0.00942388 0.00852405 0.00152983 0.00857185 0.0101849 0.00800505 0.00329634 -0.000956163 -0.000447642 -0.00644632 -0.00176988 -0.00368422 0.00249029 0.00359978 0.00685917 0.00586178 0.00452135 0.00314159 -0.000367186 0.00450049 0.00899168 0.00740184 0.00929608 0.00711048 0.00456827 0.00791953 0.00845361 0.00802035 0.0072126 0.00276021 0.00653428 0.00600482 0.00755205 0.00323982 0.00707239 0.00300643 -0.00882481 -0.00189136 -0.00296772 0.00255987 -0.00421103 -0.00119202 0.0066278 0.00307204 0.00413851 -0.00087268 -0.00151675 0.00386189 0.0111098 0.00747996 0.00606989 0.00178527 0.00242957 0.00587767 0.00835052 0.00238672 0.00350184 0.000367962 